svm_type c_svc
kernel_type sigmoid
gamma 0.014705882352941176
coef0 0.0
nr_class 3
total_sv 11702
rho -99.5486832621952 -302.1710549869034 -70.7390114012659
label 0 -1 1
nr_sv 4645 2417 4640
SV
1.0 1.0 1:1.0 3:2.0 4:1.0 5:3.0 6:2.0 10:1.0 11:2.0 20:2.0 
0.0 1.0 3:3.0 4:2.0 5:3.0 6:3.0 11:1.0 
0.0 1.0 3:3.0 13:1.0 16:2.0 
1.0 1.0 2:3.0 3:4.0 4:2.0 5:2.0 6:1.0 10:1.0 11:1.0 13:1.0 16:2.0 20:1.0 
0.0 1.0 2:2.0 3:2.0 6:1.0 13:1.0 16:2.0 20:1.0 
0.0 1.0 3:1.0 4:1.0 6:1.0 11:1.0 13:1.0 16:2.0 
1.0 1.0 3:4.0 5:1.0 6:1.0 13:1.0 16:2.0 
1.0 1.0 3:2.0 5:1.0 6:2.0 9:1.0 13:1.0 16:2.0 25:1.0 
1.0 1.0 3:2.0 4:3.0 5:1.0 6:2.0 13:1.0 16:2.0 
0.0 1.0 2:2.0 3:1.0 6:1.0 13:1.0 16:2.0 20:2.0 
0.0 1.0 3:2.0 6:2.0 14:1.0 
0.0 1.0 1:1.0 4:1.0 5:1.0 6:1.0 11:1.0 14:1.0 20:2.0 
0.0 1.0 1:1.0 3:1.0 4:1.0 5:3.0 10:2.0 11:1.0 20:-0.6 
0.0 1.0 1:1.0 5:1.0 6:2.0 13:1.0 16:2.0 20:1.0 
0.0 1.0 1:1.0 3:5.0 5:3.0 6:2.0 10:1.0 12:1.0 14:1.0 20:1.0 
1.0 1.0 3:2.0 5:1.0 6:3.0 11:1.0 13:2.0 16:2.0 22:2.0 
1.0 1.0 2:1.0 3:3.0 4:1.0 5:1.0 6:3.0 11:1.0 14:1.0 26:1.0 
0.0 1.0 3:3.0 5:1.0 6:1.0 
0.0 1.0 2:1.0 3:1.0 6:2.0 20:1.0 
0.0 1.0 2:1.0 3:1.0 5:1.0 6:2.0 20:1.0 
0.0 1.0 5:2.0 6:2.0 10:1.0 11:1.0 12:1.0 15:8.0 
0.0 1.0 4:1.0 6:2.0 11:3.0 12:1.0 13:1.0 15:4.0 16:2.0 
0.0 1.0 2:2.0 3:2.0 6:1.0 20:2.0 
0.0 1.0 3:2.0 5:1.0 6:1.0 
0.0 1.0 6:4.0 11:1.0 
1.0 1.0 1:1.0 2:1.0 3:1.0 4:2.0 5:2.0 6:1.0 10:1.0 11:1.0 13:1.0 14:1.0 20:-1.0 22:2.0 26:2.0 
1.0 1.0 1:1.0 3:2.0 4:1.0 5:2.0 6:3.0 10:1.0 12:1.0 13:1.0 15:4.0 16:2.0 20:-1.0 
0.0 1.0 2:1.0 3:2.0 6:1.0 20:1.0 
0.0 1.0 1:1.0 3:2.0 6:2.0 20:1.0 
1.0 1.0 2:1.0 3:2.0 4:1.0 5:1.0 6:2.0 11:1.0 12:1.0 13:1.0 15:2.0 16:2.0 20:2.0 
0.0 1.0 3:1.0 4:1.0 5:1.0 6:1.0 11:1.0 13:1.0 16:2.0 
1.0 1.0 3:4.0 5:1.0 6:1.0 11:1.0 
0.0 1.0 1:2.0 2:1.0 3:5.0 4:3.0 5:3.0 6:1.0 11:4.0 12:1.0 15:4.0 20:4.0 
0.0 1.0 2:1.0 3:5.0 4:1.0 5:1.0 6:3.0 13:1.0 20:1.0 22:2.0 
1.0 1.0 1:1.0 2:1.0 4:2.0 5:1.0 6:2.0 11:2.0 20:2.0 
0.0 1.0 1:2.0 3:2.0 4:1.0 5:4.0 6:6.0 20:1.0 
1.0 1.0 1:1.0 3:2.0 5:2.0 6:2.0 10:1.0 20:1.0 
0.0 1.0 3:1.0 4:2.0 5:2.0 11:1.0 
0.0 1.0 1:1.0 2:1.0 3:2.0 5:2.0 6:4.0 12:1.0 15:8.0 20:2.0 
1.0 1.0 2:1.0 3:1.0 5:4.0 6:1.0 10:1.0 11:3.0 20:1.5 
0.0 1.0 1:4.0 3:3.0 6:4.0 11:1.0 13:2.0 16:2.0 20:2.0 22:2.0 26:1.0 
0.0 1.0 1:1.0 3:6.0 4:1.0 5:3.0 11:3.0 20:1.5 
1.0 1.0 3:3.0 5:1.0 6:3.0 12:1.0 13:1.0 16:2.0 
1.0 1.0 3:3.0 5:1.0 6:3.0 12:1.0 13:1.0 16:2.0 
0.0 1.0 3:2.0 4:1.0 6:2.0 
0.0 1.0 1:2.0 3:5.0 4:1.0 5:2.0 6:3.0 11:1.0 12:1.0 13:2.0 16:2.0 20:0.8 28:2.0 
0.6590554199545888 1.0 1:1.0 3:3.0 4:3.0 5:2.0 6:3.0 9:1.0 11:3.0 19:1.0 
1.0 1.0 4:2.0 5:2.0 6:2.0 10:1.0 11:2.0 14:1.0 
0.0 1.0 3:1.0 6:4.0 
0.0 1.0 1:1.0 3:2.0 5:1.0 6:1.0 11:1.0 20:1.5 
1.0 1.0 2:1.0 3:1.0 5:2.0 6:3.0 10:1.0 20:1.0 
1.0 1.0 1:1.0 3:1.0 4:2.0 5:2.0 6:1.0 11:2.0 20:2.0 
0.0 1.0 1:1.0 2:1.0 3:2.0 4:1.0 5:3.0 6:2.0 11:1.0 12:1.0 15:8.0 20:4.0 
1.0 1.0 1:1.0 3:1.0 4:2.0 5:3.0 6:1.0 10:1.0 11:2.0 20:1.1 
1.0 1.0 3:1.0 4:2.0 5:1.0 6:1.0 11:3.0 12:1.0 15:4.0 
1.0 1.0 2:1.0 3:3.0 5:3.0 6:3.0 10:1.0 11:1.0 12:1.0 20:-1.0 
0.0 1.0 3:2.0 4:1.0 6:1.0 13:1.0 16:2.0 
0.0 1.0 1:1.0 3:1.0 5:1.0 6:1.0 13:1.0 16:2.0 20:1.0 
0.0 1.0 3:1.0 5:1.0 6:1.0 11:1.0 13:1.0 14:1.0 16:2.0 
1.0 1.0 2:2.0 3:1.0 5:2.0 6:2.0 11:2.0 13:1.0 16:2.0 20:4.0 
0.0 1.0 1:1.0 3:1.0 4:1.0 6:1.0 7:3.0 13:1.0 16:2.0 20:1.0 23:3.0 
0.0 1.0 3:1.0 5:1.0 6:2.0 12:1.0 15:8.0 
1.0 1.0 3:3.0 4:2.0 5:2.0 6:3.0 10:2.0 11:1.0 
0.0 1.0 1:1.0 3:2.0 5:1.0 6:1.0 11:1.0 20:1.0 
0.0 1.0 3:1.0 6:2.0 13:1.0 14:1.0 16:2.0 
1.0 1.0 1:1.0 2:1.0 3:2.0 6:2.0 20:2.0 
0.0 1.0 3:1.0 5:2.0 6:2.0 10:1.0 
0.0 1.0 3:1.0 5:1.0 6:2.0 12:1.0 15:8.0 
1.0 1.0 3:5.0 4:1.0 5:1.0 6:1.0 10:1.0 
0.7001589936761585 1.0 1:1.0 2:2.0 3:3.0 6:4.0 11:2.0 20:2.8 
0.0 1.0 3:3.0 4:1.0 5:1.0 11:1.0 
0.0 1.0 2:2.0 3:5.0 6:3.0 14:1.0 20:2.0 
0.0 1.0 1:1.0 3:4.0 20:1.0 
1.0 1.0 2:1.0 3:4.0 4:2.0 6:3.0 20:1.0 
1.0 1.0 2:3.0 3:3.0 4:1.0 6:1.0 20:3.0 
0.0 1.0 3:1.0 4:1.0 6:2.0 11:2.0 
1.0 1.0 1:1.0 3:2.0 5:1.0 6:3.0 13:1.0 16:2.0 20:1.0 
0.0 1.0 3:1.0 5:1.0 6:1.0 7:1.0 12:1.0 15:8.0 17:1.0 
1.0 1.0 3:2.0 5:3.0 6:3.0 10:1.0 
1.0 1.0 2:1.0 3:2.0 4:1.0 5:1.0 6:3.0 11:1.0 12:1.0 15:2.0 20:1.5 
1.0 1.0 2:1.0 3:2.0 4:1.0 5:3.0 6:4.0 7:1.0 11:1.0 20:1.0 23:1.0 
1.0 1.0 1:1.0 2:3.0 4:2.0 5:6.0 6:3.0 7:1.0 10:1.0 11:2.0 17:1.0 20:-1.0 
0.0 1.0 1:1.0 3:2.0 4:3.0 5:4.0 6:4.0 10:1.0 11:4.0 12:1.0 21:2.0 26:1.0 
1.0 1.0 3:2.0 5:1.0 6:3.0 13:1.0 16:2.0 
1.0 1.0 3:1.0 5:2.0 6:2.0 10:1.0 11:1.0 
1.0 1.0 5:3.0 6:4.0 12:2.0 15:8.0 
1.0 1.0 2:1.0 3:5.0 5:1.0 6:2.0 20:1.0 
1.0 1.0 3:4.0 4:1.0 5:1.0 6:1.0 
0.0 1.0 3:5.0 5:2.0 6:2.0 10:2.0 
1.0 1.0 2:1.0 3:4.0 5:1.0 6:1.0 20:1.0 
0.0 1.0 3:4.0 5:1.0 6:4.0 10:1.0 11:1.0 
1.0 1.0 1:1.0 2:1.0 3:1.0 5:2.0 6:4.0 12:1.0 15:8.0 20:1.0 
0.0 1.0 1:1.0 3:1.0 5:1.0 6:1.0 20:1.0 
0.0 1.0 1:1.0 2:1.0 3:5.0 6:2.0 20:2.0 
1.0 1.0 2:1.0 3:3.0 5:1.0 6:3.0 20:1.0 
1.0 1.0 1:1.0 2:1.0 3:2.0 6:4.0 20:2.0 
1.0 1.0 2:2.0 3:4.0 4:2.0 5:2.0 6:1.0 11:2.0 20:2.0 
0.0 1.0 1:1.0 2:2.0 3:1.0 4:1.0 5:4.0 6:5.0 10:2.0 11:2.0 13:3.0 20:-1.0 22:2.0 26:4.0 
1.0 1.0 3:3.0 4:2.0 6:1.0 11:2.0 13:1.0 16:2.0 
1.0 1.0 2:1.0 3:1.0 4:1.0 5:2.0 6:1.0 11:1.0 14:1.0 20:1.5 
0.0 1.0 1:1.0 3:5.0 5:1.0 6:3.0 11:1.0 20:1.0 
0.0 1.0 3:3.0 14:1.0 
0.0 1.0 3:1.0 4:1.0 5:1.0 6:1.0 
1.0 1.0 2:1.0 3:1.0 5:1.0 6:3.0 11:1.0 14:1.0 20:3.0 
1.0 1.0 1:1.0 3:1.0 5:2.0 6:2.0 10:1.0 12:1.0 20:1.0 
1.0 1.0 2:1.0 3:2.0 5:2.0 6:3.0 10:1.0 11:1.0 20:3.0 
0.0 1.0 2:1.0 4:1.0 5:3.0 6:1.0 7:1.0 10:1.0 11:2.0 17:1.0 20:-1.5 
0.0 1.0 3:3.0 7:1.0 14:1.0 23:1.0 
0.0 1.0 3:1.0 5:1.0 6:1.0 11:2.0 
1.0 1.0 1:1.0 3:3.0 4:1.0 6:1.0 9:1.0 19:1.0 20:1.0 
1.0 1.0 3:2.0 5:1.0 6:4.0 
1.0 1.0 2:1.0 3:2.0 4:1.0 5:1.0 6:3.0 11:1.0 13:1.0 16:2.0 20:1.0 
0.0 1.0 1:3.0 3:2.0 4:1.0 5:2.0 6:3.0 10:1.0 11:2.0 20:1.0 
1.0 1.0 1:1.0 2:1.0 3:1.0 4:1.0 5:2.0 6:2.0 12:1.0 13:1.0 15:8.0 16:2.0 20:2.0 
0.0 1.0 1:1.0 2:1.0 3:1.0 4:1.0 5:1.0 20:2.0 
1.0 1.0 2:3.0 3:3.0 6:4.0 20:3.0 
1.0 1.0 4:2.0 5:4.0 6:2.0 11:3.0 
1.0 1.0 1:1.0 2:1.0 3:3.0 5:1.0 6:2.0 10:1.0 11:1.0 20:-1.0 26:1.0 
0.0 1.0 2:1.0 3:1.0 5:1.0 6:1.0 11:1.0 20:2.0 
0.0 1.0 3:1.0 5:1.0 6:2.0 
0.0 1.0 3:1.0 6:3.0 
0.0 1.0 3:1.0 5:1.0 6:2.0 11:1.0 14:1.0 
1.0 1.0 1:1.0 3:1.0 4:1.0 5:1.0 6:4.0 12:1.0 20:1.0 
1.0 1.0 3:3.0 4:2.0 6:1.0 11:1.0 
1.0 1.0 3:5.0 5:1.0 6:1.0 11:1.0 
0.0 1.0 3:1.0 4:1.0 5:1.0 6:1.0 11:1.0 
1.0 1.0 3:3.0 4:3.0 6:1.0 
1.0 1.0 1:1.0 3:2.0 5:2.0 6:1.0 10:1.0 14:1.0 20:1.0 
1.0 1.0 1:1.0 3:2.0 4:1.0 5:1.0 6:2.0 11:1.0 14:1.0 20:1.5 
1.0 1.0 5:1.0 6:4.0 8:1.0 10:1.0 18:1.0 
1.0 1.0 3:3.0 4:1.0 5:3.0 6:2.0 10:2.0 11:2.0 
1.0 1.0 3:2.0 5:1.0 6:2.0 11:2.0 
1.0 1.0 3:1.0 5:2.0 6:2.0 12:1.0 13:1.0 21:8.0 28:2.0 
1.0 1.0 2:1.0 3:3.0 4:2.0 5:2.0 6:1.0 11:1.0 13:1.0 20:1.5 22:2.0 
1.0 1.0 1:1.0 2:1.0 3:1.0 4:2.0 5:3.0 6:4.0 10:1.0 11:1.0 20:2.7 
1.0 1.0 1:1.0 3:1.0 5:3.0 6:3.0 11:1.0 12:2.0 14:1.0 15:4.0 
0.0 1.0 3:1.0 4:1.0 5:1.0 6:2.0 11:1.0 14:1.0 
1.0 1.0 2:1.0 3:1.0 4:1.0 5:2.0 6:3.0 10:1.0 11:1.0 20:-1.0 
0.0 1.0 3:1.0 5:2.0 6:1.0 10:1.0 11:1.0 13:1.0 16:2.0 
0.0 1.0 3:1.0 4:2.0 5:1.0 6:1.0 11:2.0 
0.0 1.0 2:2.0 3:5.0 4:2.0 5:1.0 6:2.0 11:1.0 20:3.4 
1.0 1.0 1:1.0 2:1.0 3:2.0 5:2.0 6:2.0 11:1.0 20:2.5 
0.0 1.0 1:1.0 3:1.0 6:2.0 
1.0 1.0 3:2.0 5:2.0 6:3.0 10:1.0 11:1.0 13:1.0 16:2.0 
1.0 1.0 1:1.0 2:1.0 3:1.0 5:1.0 6:2.0 13:1.0 20:1.0 22:2.0 26:1.0 
0.0 1.0 3:1.0 4:1.0 5:1.0 6:2.0 12:1.0 
1.0 1.0 2:1.0 3:1.0 5:1.0 6:2.0 13:1.0 16:2.0 20:1.0 
1.0 1.0 1:1.0 2:1.0 3:2.0 4:2.0 5:1.0 6:1.0 10:1.0 11:1.0 
0.0 1.0 2:1.0 4:1.0 5:1.0 6:2.0 11:2.0 20:1.5 
1.0 1.0 2:2.0 3:1.0 6:3.0 20:2.0 
0.0 1.0 3:5.0 5:1.0 6:2.0 8:1.0 11:1.0 14:3.0 36:1.0 
0.0 1.0 3:2.0 5:1.0 6:1.0 
0.0 1.0 1:1.0 3:1.0 4:1.0 5:1.0 6:2.0 7:1.0 11:1.0 17:1.0 20:1.0 
0.0 1.0 1:1.0 3:1.0 5:1.0 6:1.0 20:1.0 
1.0 1.0 3:5.0 6:3.0 8:2.0 18:2.0 
0.0 1.0 3:3.0 4:1.0 6:1.0 11:1.0 
0.0 1.0 3:2.0 6:1.0 8:1.0 13:1.0 22:2.0 30:1.0 
1.0 1.0 3:4.0 4:2.0 5:1.0 6:3.0 11:1.0 13:3.0 22:2.0 28:2.0 
0.0 1.0 1:3.0 3:1.0 5:1.0 6:2.0 12:1.0 20:3.0 
1.0 1.0 3:2.0 4:1.0 5:3.0 7:1.0 10:1.0 11:1.0 23:1.0 
1.0 1.0 3:1.0 6:3.0 7:2.0 12:1.0 13:2.0 16:2.0 17:2.0 21:4.0 22:2.0 
1.0 1.0 3:1.0 4:3.0 5:1.0 6:1.0 8:2.0 11:2.0 24:2.0 
0.0 1.0 1:1.0 3:4.0 6:3.0 7:1.0 11:1.0 13:1.0 22:2.0 29:1.0 
1.0 1.0 3:3.0 5:1.0 6:1.0 8:1.0 13:1.0 14:1.0 16:2.0 30:1.0 
0.0 1.0 3:2.0 7:1.0 13:1.0 16:2.0 23:1.0 
0.0 1.0 3:1.0 5:1.0 6:1.0 7:2.0 29:2.0 
0.0 1.0 1:1.0 3:1.0 6:2.0 20:1.0 
1.0 1.0 1:1.0 2:1.0 3:2.0 4:1.0 5:1.0 6:1.0 8:1.0 9:1.0 11:1.0 18:1.0 19:1.0 20:2.0 
0.0 1.0 2:1.0 3:1.0 4:1.0 5:1.0 6:1.0 20:1.0 
1.0 1.0 2:1.0 3:2.0 5:2.0 6:3.0 20:1.0 
1.0 1.0 3:2.0 5:2.0 6:3.0 11:1.0 12:1.0 
0.0 1.0 1:2.0 3:1.0 4:2.0 5:1.0 6:2.0 11:1.0 12:1.0 15:8.0 20:4.0 
0.0 1.0 1:1.0 3:2.0 5:1.0 20:1.0 
0.0 1.0 1:1.0 3:3.0 20:1.0 
0.0 1.0 1:1.0 3:2.0 6:2.0 20:1.0 
0.0 1.0 1:1.0 3:2.0 6:1.0 20:1.0 
1.0 1.0 3:2.0 4:1.0 6:5.0 13:2.0 16:2.0 22:2.0 
1.0 1.0 2:1.0 5:2.0 6:5.0 7:2.0 13:1.0 16:2.0 26:1.0 29:2.0 
0.0 1.0 3:2.0 6:1.0 7:1.0 14:1.0 23:1.0 
0.0 1.0 1:1.0 5:1.0 6:2.0 12:2.0 15:8.0 20:1.0 
0.0 1.0 3:2.0 6:1.0 7:1.0 17:1.0 
0.0 1.0 1:1.0 4:1.0 5:1.0 6:1.0 11:1.0 20:1.5 
0.0 1.0 3:2.0 4:1.0 5:1.0 11:1.0 
1.0 1.0 1:1.0 3:2.0 4:1.0 5:1.0 6:2.0 11:1.0 20:0.8 
1.0 1.0 3:4.0 5:1.0 6:3.0 8:1.0 10:1.0 11:1.0 18:1.0 
1.0 1.0 1:1.0 3:2.0 4:1.0 5:1.0 6:2.0 7:1.0 9:5.0 11:1.0 17:1.0 19:5.0 20:1.0 
1.0 1.0 3:1.0 5:1.0 6:4.0 10:1.0 
0.0 1.0 1:1.0 3:2.0 5:1.0 6:5.0 12:1.0 13:2.0 16:2.0 20:1.0 21:2.0 22:2.0 
1.0 1.0 3:1.0 5:3.0 6:2.0 10:1.0 13:1.0 16:2.0 
0.0 1.0 3:2.0 6:2.0 7:1.0 17:1.0 
0.0 1.0 3:2.0 6:2.0 13:1.0 16:2.0 
0.0 1.0 3:1.0 5:1.0 6:2.0 7:3.0 17:3.0 
1.0 1.0 1:2.0 3:4.0 4:1.0 5:1.0 6:2.0 11:2.0 13:1.0 14:1.0 34:2.0 38:1.0 44:1.0 
0.0 1.0 3:3.0 7:1.0 8:1.0 17:1.0 18:1.0 
1.0 1.0 1:1.0 2:1.0 3:1.0 4:3.0 6:2.0 13:1.0 16:2.0 20:2.0 
0.0 1.0 1:1.0 3:1.0 5:1.0 6:1.0 12:1.0 20:1.0 
1.0 1.0 3:4.0 6:2.0 7:2.0 14:1.0 23:2.0 
1.0 1.0 1:2.0 2:1.0 3:1.0 5:2.0 6:1.0 10:1.0 11:2.0 13:1.0 16:2.0 26:1.0 
0.0 1.0 3:1.0 4:1.0 6:2.0 11:2.0 12:1.0 15:2.0 
1.0 1.0 1:1.0 3:2.0 4:1.0 6:2.0 11:1.0 12:1.0 15:2.0 20:1.0 
0.0 1.0 1:1.0 3:3.0 6:1.0 20:1.0 
1.0 1.0 2:2.0 3:4.0 4:1.0 6:1.0 7:1.0 12:1.0 15:4.0 20:2.0 23:1.0 
0.0 1.0 3:1.0 5:1.0 6:2.0 7:2.0 10:1.0 14:2.0 29:2.0 
1.0 1.0 3:3.0 4:1.0 5:1.0 6:2.0 9:1.0 10:1.0 19:1.0 
0.0 1.0 3:1.0 5:1.0 6:2.0 
1.0 1.0 3:2.0 6:3.0 13:1.0 16:2.0 
1.0 1.0 1:3.0 2:3.0 3:1.0 5:1.0 6:3.0 7:1.0 12:2.0 13:2.0 15:4.0 16:2.0 20:3.0 22:2.0 26:2.0 29:1.0 
1.0 1.0 1:1.0 2:1.0 3:2.0 6:3.0 7:5.0 13:1.0 16:2.0 20:2.0 23:5.0 
0.0 1.0 1:2.0 3:2.0 6:1.0 20:2.0 
0.0 1.0 1:1.0 3:1.0 4:3.0 5:1.0 6:1.0 11:2.0 20:1.0 
1.0 1.0 1:1.0 2:2.0 3:3.0 4:1.0 5:1.0 6:1.0 14:1.0 20:3.0 
0.0 1.0 1:1.0 2:1.0 3:1.0 5:1.0 6:2.0 10:1.0 20:-1.0 
0.0 1.0 1:1.0 2:3.0 3:1.0 4:2.0 5:1.0 7:1.0 10:1.0 17:1.0 
0.0 1.0 3:2.0 6:1.0 7:1.0 23:1.0 
0.0 1.0 3:2.0 6:1.0 
0.0 1.0 3:2.0 4:1.0 5:2.0 6:6.0 11:2.0 
1.0 1.0 1:1.0 3:1.0 4:2.0 5:2.0 6:1.0 10:1.0 11:1.0 20:1.5 
0.0 1.0 1:1.0 3:3.0 4:1.0 20:1.0 
0.0 1.0 2:1.0 3:2.0 4:1.0 6:1.0 7:1.0 20:1.0 23:1.0 
0.0 1.0 1:1.0 3:1.0 4:1.0 6:2.0 20:1.0 
0.0 1.0 3:4.0 
1.0 1.0 1:1.0 3:1.0 5:1.0 6:4.0 9:1.0 11:1.0 19:1.0 20:1.5 
0.0 1.0 2:2.0 3:3.0 14:1.0 20:1.0 
0.0 1.0 1:2.0 3:1.0 4:2.0 6:2.0 7:1.0 20:1.0 29:1.0 
0.0 1.0 1:1.0 4:1.0 5:1.0 6:1.0 11:1.0 20:2.0 
1.0 1.0 3:1.0 5:1.0 6:5.0 7:1.0 17:1.0 
0.0 1.0 3:1.0 5:1.0 6:1.0 11:1.0 12:1.0 13:1.0 15:8.0 16:2.0 
0.0 1.0 1:1.0 3:3.0 6:1.0 20:1.0 
0.0 1.0 1:1.0 3:2.0 4:1.0 5:1.0 6:1.0 20:1.0 
1.0 1.0 1:1.0 3:2.0 4:1.0 5:1.0 6:2.0 10:1.0 20:-1.0 
0.0 1.0 5:1.0 6:3.0 7:1.0 17:1.0 
1.0 0.0 2:1.0 5:2.0 6:2.0 8:2.0 10:1.0 18:2.0 20:1.0 
1.0 1.0 1:1.0 3:1.0 5:2.0 6:3.0 20:1.0 
0.0 1.0 1:1.0 3:1.0 6:1.0 7:1.0 17:1.0 
0.0 1.0 3:1.0 4:3.0 7:1.0 11:2.0 17:1.0 
0.0 1.0 3:2.0 4:2.0 6:1.0 8:1.0 18:1.0 
0.0 1.0 3:1.0 6:3.0 
0.0 1.0 1:1.0 3:5.0 4:1.0 6:2.0 7:1.0 17:1.0 20:1.0 
1.0 1.0 1:1.0 3:2.0 4:1.0 6:3.0 7:1.0 8:1.0 17:1.0 18:1.0 
1.0 1.0 1:1.0 2:1.0 3:2.0 4:1.0 6:1.0 7:1.0 12:1.0 13:2.0 16:2.0 21:4.0 22:2.0 29:1.0 32:1.0 
0.0 1.0 2:1.0 3:1.0 4:1.0 5:2.0 7:1.0 11:1.0 17:1.0 20:1.5 
1.0 1.0 2:1.0 3:1.0 5:1.0 6:3.0 10:2.0 12:1.0 15:2.0 20:1.0 
0.0 1.0 3:2.0 4:2.0 8:1.0 18:1.0 
0.0 1.0 3:1.0 5:1.0 6:3.0 
1.0 1.0 3:4.0 4:3.0 5:1.0 6:2.0 10:1.0 11:1.0 
0.0 1.0 1:2.0 2:1.0 3:5.0 4:2.0 5:2.0 6:2.0 10:1.0 12:1.0 14:1.0 26:1.0 27:4.0 32:2.0 
1.0 1.0 1:2.0 2:1.0 3:3.0 4:2.0 5:3.0 6:1.0 10:1.0 11:1.0 20:-0.5 
0.0 1.0 1:1.0 2:1.0 3:3.0 6:1.0 20:2.0 
0.0 1.0 1:1.0 2:2.0 3:3.0 4:2.0 5:2.0 6:2.0 11:4.0 12:1.0 15:4.0 20:6.75 
1.0 1.0 3:1.0 5:2.0 6:3.0 11:2.0 
1.0 1.0 2:1.0 3:2.0 5:1.0 6:4.0 7:2.0 17:2.0 20:1.0 
0.0 1.0 1:1.0 3:4.0 4:2.0 6:2.0 11:1.0 12:1.0 14:2.0 15:4.0 20:1.0 
0.0 1.0 1:3.0 2:3.0 3:2.0 5:2.0 6:5.0 7:1.0 10:1.0 20:1.0 23:1.0 
1.0 1.0 1:1.0 3:2.0 5:1.0 6:2.0 20:1.0 
0.0 1.0 1:3.0 3:2.0 5:4.0 6:4.0 7:1.0 11:2.0 13:1.0 14:1.0 16:2.0 26:7.0 29:1.0 
0.0 1.0 3:5.0 5:4.0 6:3.0 7:1.0 10:1.0 11:2.0 17:1.0 
1.0 1.0 1:1.0 3:2.0 4:1.0 5:2.0 6:2.0 11:2.0 12:2.0 15:2.0 20:1.0 
1.0 1.0 1:2.0 3:3.0 4:1.0 5:2.0 6:1.0 11:1.0 20:2.5 
0.0 1.0 1:1.0 3:5.0 5:1.0 6:2.0 10:1.0 20:1.0 
0.0 1.0 3:3.0 6:1.0 
1.0 1.0 2:1.0 3:5.0 4:1.0 5:2.0 11:1.0 12:1.0 15:8.0 20:2.0 
0.0 1.0 1:2.0 3:4.0 4:1.0 5:3.0 6:3.0 10:1.0 11:2.0 14:1.0 20:-1.0 
1.0 1.0 1:2.0 3:2.0 4:3.0 5:2.0 6:1.0 11:1.0 20:2.0 
0.0 1.0 3:3.0 6:2.0 
1.0 1.0 1:1.0 3:4.0 4:1.0 5:2.0 6:2.0 10:2.0 
0.0 1.0 3:2.0 4:2.0 5:1.0 11:1.0 
1.0 1.0 1:2.0 2:1.0 3:1.0 4:1.0 5:4.0 6:3.0 7:1.0 10:1.0 11:1.0 12:1.0 13:2.0 16:2.0 20:1.0 21:8.0 22:2.0 29:1.0 
1.0 1.0 1:2.0 3:3.0 5:2.0 6:1.0 13:2.0 14:5.0 16:2.0 20:1.0 22:2.0 26:1.0 
0.0 1.0 1:1.0 3:1.0 4:1.0 5:1.0 6:2.0 20:1.0 
0.0 1.0 3:2.0 4:2.0 6:2.0 
1.0 1.0 1:1.0 2:1.0 3:1.0 5:2.0 6:2.0 13:1.0 16:2.0 20:1.0 
0.0 1.0 2:1.0 3:1.0 6:3.0 20:1.0 
0.0 1.0 2:2.0 3:3.0 4:1.0 5:1.0 6:4.0 10:1.0 11:1.0 14:10.0 38:1.0 44:-1.0 
1.0 1.0 2:1.0 3:2.0 4:1.0 6:4.0 20:1.0 
0.0 1.0 1:1.0 5:1.0 6:2.0 11:1.0 
0.0 1.0 1:2.0 3:2.0 4:1.0 6:2.0 14:1.0 20:1.0 26:1.0 
0.0 1.0 3:1.0 5:2.0 6:1.0 10:1.0 11:1.0 
0.0 1.0 1:1.0 2:1.0 3:1.0 4:1.0 6:1.0 10:1.0 
0.0 1.0 3:1.0 5:1.0 6:2.0 10:1.0 
1.0 1.0 3:2.0 4:1.0 5:1.0 6:2.0 11:2.0 
1.0 1.0 2:1.0 3:2.0 4:2.0 5:2.0 6:1.0 11:3.0 20:4.5 
0.0 1.0 1:1.0 2:1.0 3:2.0 5:1.0 6:1.0 20:2.0 
0.0 1.0 1:1.0 3:1.0 5:3.0 6:6.0 10:1.0 11:2.0 12:4.0 15:4.0 20:1.0 
0.0 1.0 3:2.0 6:1.0 11:1.0 
0.0 1.0 3:2.0 5:1.0 6:1.0 10:1.0 
0.0 1.0 1:1.0 3:2.0 5:1.0 6:1.0 9:1.0 19:1.0 20:1.0 
0.0 1.0 3:2.0 6:1.0 
0.0 1.0 3:2.0 4:1.0 6:1.0 11:1.0 13:1.0 16:2.0 
0.0 1.0 1:1.0 3:5.0 6:1.0 20:1.0 
0.0 1.0 3:1.0 5:1.0 6:2.0 
1.0 1.0 1:1.0 3:1.0 5:1.0 6:3.0 9:1.0 19:1.0 20:1.0 
0.0 1.0 2:1.0 3:1.0 4:1.0 5:1.0 7:1.0 11:1.0 17:1.0 20:1.0 
0.0 1.0 1:1.0 3:1.0 4:1.0 5:1.0 6:2.0 11:1.0 20:1.5 
1.0 1.0 2:2.0 3:1.0 4:2.0 5:2.0 6:4.0 11:1.0 12:2.0 13:1.0 15:4.0 16:2.0 20:1.0 21:8.0 26:1.0 
0.0 1.0 3:2.0 6:1.0 
1.0 1.0 3:4.0 4:1.0 6:1.0 
0.0 1.0 1:1.0 3:7.0 20:1.0 
1.0 1.0 1:2.0 2:1.0 3:1.0 4:2.0 5:2.0 6:4.0 20:3.0 
1.0 1.0 2:1.0 3:2.0 4:2.0 6:3.0 14:1.0 20:1.0 
1.0 1.0 3:4.0 6:2.0 
0.0 1.0 3:3.0 6:1.0 
0.0 1.0 1:1.0 3:1.0 4:1.0 5:1.0 6:2.0 11:2.0 
1.0 1.0 1:1.0 2:1.0 4:2.0 5:4.0 6:2.0 10:1.0 11:2.0 14:1.0 20:-1.0 26:1.5 
0.0 1.0 1:2.0 2:2.0 3:5.0 5:2.0 6:3.0 10:2.0 20:-1.0 
1.0 1.0 1:1.0 3:1.0 5:1.0 6:3.0 11:1.0 20:1.0 
0.0 1.0 2:1.0 3:1.0 4:1.0 5:2.0 6:1.0 10:1.0 20:-1.0 
1.0 1.0 2:2.0 3:2.0 5:1.0 6:4.0 12:1.0 14:1.0 15:2.0 20:1.0 
0.0 1.0 1:1.0 3:1.0 5:1.0 6:1.0 10:1.0 
0.0 1.0 3:2.0 6:1.0 
0.0 1.0 1:1.0 3:1.0 5:1.0 6:3.0 11:1.0 12:1.0 15:8.0 20:3.0 
1.0 1.0 3:2.0 4:1.0 5:2.0 6:4.0 11:1.0 13:2.0 16:2.0 22:2.0 
0.0 1.0 1:1.0 3:5.0 6:2.0 20:1.0 
0.0 1.0 1:2.0 3:2.0 6:5.0 11:1.0 14:1.0 20:1.0 26:1.0 
0.0 1.0 1:1.0 2:1.0 3:3.0 4:2.0 5:1.0 6:4.0 10:1.0 11:1.0 20:2.0 
0.0 1.0 3:2.0 6:2.0 14:2.0 
0.0 1.0 1:1.0 6:4.0 11:1.0 20:2.0 
0.0 1.0 1:1.0 4:1.0 6:2.0 20:1.0 
0.0 1.0 1:2.0 3:1.0 4:1.0 6:1.0 14:1.0 20:2.0 
0.0 1.0 3:1.0 6:3.0 14:1.0 
1.0 1.0 3:1.0 5:2.0 6:3.0 10:2.0 11:1.0 
1.0 1.0 1:1.0 3:2.0 4:1.0 6:4.0 9:3.0 19:3.0 20:1.0 
0.0 1.0 3:2.0 4:1.0 6:2.0 11:1.0 
0.0 1.0 1:1.0 3:5.0 6:1.0 20:1.0 
0.0 1.0 1:3.0 5:1.0 6:6.0 11:1.0 12:1.0 15:8.0 20:5.0 
1.0 1.0 3:4.0 5:1.0 11:1.0 13:1.0 16:2.0 
0.0 1.0 1:2.0 3:1.0 4:1.0 6:2.0 20:2.0 
1.0 1.0 1:1.0 3:1.0 4:2.0 5:4.0 6:2.0 11:2.0 12:1.0 20:2.0 
0.0 1.0 1:1.0 5:3.0 6:2.0 13:1.0 16:2.0 20:1.0 
1.0 1.0 3:4.0 6:2.0 
1.0 1.0 2:2.0 3:1.0 5:1.0 6:2.0 12:1.0 20:2.0 
1.0 1.0 1:1.0 3:3.0 4:2.0 6:3.0 11:1.0 20:2.0 
0.0 1.0 1:2.0 3:2.0 4:2.0 5:2.0 6:4.0 10:1.0 11:1.0 20:3.0 26:1.0 
0.0 1.0 1:2.0 5:1.0 6:4.0 20:2.0 
0.0 1.0 1:1.0 3:2.0 20:1.0 
0.0 1.0 1:1.0 3:1.0 6:1.0 20:1.0 
0.0 1.0 1:1.0 2:1.0 3:5.0 4:2.0 5:1.0 6:2.0 20:2.0 
0.0 1.0 3:1.0 5:1.0 6:2.0 10:1.0 
0.0 1.0 1:2.0 4:2.0 5:4.0 11:3.0 20:3.75 
0.0 1.0 3:1.0 6:2.0 7:1.0 17:1.0 
1.0 1.0 3:1.0 4:1.0 5:3.0 6:5.0 8:1.0 10:1.0 18:1.0 
1.0 1.0 2:1.0 3:1.0 4:2.0 5:2.0 6:1.0 11:2.0 20:6.0 
1.0 1.0 1:1.0 5:6.0 6:3.0 10:2.0 11:1.0 12:1.0 15:4.0 20:-1.0 
0.0 1.0 3:2.0 6:1.0 14:3.0 
0.0 1.0 3:1.0 5:2.0 6:1.0 7:1.0 10:1.0 12:1.0 17:1.0 
0.0 1.0 1:2.0 3:4.0 4:3.0 5:3.0 6:3.0 10:1.0 11:1.0 13:2.0 16:2.0 20:1.0 22:2.0 
0.0 1.0 3:2.0 5:1.0 6:1.0 
0.0 1.0 1:1.0 3:2.0 4:3.0 6:1.0 13:1.0 14:1.0 20:1.0 
0.0 1.0 3:2.0 6:1.0 14:1.0 
1.0 1.0 3:1.0 4:2.0 5:3.0 6:4.0 8:1.0 11:3.0 14:1.0 24:1.0 
0.0 1.0 3:3.0 6:2.0 
0.0 1.0 1:1.0 3:1.0 4:2.0 6:1.0 
0.0 1.0 3:2.0 6:1.0 14:1.0 
1.0 1.0 2:1.0 3:1.0 4:1.0 6:6.0 10:2.0 20:1.0 
1.0 1.0 3:4.0 4:2.0 6:2.0 8:1.0 24:1.0 
0.0 1.0 3:1.0 5:1.0 6:1.0 10:1.0 11:1.0 13:1.0 16:2.0 
0.0 1.0 3:1.0 5:1.0 6:2.0 11:1.0 
1.0 1.0 2:1.0 5:3.0 6:2.0 10:2.0 20:1.0 
0.0 1.0 3:5.0 5:1.0 6:2.0 14:1.0 
0.0 1.0 1:1.0 3:1.0 6:2.0 20:1.0 
1.0 1.0 1:1.0 3:1.0 5:1.0 6:5.0 11:1.0 20:1.0 
1.0 1.0 2:1.0 3:1.0 4:1.0 6:3.0 20:1.0 
0.0 1.0 1:3.0 3:3.0 4:3.0 5:4.0 6:2.0 10:1.0 11:1.0 12:2.0 14:1.0 15:8.0 20:-0.2 26:1.0 
1.0 1.0 3:2.0 4:2.0 5:2.0 6:4.0 11:1.0 13:3.0 16:2.0 22:2.0 34:2.0 
0.0 1.0 3:4.0 4:1.0 6:4.0 8:1.0 10:1.0 36:1.0 
1.0 1.0 1:2.0 3:2.0 4:3.0 5:3.0 6:3.0 11:1.0 12:2.0 13:1.0 20:1.0 32:1.0 33:8.0 34:2.0 
1.0 1.0 3:4.0 5:1.0 6:3.0 
0.0 1.0 1:2.0 3:6.0 4:1.0 5:1.0 6:2.0 7:1.0 13:3.0 14:1.0 20:1.0 22:2.0 28:2.0 32:1.0 34:2.0 41:1.0 
0.0 1.0 3:1.0 4:1.0 5:2.0 12:1.0 21:8.0 
0.0 1.0 2:1.0 3:2.0 6:1.0 7:1.0 20:1.0 23:1.0 
1.0 1.0 3:2.0 4:1.0 5:1.0 6:2.0 8:1.0 10:1.0 14:1.0 30:1.0 
0.0 1.0 1:1.0 3:4.0 5:3.0 6:4.0 8:2.0 10:1.0 30:2.0 
0.0 1.0 3:2.0 5:1.0 6:1.0 13:1.0 16:2.0 
0.0 1.0 3:2.0 4:1.0 6:1.0 8:1.0 14:1.0 30:1.0 
0.0 1.0 3:1.0 5:1.0 6:2.0 8:1.0 10:1.0 13:1.0 22:2.0 30:1.0 
0.0 1.0 3:2.0 6:2.0 13:1.0 16:2.0 
0.0 1.0 1:1.0 3:2.0 4:1.0 6:2.0 7:1.0 17:1.0 20:1.0 
1.0 1.0 1:1.0 3:2.0 5:2.0 6:3.0 10:1.0 14:1.0 16:1.0 
1.0 1.0 1:2.0 3:1.0 4:1.0 5:1.0 6:2.0 13:1.0 14:1.0 16:2.0 20:2.0 
1.0 1.0 5:1.0 6:3.0 11:1.0 12:1.0 13:1.0 15:4.0 16:2.0 
0.0 1.0 3:3.0 4:1.0 13:1.0 16:2.0 
0.0 1.0 3:3.0 5:1.0 12:1.0 
0.0 1.0 1:3.0 3:3.0 5:2.0 6:4.0 12:1.0 15:8.0 20:3.0 
0.0 1.0 3:1.0 6:3.0 
0.0 1.0 1:2.0 3:1.0 4:2.0 6:1.0 11:1.0 12:2.0 15:4.0 20:2.0 
0.0 1.0 3:3.0 6:1.0 
0.0 1.0 1:2.0 3:4.0 6:1.0 20:2.0 
0.0 1.0 3:3.0 6:1.0 
0.0 1.0 3:4.0 4:1.0 5:1.0 6:2.0 11:1.0 12:1.0 15:8.0 
1.0 1.0 3:3.0 4:1.0 5:1.0 6:3.0 7:1.0 14:1.0 23:1.0 
0.0 1.0 1:1.0 3:4.0 6:3.0 11:1.0 20:0.8 
1.0 1.0 1:1.0 3:2.0 5:2.0 6:2.0 10:2.0 
1.0 1.0 1:1.0 2:1.0 3:2.0 5:1.0 6:2.0 11:1.0 
0.0 1.0 2:1.0 3:2.0 4:1.0 6:1.0 20:1.0 
0.0 1.0 3:2.0 4:1.0 5:1.0 6:1.0 11:1.0 
0.0 1.0 1:1.0 3:2.0 6:2.0 20:1.0 
0.0 1.0 3:2.0 6:1.0 
1.0 1.0 1:1.0 3:4.0 6:2.0 20:1.0 
1.0 1.0 3:2.0 4:2.0 6:2.0 11:1.0 
0.0 1.0 3:2.0 6:1.0 
0.0 1.0 3:4.0 6:1.0 
1.0 1.0 1:2.0 2:1.0 3:4.0 5:2.0 6:1.0 11:1.0 20:1.0 
0.0 1.0 1:1.0 3:7.0 6:1.0 20:1.0 
0.0 1.0 1:2.0 3:2.0 6:2.0 20:2.0 
1.0 1.0 1:1.0 3:2.0 4:3.0 5:1.0 6:2.0 11:1.0 12:1.0 15:8.0 20:1.0 
0.0 1.0 1:2.0 3:2.0 6:2.0 20:2.0 
0.0 1.0 3:3.0 6:1.0 
0.775640026438698 1.0 1:1.0 3:2.0 5:2.0 6:1.0 12:1.0 20:1.0 
0.0 1.0 3:1.0 4:1.0 5:1.0 6:2.0 
0.0 1.0 3:8.0 
0.0 1.0 3:3.0 6:1.0 
1.0 1.0 3:3.0 6:2.0 11:1.0 
1.0 1.0 3:4.0 5:2.0 6:2.0 
0.0 1.0 3:2.0 6:2.0 
0.0 1.0 1:1.0 3:6.0 6:2.0 14:7.0 
0.0 1.0 2:1.0 3:1.0 5:1.0 6:2.0 12:1.0 20:1.0 
1.0 1.0 1:1.0 2:1.0 3:2.0 5:1.0 6:2.0 10:1.0 11:1.0 20:-1.0 
0.0 1.0 1:1.0 3:1.0 5:1.0 6:1.0 12:1.0 15:8.0 20:1.0 
0.0 1.0 1:1.0 3:2.0 4:1.0 5:3.0 6:4.0 11:2.0 12:2.0 15:8.0 20:3.0 
0.0 1.0 1:1.0 3:1.0 5:1.0 6:2.0 12:1.0 15:8.0 20:1.0 
0.0 1.0 3:4.0 6:1.0 14:2.0 
0.0 1.0 6:3.0 7:1.0 17:1.0 
0.0 1.0 1:1.0 3:2.0 20:1.0 
0.0 1.0 1:1.0 2:2.0 3:6.0 4:1.0 6:2.0 11:1.0 20:2.0 
0.0 1.0 1:1.0 3:3.0 4:1.0 5:3.0 6:4.0 12:1.0 15:8.0 26:1.0 
0.0 1.0 3:2.0 5:1.0 7:1.0 11:1.0 14:1.0 23:1.0 
0.0 1.0 1:1.0 3:2.0 5:1.0 6:1.0 12:1.0 20:1.0 
1.0 1.0 3:2.0 5:1.0 6:1.0 10:1.0 11:1.0 12:1.0 15:2.0 
1.0 1.0 1:1.0 3:1.0 4:1.0 5:1.0 6:3.0 
0.0 1.0 1:1.0 3:1.0 4:1.0 5:1.0 6:1.0 7:1.0 14:1.0 20:1.0 23:1.0 
0.5085572846188217 1.0 1:1.0 2:1.0 3:1.0 5:1.0 6:2.0 10:1.0 13:1.0 16:2.0 20:-2.0 
0.0 1.0 2:1.0 5:1.0 6:3.0 10:1.0 20:1.0 
0.0 0.6983456638485683 3:1.0 6:2.0 12:1.0 14:1.0 
0.0 1.0 1:1.0 3:5.0 4:2.0 5:1.0 6:2.0 10:1.0 11:1.0 20:-1.0 
0.0 1.0 3:2.0 6:1.0 
1.0 1.0 2:2.0 3:2.0 4:2.0 5:1.0 6:2.0 10:2.0 14:1.0 20:-1.0 
1.0 1.0 1:1.0 2:3.0 3:3.0 4:1.0 5:1.0 6:2.0 11:1.0 14:1.0 20:6.0 
0.0 1.0 1:1.0 3:1.0 5:2.0 6:1.0 10:1.0 11:1.0 20:-0.6 
0.0 1.0 3:1.0 5:1.0 6:2.0 7:1.0 17:1.0 
1.0 1.0 3:1.0 6:4.0 14:1.0 
0.0 1.0 1:1.0 3:5.0 5:1.0 6:3.0 13:2.0 16:2.0 20:1.0 
0.0 1.0 1:1.0 3:6.0 4:2.0 6:3.0 11:1.0 14:1.0 26:1.5 
0.0 1.0 1:2.0 3:4.0 5:1.0 6:4.0 12:1.0 13:1.0 16:2.0 20:1.0 26:1.0 
0.0 1.0 2:1.0 3:1.0 4:1.0 5:1.0 6:1.0 10:1.0 20:1.0 
1.0 1.0 1:1.0 3:4.0 4:3.0 5:3.0 6:1.0 12:2.0 13:1.0 20:1.0 22:2.0 
0.0 1.0 3:2.0 5:1.0 6:1.0 
0.0 1.0 3:2.0 5:1.0 6:1.0 
0.0 1.0 1:1.0 3:5.0 4:2.0 6:4.0 20:1.0 
0.0 1.0 2:2.0 3:6.0 4:1.0 6:2.0 20:2.0 
0.0 1.0 1:1.0 3:1.0 4:1.0 6:2.0 20:1.0 
1.0 1.0 1:3.0 2:2.0 3:3.0 4:3.0 6:2.0 10:1.0 11:1.0 14:1.0 20:3.0 26:6.0 
0.0 1.0 3:2.0 4:1.0 5:3.0 6:5.0 10:2.0 11:1.0 12:1.0 
0.0 1.0 1:1.0 3:5.0 6:1.0 10:1.0 20:1.0 
1.0 1.0 1:2.0 2:1.0 4:1.0 5:2.0 6:3.0 11:1.0 20:5.0 
0.0 1.0 1:1.0 2:1.0 3:6.0 4:2.0 5:2.0 6:1.0 10:1.0 11:1.0 20:2.0 
0.0 1.0 1:1.0 3:3.0 6:1.0 20:1.0 
0.0 1.0 3:4.0 13:1.0 16:2.0 
0.0 1.0 3:3.0 6:2.0 14:3.0 
0.0 1.0 1:1.0 3:2.0 4:1.0 5:2.0 6:7.0 14:1.0 20:1.0 
0.0 1.0 1:2.0 3:3.0 5:2.0 6:5.0 10:1.0 13:2.0 14:1.0 22:2.0 28:2.0 32:2.0 
0.0 1.0 3:1.0 5:1.0 6:2.0 10:1.0 14:1.0 
0.0 1.0 1:2.0 3:2.0 6:1.0 13:1.0 16:2.0 
1.0 1.0 1:1.0 3:3.0 5:1.0 6:3.0 14:1.0 20:1.0 
0.0 1.0 1:2.0 3:4.0 5:1.0 6:2.0 11:1.0 14:1.0 20:3.0 
0.0 1.0 1:1.0 2:1.0 3:5.0 4:2.0 5:3.0 6:2.0 10:2.0 12:1.0 20:2.0 
0.0 1.0 1:1.0 3:1.0 6:2.0 7:1.0 17:1.0 20:1.0 
1.0 1.0 2:2.0 3:2.0 5:1.0 6:2.0 20:2.0 
1.0 1.0 1:1.0 3:1.0 6:4.0 9:1.0 19:1.0 20:1.0 
1.0 1.0 1:1.0 3:2.0 5:1.0 6:2.0 11:1.0 14:1.0 20:1.5 
0.0 1.0 3:1.0 4:1.0 5:1.0 6:1.0 11:1.0 
0.0 1.0 1:1.0 3:3.0 5:1.0 6:4.0 11:1.0 12:1.0 20:1.0 
0.0 1.0 5:4.0 6:5.0 10:1.0 11:1.0 12:1.0 15:8.0 
1.0 1.0 2:2.0 3:3.0 4:1.0 6:2.0 20:2.0 
0.0 1.0 1:1.0 2:1.0 3:3.0 5:2.0 6:5.0 20:2.0 
0.0 1.0 1:1.0 3:3.0 6:1.0 10:1.0 14:1.0 
0.0 1.0 2:1.0 3:2.0 4:1.0 6:6.0 20:1.0 
1.0 1.0 2:1.0 3:2.0 5:1.0 6:2.0 10:1.0 20:-1.0 
1.0 1.0 1:1.0 2:2.0 4:1.0 6:4.0 20:4.0 
0.0 1.0 1:1.0 3:6.0 4:1.0 6:1.0 11:1.0 13:1.0 16:2.0 20:1.0 
0.0 1.0 3:3.0 6:2.0 
0.0 1.0 3:2.0 6:1.0 
1.0 1.0 1:1.0 3:4.0 6:2.0 20:1.0 
0.0 1.0 1:1.0 3:4.0 4:1.0 6:4.0 20:1.0 
0.0 1.0 1:1.0 3:2.0 20:1.0 
0.0 1.0 4:2.0 5:1.0 6:1.0 10:1.0 11:2.0 12:1.0 15:4.0 
0.0 1.0 3:2.0 6:1.0 
0.0 1.0 1:2.0 3:2.0 5:3.0 6:4.0 10:1.0 11:1.0 20:3.0 
0.0 1.0 1:1.0 3:1.0 6:1.0 7:1.0 17:1.0 20:1.0 
0.0 1.0 3:2.0 6:2.0 
1.0 1.0 1:1.0 5:6.0 6:3.0 10:2.0 11:1.0 12:1.0 15:4.0 20:-1.0 
0.0 1.0 1:1.0 2:2.0 3:3.0 6:6.0 14:1.0 20:1.0 26:2.0 
0.0 1.0 3:2.0 5:1.0 6:1.0 12:1.0 14:2.0 15:8.0 
0.0 1.0 1:2.0 2:1.0 3:2.0 5:1.0 10:1.0 12:1.0 15:4.0 20:2.0 
0.0 1.0 3:1.0 4:2.0 5:2.0 10:2.0 12:1.0 15:4.0 
1.0 1.0 1:2.0 3:3.0 4:1.0 5:1.0 6:2.0 20:2.0 
0.0 1.0 3:2.0 6:2.0 11:1.0 
1.0 1.0 3:3.0 5:1.0 6:1.0 8:1.0 9:1.0 10:1.0 18:1.0 19:1.0 
1.0 1.0 1:1.0 3:1.0 5:2.0 6:4.0 7:1.0 11:1.0 17:1.0 20:1.0 
0.0 1.0 2:1.0 3:1.0 4:1.0 6:1.0 11:2.0 20:4.5 
1.0 1.0 1:1.0 3:2.0 4:1.0 5:4.0 6:2.0 8:1.0 11:2.0 13:2.0 16:2.0 22:2.0 26:1.0 30:1.0 
0.0 1.0 1:1.0 3:2.0 4:1.0 5:3.0 6:4.0 7:1.0 8:1.0 11:3.0 17:1.0 18:1.0 20:3.3 
0.0 1.0 3:1.0 5:1.0 6:2.0 
1.0 1.0 1:1.0 5:5.0 6:2.0 10:2.0 11:2.0 12:1.0 15:4.0 20:-0.32 
1.0 1.0 2:1.0 3:2.0 6:3.0 13:1.0 16:2.0 20:1.0 
0.0 1.0 3:5.0 5:1.0 6:2.0 
0.0 1.0 5:1.0 6:3.0 10:1.0 13:1.0 16:2.0 
0.0 1.0 3:2.0 6:2.0 13:1.0 16:2.0 
1.0 1.0 3:2.0 4:1.0 5:2.0 6:4.0 11:1.0 12:1.0 13:2.0 16:2.0 22:2.0 
1.0 1.0 1:2.0 3:2.0 5:1.0 6:2.0 20:2.0 
1.0 1.0 1:1.0 2:2.0 3:1.0 4:2.0 6:2.0 14:1.0 20:3.0 
0.0 1.0 3:3.0 4:1.0 13:1.0 28:2.0 
1.0 1.0 4:1.0 5:3.0 6:3.0 7:2.0 10:2.0 11:1.0 12:1.0 15:4.0 23:2.0 
0.0 1.0 1:1.0 3:2.0 4:4.0 5:6.0 6:3.0 7:1.0 10:2.0 11:6.0 12:1.0 20:1.0 29:1.0 
0.0 1.0 1:1.0 3:1.0 6:2.0 13:1.0 16:2.0 20:1.0 
1.0 1.0 3:4.0 6:3.0 14:1.0 
0.0 1.0 1:1.0 3:1.0 6:2.0 8:1.0 12:1.0 14:1.0 24:1.0 
0.0 1.0 3:1.0 4:1.0 5:1.0 6:1.0 8:1.0 13:1.0 16:2.0 24:1.0 
1.0 1.0 3:3.0 6:3.0 
0.0 1.0 1:1.0 2:1.0 3:1.0 4:1.0 6:8.0 20:2.0 
0.0 1.0 3:3.0 4:1.0 
0.0 1.0 1:2.0 2:1.0 3:4.0 4:2.0 5:2.0 6:2.0 11:2.0 12:3.0 15:4.0 20:3.0 
1.0 1.0 1:1.0 3:2.0 6:3.0 
0.0 1.0 3:4.0 
0.0 1.0 1:1.0 3:1.0 5:1.0 6:2.0 10:1.0 
0.0 1.0 1:2.0 2:1.0 3:2.0 4:2.0 5:3.0 6:5.0 10:2.0 11:1.0 20:-1.0 
1.0 1.0 1:3.0 2:1.0 3:3.0 5:1.0 6:2.0 10:1.0 20:-2.0 
0.0 1.0 1:1.0 3:3.0 6:1.0 12:1.0 15:4.0 20:1.0 
1.0 1.0 1:2.0 2:1.0 3:2.0 4:2.0 5:1.0 6:2.0 10:1.0 13:1.0 16:2.0 20:-3.0 
0.0 1.0 1:2.0 3:5.0 4:1.0 20:2.0 
1.0 1.0 1:1.0 2:1.0 3:2.0 5:2.0 6:2.0 10:1.0 11:1.0 
0.0 1.0 1:1.0 3:4.0 6:4.0 11:1.0 12:1.0 15:4.0 20:1.0 
0.0 1.0 3:2.0 4:1.0 6:1.0 
0.0 1.0 1:1.0 2:1.0 3:4.0 4:2.0 5:2.0 6:2.0 12:1.0 15:8.0 20:2.0 
1.0 1.0 3:3.0 5:2.0 6:2.0 
0.0 1.0 1:1.0 3:1.0 5:1.0 6:3.0 20:1.0 
0.0 1.0 1:3.0 3:4.0 6:2.0 20:3.0 
1.0 1.0 3:3.0 5:1.0 6:1.0 10:1.0 
1.0 1.0 3:3.0 4:2.0 5:1.0 6:2.0 11:2.0 14:1.0 
0.0 1.0 1:1.0 3:4.0 5:2.0 6:4.0 11:1.0 20:1.0 
0.0 1.0 3:2.0 4:2.0 
0.0 1.0 3:2.0 6:1.0 
0.0 1.0 3:4.0 6:1.0 
0.0 1.0 1:1.0 3:7.0 4:2.0 6:2.0 20:1.0 
1.0 1.0 3:1.0 5:3.0 6:1.0 10:1.0 12:2.0 15:2.0 
0.0 1.0 3:1.0 4:2.0 6:2.0 12:1.0 15:4.0 
0.0 1.0 3:1.0 6:3.0 
0.0 1.0 1:1.0 3:2.0 4:2.0 6:1.0 20:1.0 
1.0 1.0 2:1.0 3:3.0 4:2.0 5:2.0 6:2.0 11:1.0 12:1.0 15:4.0 20:1.5 
0.0 1.0 3:2.0 6:1.0 
0.0 1.0 1:1.0 3:1.0 4:1.0 6:1.0 20:1.0 
0.0 1.0 3:2.0 6:1.0 
0.0 1.0 3:2.0 5:2.0 6:1.0 10:1.0 
1.0 1.0 3:3.0 5:2.0 6:1.0 
0.0 1.0 3:2.0 4:1.0 5:1.0 11:1.0 
0.0 1.0 3:1.0 4:1.0 5:1.0 6:1.0 11:1.0 12:1.0 15:8.0 
1.0 1.0 3:2.0 5:1.0 6:2.0 11:1.0 
0.0 1.0 1:1.0 3:1.0 6:1.0 20:1.0 
1.0 1.0 2:1.0 3:2.0 4:1.0 5:1.0 6:2.0 10:1.0 13:1.0 16:2.0 20:1.0 
1.0 1.0 1:1.0 3:3.0 4:1.0 5:3.0 6:2.0 11:1.0 20:1.0 
0.0 1.0 1:1.0 2:1.0 3:2.0 6:1.0 20:2.0 
1.0 1.0 1:1.0 3:1.0 5:1.0 6:4.0 20:1.0 
0.0 1.0 1:1.0 3:4.0 4:1.0 5:4.0 6:3.0 7:1.0 10:1.0 11:1.0 17:1.0 
0.0 1.0 1:1.0 3:1.0 4:1.0 6:1.0 10:1.0 14:1.0 16:1.0 20:-1.0 
1.0 1.0 3:2.0 6:2.0 11:1.0 12:2.0 15:4.0 
1.0 1.0 3:3.0 5:2.0 6:3.0 10:1.0 14:5.0 
1.0 1.0 1:1.0 2:1.0 3:1.0 5:1.0 6:4.0 10:1.0 12:1.0 14:1.0 15:2.0 20:-1.0 
1.0 1.0 3:4.0 6:3.0 
0.0 1.0 3:2.0 4:2.0 6:1.0 
0.0 1.0 3:1.0 6:2.0 13:1.0 16:2.0 
1.0 1.0 1:1.0 3:4.0 6:2.0 14:1.0 20:1.0 
0.0 1.0 3:1.0 4:2.0 5:1.0 6:1.0 11:1.0 14:1.0 
1.0 1.0 1:1.0 3:1.0 4:1.0 6:4.0 20:1.0 
0.0 1.0 3:2.0 4:1.0 5:1.0 6:1.0 11:1.0 12:1.0 
0.0 1.0 3:6.0 4:2.0 5:3.0 6:2.0 10:1.0 11:1.0 12:1.0 
0.0 1.0 1:1.0 3:1.0 6:1.0 20:1.0 
0.0 1.0 1:1.0 2:1.0 3:4.0 4:1.0 6:4.0 14:1.0 20:1.0 26:1.0 
0.0 1.0 3:1.0 6:2.0 7:1.0 17:1.0 
1.0 1.0 3:4.0 4:1.0 5:1.0 6:2.0 12:1.0 13:1.0 15:8.0 16:2.0 
0.0 1.0 3:6.0 5:2.0 6:1.0 11:1.0 
0.0 1.0 1:2.0 3:7.0 4:2.0 20:2.0 
0.0 1.0 3:6.0 6:2.0 13:2.0 16:2.0 22:2.0 
1.0 1.0 3:2.0 4:2.0 5:1.0 6:3.0 10:1.0 12:1.0 15:2.0 
0.0 1.0 1:1.0 3:5.0 4:2.0 6:4.0 20:1.0 
1.0 1.0 1:1.0 3:4.0 4:1.0 6:2.0 20:1.0 
1.0 1.0 1:1.0 3:2.0 5:1.0 6:3.0 13:1.0 22:2.0 26:1.0 
0.0 1.0 3:6.0 4:1.0 
0.0 1.0 1:1.0 5:2.0 6:3.0 7:1.0 17:1.0 20:1.0 
0.0 1.0 3:3.0 4:1.0 5:1.0 6:5.0 11:1.0 
0.0 1.0 1:2.0 3:5.0 4:1.0 5:1.0 6:3.0 7:1.0 10:1.0 14:1.0 23:1.0 26:1.0 
-0.0 1.0 3:3.0 4:2.0 5:3.0 6:4.0 
0.0 1.0 3:2.0 6:1.0 14:1.0 
0.0 1.0 3:6.0 6:1.0 
0.0 1.0 1:1.0 6:3.0 14:1.0 
0.0 1.0 3:5.0 4:2.0 5:1.0 6:2.0 
0.0 1.0 3:2.0 6:1.0 12:1.0 15:2.0 
0.0 1.0 3:3.0 6:2.0 
1.0 1.0 3:3.0 6:4.0 
1.0 1.0 3:4.0 5:1.0 6:1.0 11:1.0 
0.0 1.0 1:1.0 3:2.0 4:1.0 5:1.0 11:1.0 20:2.0 
0.0 1.0 1:2.0 3:4.0 4:2.0 5:1.0 6:2.0 12:1.0 20:2.0 
0.0 1.0 1:1.0 3:6.0 6:1.0 20:1.0 
1.0 1.0 2:1.0 3:2.0 5:1.0 6:2.0 20:1.0 
0.0 1.0 1:1.0 3:2.0 6:2.0 14:1.0 
1.0 1.0 1:1.0 2:3.0 3:2.0 4:2.0 5:1.0 6:2.0 10:1.0 20:1.0 26:-1.0 
0.0 1.0 2:1.0 3:1.0 5:1.0 6:2.0 
0.0 1.0 1:1.0 3:2.0 6:1.0 20:1.0 
0.0 1.0 1:2.0 3:4.0 6:1.0 20:2.0 
0.0 1.0 1:1.0 3:1.0 6:2.0 20:1.0 
1.0 1.0 1:1.0 2:1.0 3:1.0 4:1.0 6:3.0 20:2.0 
1.0 1.0 1:1.0 3:4.0 6:2.0 20:1.0 
0.0 1.0 1:2.0 2:1.0 3:5.0 6:1.0 20:3.0 
0.0 1.0 1:1.0 2:1.0 3:1.0 5:3.0 6:5.0 10:1.0 11:1.0 26:4.0 
0.0 1.0 1:1.0 3:2.0 13:1.0 16:2.0 20:1.0 
0.0 1.0 1:2.0 3:2.0 5:1.0 6:1.0 20:1.0 
0.0 1.0 3:2.0 4:1.0 6:2.0 
0.0 1.0 3:7.0 4:2.0 6:1.0 14:1.0 
0.0 1.0 3:3.0 5:1.0 
0.0 1.0 3:1.0 6:2.0 7:1.0 17:1.0 
0.0 1.0 3:2.0 4:2.0 8:1.0 18:1.0 
0.0 1.0 3:2.0 4:1.0 7:1.0 17:1.0 
0.0 1.0 2:1.0 3:2.0 4:1.0 6:1.0 20:1.0 
1.0 1.0 1:1.0 5:6.0 6:1.0 10:2.0 11:1.0 12:1.0 15:4.0 20:-1.0 
1.0 1.0 1:1.0 2:1.0 4:1.0 6:4.0 8:1.0 11:1.0 18:1.0 20:1.5 
1.0 1.0 3:2.0 5:1.0 6:4.0 12:1.0 13:1.0 14:6.0 39:8.0 40:2.0 
0.0 1.0 3:1.0 6:3.0 
0.0 1.0 1:1.0 3:2.0 5:1.0 
0.0 1.0 3:2.0 6:1.0 14:2.0 
0.0 1.0 3:1.0 6:1.0 7:2.0 17:2.0 
0.0 1.0 3:3.0 6:3.0 7:4.0 11:1.0 17:4.0 
0.0 1.0 3:1.0 4:2.0 6:1.0 
1.0 1.0 2:1.0 3:1.0 4:1.0 5:2.0 6:3.0 10:2.0 11:1.0 20:-1.0 
0.0 1.0 3:2.0 6:2.0 
1.0 1.0 3:1.0 4:1.0 5:1.0 6:3.0 7:1.0 8:1.0 10:1.0 17:1.0 18:1.0 
1.0 1.0 1:1.0 3:3.0 4:1.0 5:2.0 6:2.0 20:1.0 
0.0 1.0 1:1.0 3:5.0 5:2.0 6:1.0 11:1.0 20:2.0 
0.0 1.0 1:3.0 3:3.0 4:3.0 5:4.0 6:2.0 10:1.0 11:1.0 12:2.0 14:1.0 15:8.0 20:-0.2 26:1.0 
0.0 1.0 1:1.0 3:5.0 5:2.0 6:3.0 10:1.0 12:1.0 13:1.0 14:1.0 22:2.0 27:4.0 32:-1.0 
1.0 1.0 1:1.0 2:1.0 3:2.0 6:2.0 13:1.0 16:2.0 20:2.0 
0.0 1.0 1:3.0 3:2.0 6:2.0 14:2.0 20:2.0 26:1.0 
1.0 1.0 1:1.0 3:4.0 6:1.0 11:1.0 20:1.5 
1.0 1.0 3:4.0 4:1.0 6:2.0 11:1.0 13:1.0 16:2.0 
0.0 1.0 3:2.0 6:2.0 
0.6403284818068624 1.0 3:1.0 6:4.0 
1.0 1.0 1:1.0 3:4.0 5:2.0 6:1.0 7:1.0 10:1.0 11:1.0 12:1.0 20:1.5 21:4.0 35:1.0 
0.0 1.0 3:4.0 6:1.0 7:2.0 29:2.0 
1.0 1.0 3:1.0 4:2.0 5:3.0 6:1.0 
1.0 1.0 1:1.0 3:1.0 4:1.0 5:1.0 6:4.0 7:1.0 10:1.0 12:1.0 15:2.0 26:1.0 29:1.0 
0.0 1.0 2:1.0 3:2.0 7:2.0 20:1.0 23:2.0 
1.0 1.0 3:2.0 4:1.0 5:2.0 6:1.0 11:1.0 
0.0 1.0 1:1.0 3:7.0 6:2.0 14:1.0 26:1.0 
1.0 1.0 2:1.0 3:2.0 6:4.0 10:1.0 13:1.0 16:2.0 20:-1.0 
0.0 1.0 1:1.0 3:3.0 6:1.0 20:1.0 
1.0 1.0 1:1.0 3:3.0 4:1.0 6:2.0 20:1.0 
1.0 1.0 3:4.0 5:1.0 6:3.0 
0.0 1.0 3:2.0 6:1.0 11:1.0 
1.0 1.0 1:2.0 2:2.0 3:2.0 4:2.0 5:1.0 6:3.0 13:1.0 16:2.0 20:3.0 
0.0 1.0 1:1.0 3:1.0 6:1.0 20:1.0 
0.0 1.0 1:1.0 4:1.0 6:2.0 8:1.0 18:1.0 20:1.0 
0.0 1.0 3:1.0 6:3.0 8:1.0 18:1.0 
1.0 1.0 2:1.0 3:1.0 5:1.0 6:3.0 10:1.0 13:1.0 16:2.0 20:1.0 
0.0 1.0 1:1.0 3:4.0 4:1.0 5:4.0 6:3.0 10:3.0 11:1.0 
1.0 1.0 3:2.0 5:1.0 6:2.0 12:1.0 
1.0 1.0 3:2.0 4:2.0 6:3.0 
0.0 1.0 3:2.0 6:1.0 
1.0 1.0 1:1.0 3:4.0 5:2.0 6:2.0 11:1.0 20:1.0 
0.0 1.0 2:1.0 3:4.0 4:1.0 5:1.0 6:5.0 11:1.0 20:1.0 
1.0 1.0 3:2.0 5:1.0 6:2.0 11:1.0 
0.0 1.0 3:3.0 6:1.0 
0.0 1.0 3:2.0 6:1.0 
0.0 1.0 1:2.0 2:1.0 3:4.0 4:2.0 5:2.0 6:2.0 11:2.0 12:3.0 15:4.0 20:3.0 
1.0 1.0 1:1.0 2:1.0 3:4.0 6:2.0 14:1.0 20:1.0 
0.0 1.0 3:5.0 
1.0 1.0 4:1.0 5:3.0 6:5.0 10:1.0 11:1.0 
0.0 1.0 3:5.0 5:1.0 6:3.0 10:1.0 
1.0 1.0 3:2.0 6:3.0 
1.0 1.0 3:5.0 6:1.0 11:1.0 
1.0 1.0 3:2.0 4:1.0 5:3.0 6:4.0 10:1.0 12:1.0 
0.0 1.0 3:3.0 4:1.0 5:1.0 6:4.0 11:1.0 
0.0 1.0 1:1.0 3:3.0 4:1.0 6:1.0 20:1.0 
1.0 1.0 1:2.0 3:1.0 4:1.0 5:3.0 6:3.0 11:1.0 12:1.0 13:1.0 16:2.0 20:2.5 
1.0 1.0 3:2.0 6:2.0 11:1.0 12:1.0 13:1.0 21:1.0 22:2.0 
1.0 1.0 1:1.0 2:2.0 3:2.0 5:2.0 6:2.0 10:1.0 12:2.0 15:1.0 20:2.0 
0.0 1.0 1:1.0 2:1.0 3:3.0 14:1.0 20:2.0 
1.0 1.0 1:1.0 2:1.0 3:4.0 4:2.0 6:1.0 20:2.0 
0.0 1.0 3:1.0 4:1.0 5:1.0 6:1.0 11:1.0 
0.0 1.0 1:1.0 3:1.0 4:2.0 6:1.0 8:1.0 11:1.0 20:0.8 24:1.0 
0.0 1.0 3:1.0 4:2.0 6:2.0 12:1.0 15:4.0 
1.0 1.0 1:2.0 3:1.0 4:1.0 5:3.0 6:3.0 11:1.0 12:1.0 13:1.0 16:2.0 20:2.5 
0.0 1.0 3:2.0 5:1.0 6:2.0 
0.0 1.0 3:1.0 5:1.0 6:2.0 
1.0 1.0 1:1.0 2:1.0 3:3.0 5:1.0 6:2.0 20:2.0 
1.0 1.0 1:1.0 3:2.0 4:2.0 5:1.0 6:3.0 11:1.0 13:1.0 16:2.0 20:1.5 
0.0 1.0 3:2.0 5:2.0 6:1.0 
0.0 1.0 3:1.0 5:1.0 6:2.0 
0.0 1.0 2:1.0 3:2.0 4:2.0 5:2.0 6:4.0 12:1.0 15:8.0 20:1.0 
1.0 1.0 3:2.0 4:1.0 6:4.0 
0.0 1.0 3:4.0 6:1.0 
0.0 1.0 3:1.0 4:1.0 5:1.0 6:1.0 
0.0 1.0 1:2.0 3:1.0 4:1.0 5:2.0 6:1.0 20:1.0 
0.0 1.0 1:1.0 3:1.0 6:3.0 14:1.0 
1.0 1.0 3:1.0 4:1.0 5:3.0 6:1.0 10:1.0 11:1.0 
0.0 1.0 3:3.0 6:1.0 
0.0 1.0 3:2.0 5:1.0 6:1.0 7:1.0 14:1.0 23:1.0 
1.0 1.0 1:1.0 3:2.0 5:3.0 6:3.0 10:1.0 11:1.0 13:1.0 16:2.0 20:-1.0 
1.0 1.0 1:1.0 3:4.0 5:2.0 6:1.0 11:1.0 12:2.0 15:4.0 20:2.0 
1.0 1.0 2:3.0 3:2.0 5:1.0 6:1.0 14:1.0 20:3.0 
0.0 1.0 3:2.0 6:1.0 11:1.0 
0.0 1.0 1:3.0 3:3.0 5:2.0 6:4.0 10:1.0 11:1.0 20:-2.0 
0.0 1.0 3:2.0 6:1.0 11:1.0 
0.0 1.0 1:4.0 3:1.0 4:1.0 6:4.0 11:1.0 20:10.0 
1.0 1.0 2:2.0 3:1.0 5:1.0 6:5.0 10:3.0 12:1.0 14:1.0 15:4.0 20:-2.0 
1.0 1.0 1:1.0 3:3.0 5:3.0 6:3.0 10:2.0 11:1.0 14:1.0 20:-3.0 
1.0 1.0 3:2.0 5:1.0 6:3.0 
0.0 1.0 3:1.0 5:1.0 6:2.0 11:2.0 14:1.0 
0.0 1.0 1:1.0 6:3.0 20:1.0 
0.0 1.0 3:6.0 5:1.0 6:2.0 
1.0 1.0 1:1.0 3:4.0 4:1.0 6:2.0 20:1.0 
0.0 1.0 1:1.0 3:9.0 20:1.0 
0.0 1.0 2:2.0 3:6.0 4:1.0 6:2.0 20:2.0 
0.0 1.0 1:4.0 3:5.0 4:2.0 6:3.0 20:4.0 
0.0 1.0 1:2.0 3:1.0 5:3.0 6:6.0 11:3.0 13:1.0 14:1.0 16:2.0 26:2.0 
0.0 1.0 3:3.0 6:1.0 14:1.0 
1.0 1.0 1:1.0 3:1.0 5:1.0 6:4.0 13:1.0 22:2.0 
0.0 1.0 1:1.0 3:1.0 5:1.0 6:2.0 10:1.0 14:1.0 
0.0 1.0 3:4.0 
1.0 1.0 3:3.0 4:1.0 5:2.0 6:2.0 12:1.0 15:4.0 
1.0 1.0 3:3.0 4:1.0 5:2.0 6:1.0 11:1.0 14:1.0 
1.0 1.0 3:1.0 4:1.0 6:3.0 8:1.0 18:1.0 
1.0 1.0 3:2.0 5:2.0 6:4.0 11:2.0 12:1.0 
0.0 1.0 1:1.0 3:1.0 6:1.0 20:1.0 
0.0 1.0 3:3.0 14:1.0 
0.0 1.0 3:1.0 6:3.0 7:1.0 23:1.0 
1.0 1.0 3:3.0 4:1.0 6:2.0 7:1.0 17:1.0 
1.0 1.0 3:1.0 4:2.0 5:1.0 6:2.0 7:1.0 9:1.0 11:1.0 17:1.0 19:1.0 
0.0 1.0 3:2.0 4:2.0 6:1.0 10:1.0 11:2.0 14:1.0 
0.0 1.0 1:1.0 3:2.0 20:1.0 
1.0 1.0 3:1.0 5:2.0 6:3.0 11:1.0 
1.0 1.0 3:3.0 5:1.0 6:4.0 11:1.0 
0.0 1.0 1:1.0 3:4.0 5:1.0 6:4.0 12:1.0 20:1.0 
0.0 1.0 3:2.0 6:2.0 
0.0 1.0 3:2.0 6:1.0 
0.0 1.0 1:3.0 3:4.0 4:1.0 5:3.0 6:3.0 11:1.0 12:1.0 13:1.0 20:1.0 26:2.0 28:2.0 
1.0 1.0 1:1.0 2:1.0 3:2.0 5:1.0 6:1.0 10:1.0 14:1.0 20:2.0 
1.0 1.0 1:3.0 3:3.0 5:3.0 6:2.0 20:1.0 
0.0 1.0 1:2.0 3:1.0 4:1.0 20:2.0 
0.0 1.0 3:4.0 6:1.0 
0.0 1.0 1:1.0 2:1.0 3:4.0 6:4.0 11:2.0 12:2.0 15:4.0 20:1.0 
1.0 1.0 1:1.0 3:3.0 4:2.0 5:3.0 6:1.0 11:3.0 12:2.0 20:1.0 21:8.0 
1.0 1.0 3:3.0 5:1.0 6:2.0 10:1.0 13:1.0 16:2.0 
0.0 1.0 1:1.0 2:1.0 3:2.0 5:4.0 6:5.0 10:2.0 20:1.0 
0.0 1.0 1:1.0 3:6.0 6:1.0 20:1.0 
0.0 1.0 1:1.0 2:1.0 3:1.0 4:1.0 5:1.0 14:3.0 20:1.0 32:1.0 
1.0 1.0 3:3.0 5:2.0 6:2.0 13:1.0 16:2.0 
0.0 1.0 1:3.0 3:5.0 4:4.0 6:3.0 20:1.0 26:1.0 32:1.0 
1.0 1.0 3:1.0 4:3.0 5:1.0 6:1.0 11:3.0 12:1.0 13:1.0 14:2.0 15:8.0 34:2.0 
0.0 1.0 1:2.0 3:2.0 4:3.0 5:2.0 6:5.0 11:4.0 12:1.0 20:1.0 26:5.1 
0.0 1.0 3:2.0 6:1.0 
1.0 1.0 1:1.0 3:1.0 4:1.0 6:5.0 
0.0 1.0 3:1.0 5:1.0 6:3.0 
0.0 1.0 2:1.0 3:3.0 4:2.0 5:2.0 6:6.0 11:1.0 26:1.0 
0.0 1.0 1:4.0 2:1.0 3:3.0 5:2.0 6:4.0 11:1.0 20:4.0 
0.0 1.0 1:1.0 3:1.0 5:1.0 6:2.0 13:1.0 14:1.0 16:2.0 20:1.0 22:1.0 
0.0 1.0 2:1.0 3:1.0 5:1.0 6:1.0 13:1.0 16:2.0 
1.0 1.0 1:2.0 2:1.0 3:3.0 6:2.0 20:3.0 
0.0 1.0 1:1.0 3:1.0 6:1.0 7:1.0 17:1.0 20:1.0 
0.0 1.0 3:3.0 4:2.0 5:4.0 6:3.0 11:1.0 14:3.0 
1.0 1.0 2:1.0 3:2.0 6:3.0 13:1.0 16:2.0 20:1.0 
0.0 1.0 3:2.0 5:1.0 6:1.0 8:1.0 12:1.0 18:1.0 
0.0 1.0 1:1.0 3:1.0 6:1.0 20:1.0 
1.0 1.0 5:2.0 6:3.0 11:2.0 
1.0 1.0 1:1.0 3:2.0 4:3.0 5:3.0 6:3.0 10:1.0 11:1.0 
0.0 1.0 1:1.0 3:1.0 4:1.0 6:3.0 
1.0 1.0 1:1.0 3:1.0 5:1.0 6:5.0 12:1.0 20:1.0 
0.0 1.0 1:3.0 3:3.0 4:1.0 5:4.0 6:2.0 11:1.0 12:2.0 15:4.0 20:3.5 
1.0 1.0 3:1.0 4:3.0 5:4.0 6:3.0 10:1.0 11:2.0 12:2.0 13:1.0 16:2.0 27:4.0 
0.0 1.0 4:1.0 5:1.0 6:3.0 8:1.0 11:1.0 14:1.0 24:1.0 
0.0 1.0 3:3.0 
1.0 1.0 1:1.0 3:1.0 4:1.0 5:3.0 6:2.0 11:3.0 12:2.0 14:1.0 21:4.0 26:3.0 
0.0 1.0 3:2.0 6:1.0 13:1.0 16:2.0 
1.0 1.0 3:2.0 4:1.0 6:5.0 
0.0 1.0 3:4.0 5:2.0 6:3.0 12:2.0 14:1.0 
1.0 1.0 1:1.0 3:1.0 4:1.0 5:2.0 6:3.0 20:1.0 
0.0 1.0 1:2.0 3:1.0 5:2.0 6:1.0 14:1.0 20:2.0 
1.0 1.0 6:5.0 12:1.0 13:1.0 15:2.0 16:2.0 
0.0 1.0 3:1.0 5:1.0 6:2.0 
0.0 1.0 1:2.0 3:1.0 4:1.0 6:1.0 20:2.0 
0.0 1.0 2:1.0 3:2.0 4:1.0 6:6.0 8:1.0 10:1.0 18:1.0 20:1.0 
0.0 1.0 1:1.0 3:2.0 20:1.0 
1.0 1.0 2:2.0 3:2.0 6:5.0 11:1.0 20:2.0 
0.0 1.0 3:3.0 6:6.0 13:1.0 16:2.0 
0.0 1.0 1:1.0 2:2.0 3:5.0 4:1.0 5:3.0 6:3.0 10:1.0 11:2.0 14:1.0 20:-11.0 
0.0 1.0 3:3.0 6:1.0 
0.0 1.0 3:2.0 6:2.0 
1.0 1.0 3:5.0 4:1.0 6:2.0 
0.0 1.0 3:2.0 5:1.0 6:1.0 
0.0 1.0 1:1.0 3:4.0 5:1.0 12:1.0 15:8.0 20:1.0 
0.0 1.0 1:2.0 3:2.0 4:1.0 6:1.0 20:2.0 
0.0 1.0 3:3.0 6:1.0 
0.0 1.0 1:1.0 2:1.0 3:2.0 4:1.0 6:1.0 20:2.0 
0.0 1.0 3:3.0 4:1.0 
0.0 1.0 1:1.0 2:1.0 3:4.0 4:4.0 5:2.0 6:3.0 11:1.0 20:2.0 
0.0 1.0 3:2.0 4:1.0 7:1.0 17:1.0 
0.0 1.0 1:3.0 3:2.0 6:1.0 20:3.0 
0.0 1.0 1:2.0 3:2.0 5:1.0 20:2.0 
0.0 1.0 1:3.0 3:2.0 4:1.0 6:1.0 12:1.0 20:3.0 
0.0 1.0 1:1.0 3:4.0 20:1.0 
0.0 1.0 3:2.0 4:1.0 6:1.0 
1.0 1.0 1:1.0 3:2.0 6:3.0 14:2.0 20:1.0 
0.0 1.0 1:1.0 3:5.0 6:1.0 20:1.0 
1.0 1.0 3:3.0 5:3.0 6:1.0 11:1.0 12:1.0 
1.0 1.0 1:1.0 3:4.0 6:2.0 12:1.0 20:1.0 
0.0 1.0 3:3.0 4:1.0 6:1.0 
1.0 1.0 3:3.0 4:1.0 6:2.0 12:1.0 15:4.0 
0.0 1.0 1:1.0 3:1.0 6:2.0 20:1.0 
0.0 1.0 3:1.0 5:1.0 6:3.0 
0.0 1.0 3:1.0 5:2.0 6:2.0 11:1.0 
0.0 1.0 3:2.0 6:2.0 
0.0 1.0 1:4.0 2:1.0 3:6.0 4:3.0 5:2.0 6:1.0 10:1.0 11:2.0 20:4.0 
0.0 1.0 1:1.0 2:2.0 3:5.0 4:1.0 5:3.0 6:3.0 10:1.0 11:2.0 14:1.0 20:-11.0 
1.0 1.0 3:2.0 5:1.0 6:3.0 12:1.0 
1.0 1.0 1:1.0 2:1.0 3:4.0 4:2.0 6:1.0 20:2.0 
0.0 1.0 1:2.0 3:3.0 4:1.0 5:3.0 6:5.0 11:1.0 20:1.0 
0.0 1.0 1:2.0 2:1.0 3:2.0 5:2.0 6:6.0 10:1.0 12:1.0 20:3.0 
0.0 1.0 3:2.0 5:2.0 6:1.0 11:1.0 
0.0 1.0 3:2.0 6:1.0 
1.0 1.0 2:1.0 3:2.0 4:1.0 6:3.0 12:1.0 15:4.0 20:1.0 
0.0 1.0 1:1.0 3:2.0 5:2.0 6:6.0 11:1.0 20:1.0 
1.0 1.0 1:1.0 3:2.0 4:1.0 6:2.0 11:1.0 12:1.0 15:4.0 20:1.0 
1.0 1.0 3:4.0 4:1.0 5:1.0 6:1.0 14:1.0 
1.0 1.0 3:2.0 5:1.0 6:3.0 13:1.0 16:2.0 
0.0 1.0 3:1.0 4:1.0 6:2.0 
0.0 1.0 3:3.0 6:1.0 13:1.0 16:2.0 
0.0 1.0 3:3.0 6:1.0 
0.0 1.0 1:1.0 3:2.0 6:1.0 20:1.0 
1.0 1.0 3:3.0 6:3.0 7:1.0 14:2.0 29:1.0 
0.0 1.0 3:1.0 5:1.0 6:3.0 14:2.0 
0.0 1.0 3:2.0 6:1.0 7:1.0 17:1.0 
0.0 1.0 1:1.0 3:2.0 6:5.0 
0.0 1.0 3:2.0 5:1.0 11:1.0 
0.0 1.0 3:2.0 5:1.0 6:2.0 
1.0 1.0 2:1.0 3:2.0 5:2.0 6:1.0 20:1.0 
0.0 1.0 3:2.0 5:1.0 6:1.0 
0.0 1.0 1:2.0 4:1.0 5:1.0 6:1.0 11:1.0 20:3.0 
0.0 1.0 3:1.0 5:1.0 6:2.0 10:1.0 
1.0 1.0 2:1.0 3:3.0 4:2.0 5:3.0 11:1.0 14:1.0 26:3.0 
0.0 1.0 1:1.0 3:3.0 6:5.0 20:1.0 
0.0 1.0 1:2.0 3:8.0 4:3.0 20:2.0 
1.0 1.0 3:3.0 4:1.0 6:2.0 11:2.0 
0.0 1.0 3:8.0 
0.0 1.0 3:6.0 4:1.0 
0.0 1.0 1:1.0 3:3.0 6:5.0 20:1.0 
0.0 1.0 3:6.0 6:2.0 13:2.0 16:2.0 22:2.0 
0.0 1.0 1:1.0 3:4.0 4:2.0 6:5.0 13:1.0 14:1.0 16:2.0 20:1.0 
0.0 1.0 1:1.0 3:1.0 6:2.0 
1.0 1.0 1:1.0 3:3.0 4:1.0 6:3.0 13:1.0 14:1.0 16:2.0 26:1.0 
0.0 1.0 1:2.0 2:1.0 3:5.0 5:1.0 6:4.0 7:1.0 13:1.0 16:2.0 20:2.0 23:1.0 26:1.0 
1.0 1.0 3:3.0 6:2.0 14:1.0 
1.0 1.0 3:3.0 5:2.0 6:2.0 12:2.0 15:4.0 
1.0 1.0 1:1.0 3:4.0 5:1.0 6:2.0 20:1.0 
0.0 1.0 1:1.0 3:3.0 5:3.0 6:3.0 7:1.0 10:1.0 12:2.0 13:1.0 14:3.0 16:2.0 23:1.0 26:1.0 
0.0 1.0 1:1.0 6:3.0 14:1.0 26:1.0 
0.0 1.0 1:1.0 3:3.0 5:1.0 6:4.0 12:2.0 15:4.0 
1.0 1.0 1:2.0 2:1.0 3:1.0 5:1.0 6:3.0 10:1.0 14:3.0 26:1.0 32:1.0 
1.0 1.0 3:2.0 4:1.0 5:1.0 6:1.0 11:2.0 12:1.0 14:1.0 15:8.0 
0.0 1.0 3:2.0 6:2.0 12:1.0 14:1.0 
1.0 1.0 1:1.0 3:3.0 6:3.0 11:1.0 20:1.0 
1.0 1.0 2:1.0 3:3.0 5:1.0 6:2.0 7:1.0 9:1.0 17:1.0 19:1.0 
0.0 1.0 3:2.0 6:1.0 
1.0 1.0 3:4.0 4:1.0 6:1.0 8:1.0 18:1.0 
1.0 1.0 3:3.0 5:1.0 6:2.0 8:1.0 10:1.0 12:1.0 15:8.0 18:1.0 
1.0 1.0 2:1.0 3:3.0 5:1.0 6:2.0 7:1.0 9:1.0 17:1.0 19:1.0 
0.0 1.0 3:1.0 4:1.0 5:2.0 11:3.0 14:1.0 
0.0 1.0 1:1.0 3:1.0 6:1.0 20:1.0 
0.0 1.0 3:1.0 6:3.0 12:1.0 15:4.0 
0.0 1.0 3:2.0 6:1.0 
0.0 1.0 1:1.0 3:2.0 
1.0 1.0 1:1.0 2:1.0 3:2.0 5:1.0 6:2.0 
0.0 1.0 3:3.0 4:1.0 
0.0 1.0 3:2.0 6:2.0 
1.0 1.0 3:4.0 4:1.0 6:2.0 13:1.0 16:2.0 
1.0 1.0 3:3.0 6:3.0 
1.0 1.0 3:3.0 4:1.0 5:1.0 6:1.0 11:1.0 
0.0 1.0 1:1.0 3:2.0 20:1.0 
0.0 1.0 1:1.0 3:2.0 4:2.0 5:2.0 6:4.0 11:2.0 12:1.0 
0.0 1.0 1:1.0 3:1.0 6:1.0 20:1.0 
0.0 1.0 3:4.0 6:1.0 
0.0 1.0 1:1.0 3:5.0 4:1.0 6:3.0 20:1.0 
0.0 1.0 1:1.0 3:3.0 4:1.0 6:1.0 20:1.0 
0.0 1.0 4:1.0 5:1.0 6:3.0 10:1.0 13:1.0 16:2.0 
1.0 1.0 3:3.0 5:1.0 6:3.0 11:1.0 13:1.0 16:2.0 
1.0 1.0 3:4.0 4:1.0 5:3.0 6:2.0 11:1.0 
0.0 1.0 3:2.0 5:2.0 6:1.0 
1.0 1.0 3:2.0 4:2.0 5:2.0 6:2.0 10:1.0 
0.0 1.0 1:1.0 3:3.0 5:1.0 
1.0 1.0 4:1.0 5:2.0 6:4.0 11:2.0 
1.0 1.0 1:1.0 2:1.0 3:1.0 4:2.0 5:3.0 6:1.0 11:3.0 20:3.0 
1.0 1.0 3:1.0 5:3.0 6:4.0 8:1.0 10:1.0 18:1.0 
1.0 1.0 3:2.0 4:2.0 5:1.0 6:1.0 11:3.0 14:1.0 
0.0 1.0 1:1.0 3:1.0 6:2.0 20:1.0 
0.0 1.0 3:1.0 6:2.0 7:1.0 17:1.0 
0.0 1.0 1:1.0 2:1.0 3:1.0 4:1.0 7:1.0 11:1.0 17:1.0 20:1.7 
0.0 1.0 3:2.0 6:1.0 7:1.0 17:1.0 
0.0 1.0 3:2.0 4:1.0 5:1.0 8:2.0 10:1.0 18:2.0 
0.0 1.0 1:1.0 3:1.0 5:1.0 6:2.0 7:1.0 17:1.0 20:1.0 
1.0 1.0 3:1.0 5:1.0 6:3.0 10:1.0 
0.0 1.0 3:1.0 4:1.0 5:2.0 7:1.0 11:1.0 12:1.0 17:1.0 
0.0 1.0 2:1.0 3:1.0 5:1.0 6:1.0 7:1.0 10:1.0 11:1.0 17:1.0 
0.0 1.0 3:1.0 4:1.0 5:1.0 6:1.0 7:1.0 17:1.0 
1.0 1.0 3:2.0 5:3.0 6:1.0 10:1.0 12:1.0 
0.0 1.0 1:1.0 2:1.0 5:1.0 6:2.0 8:1.0 10:1.0 18:1.0 20:1.0 
1.0 1.0 1:1.0 3:2.0 4:2.0 5:1.0 6:1.0 7:1.0 8:1.0 10:1.0 17:1.0 18:1.0 
0.0 1.0 3:2.0 5:1.0 6:1.0 8:1.0 18:1.0 
0.0 1.0 2:1.0 3:1.0 6:2.0 13:1.0 16:2.0 20:1.0 
1.0 1.0 2:1.0 3:3.0 4:1.0 5:2.0 6:2.0 8:3.0 11:1.0 18:3.0 20:2.0 
0.0 1.0 3:1.0 5:2.0 6:2.0 10:1.0 
1.0 1.0 1:1.0 3:1.0 5:2.0 6:4.0 12:1.0 13:1.0 14:1.0 20:1.0 22:2.0 
1.0 1.0 2:1.0 3:4.0 6:1.0 14:1.0 20:1.0 
1.0 1.0 2:2.0 3:4.0 5:1.0 6:3.0 12:1.0 13:1.0 15:2.0 16:2.0 20:2.0 
0.0 1.0 3:3.0 4:2.0 5:4.0 6:2.0 10:3.0 11:3.0 
0.0 1.0 1:1.0 3:1.0 5:1.0 6:1.0 10:1.0 14:1.0 20:1.0 
0.0 1.0 3:3.0 6:2.0 
0.0 1.0 1:3.0 6:1.0 20:3.0 
0.0 1.0 1:1.0 6:4.0 14:1.0 20:1.0 
1.0 1.0 3:1.0 6:4.0 11:1.0 12:1.0 21:4.0 
0.0 1.0 1:1.0 3:1.0 4:1.0 5:1.0 11:1.0 20:1.5 
1.0 1.0 3:4.0 6:3.0 
0.0 1.0 1:1.0 3:2.0 6:5.0 7:1.0 32:1.0 35:1.0 
0.0 1.0 1:1.0 3:1.0 6:2.0 7:1.0 14:1.0 20:1.0 23:1.0 
1.0 1.0 2:1.0 3:3.0 5:1.0 6:2.0 10:1.0 20:-1.0 
0.0 1.0 3:3.0 7:1.0 13:1.0 16:2.0 23:1.0 
0.0 1.0 1:2.0 3:3.0 4:2.0 5:1.0 6:2.0 7:1.0 11:2.0 13:1.0 14:1.0 20:7.0 23:1.0 
0.0 1.0 1:1.0 3:1.0 4:1.0 6:1.0 20:1.0 
1.0 1.0 2:1.0 3:2.0 5:1.0 6:3.0 8:2.0 20:1.0 30:2.0 
0.0 1.0 3:1.0 6:3.0 
0.0 1.0 1:2.0 5:1.0 6:3.0 10:1.0 
1.0 1.0 3:1.0 4:1.0 5:1.0 6:3.0 11:1.0 13:1.0 16:2.0 
1.0 1.0 1:3.0 3:2.0 5:2.0 6:2.0 8:1.0 12:1.0 13:1.0 16:2.0 24:1.0 26:3.0 
0.0 1.0 3:1.0 6:2.0 13:1.0 16:2.0 
1.0 1.0 3:3.0 6:2.0 11:1.0 
1.0 1.0 1:1.0 3:2.0 5:2.0 6:2.0 10:2.0 
1.0 1.0 3:3.0 4:1.0 6:2.0 14:2.0 
0.0 1.0 1:1.0 3:2.0 5:1.0 6:1.0 20:1.0 
0.0 1.0 3:6.0 6:1.0 
1.0 1.0 3:3.0 4:1.0 5:1.0 6:1.0 11:2.0 
0.0 1.0 3:3.0 6:1.0 
1.0 1.0 3:4.0 6:2.0 
0.0 1.0 1:1.0 3:5.0 20:1.0 
1.0 1.0 3:4.0 4:1.0 6:1.0 10:1.0 
0.0 1.0 1:1.0 3:3.0 6:1.0 11:1.0 20:1.0 
0.0 1.0 1:2.0 3:5.0 6:4.0 20:2.0 
1.0 1.0 3:5.0 6:1.0 11:1.0 
1.0 1.0 3:2.0 4:1.0 5:3.0 6:2.0 7:1.0 10:2.0 17:1.0 
1.0 1.0 1:1.0 3:3.0 5:2.0 6:1.0 7:1.0 10:2.0 17:1.0 
0.0 1.0 1:1.0 3:3.0 6:1.0 14:1.0 26:1.0 
1.0 1.0 3:2.0 4:3.0 6:3.0 7:1.0 11:2.0 17:1.0 
0.0 1.0 3:6.0 6:1.0 
0.0 1.0 1:3.0 3:3.0 5:1.0 6:5.0 11:1.0 12:2.0 15:2.0 20:2.0 
0.0 1.0 3:4.0 6:5.0 11:1.0 12:1.0 
0.0 1.0 1:1.0 3:2.0 4:1.0 5:2.0 11:1.0 12:1.0 20:2.0 
1.0 1.0 1:1.0 3:3.0 4:1.0 5:1.0 6:2.0 11:1.0 12:1.0 20:1.0 
0.0 1.0 3:2.0 6:1.0 
0.0 1.0 3:5.0 5:1.0 6:4.0 10:1.0 11:1.0 
0.0 1.0 3:2.0 4:1.0 11:1.0 14:1.0 
0.0 1.0 3:2.0 5:1.0 13:1.0 16:2.0 
0.0 1.0 3:1.0 5:2.0 6:1.0 10:1.0 11:1.0 14:1.0 
0.0 1.0 3:1.0 5:1.0 6:2.0 10:1.0 14:1.0 
0.0 1.0 3:1.0 5:2.0 6:2.0 
1.0 1.0 1:1.0 3:3.0 4:1.0 5:2.0 6:2.0 11:2.0 20:1.0 
0.0 1.0 3:1.0 4:1.0 5:2.0 6:1.0 14:1.0 
0.0 1.0 4:1.0 5:2.0 6:2.0 10:2.0 11:1.0 
0.0 1.0 1:1.0 3:3.0 4:1.0 5:4.0 6:5.0 8:1.0 18:1.0 20:1.0 
1.0 1.0 3:3.0 4:1.0 6:2.0 
1.0 1.0 1:1.0 3:1.0 4:4.0 5:1.0 6:1.0 11:3.0 12:1.0 15:4.0 20:3.0 
1.0 1.0 3:4.0 6:2.0 
0.0 1.0 1:1.0 3:7.0 4:1.0 6:2.0 20:1.0 
0.0 1.0 2:1.0 3:8.0 6:1.0 
0.0 1.0 1:2.0 3:8.0 4:3.0 20:2.0 
0.0 1.0 2:1.0 3:8.0 6:1.0 
1.0 1.0 3:4.0 5:1.0 6:2.0 11:1.0 13:1.0 16:2.0 
0.0 1.0 1:1.0 3:2.0 4:1.0 6:6.0 7:1.0 13:1.0 14:3.0 20:1.0 28:2.0 35:1.0 
0.0 1.0 3:1.0 5:1.0 6:2.0 14:1.0 
0.0 1.0 1:1.0 3:5.0 4:1.0 5:2.0 6:1.0 11:1.0 12:1.0 15:8.0 20:1.0 
0.0 1.0 1:1.0 3:5.0 4:2.0 6:2.0 11:1.0 13:1.0 14:1.0 22:2.0 32:1.0 
0.0 1.0 1:2.0 3:7.0 4:2.0 5:1.0 6:1.0 13:1.0 14:1.0 16:2.0 20:2.0 
0.0 1.0 1:1.0 2:1.0 3:1.0 4:2.0 6:6.0 13:1.0 16:2.0 20:1.0 26:1.0 
0.0 1.0 3:7.0 6:2.0 14:1.0 
1.0 1.0 3:5.0 4:2.0 5:3.0 7:1.0 10:2.0 13:1.0 14:1.0 16:2.0 21:4.0 29:1.0 
0.0 1.0 1:1.0 3:6.0 4:1.0 5:2.0 6:2.0 7:1.0 10:1.0 14:1.0 26:1.0 29:1.0 
1.0 1.0 1:1.0 3:2.0 5:2.0 6:3.0 11:1.0 14:1.0 20:3.0 
1.0 1.0 2:1.0 3:1.0 4:1.0 5:1.0 6:2.0 12:1.0 15:4.0 20:1.0 
0.0 1.0 1:1.0 3:2.0 5:1.0 6:1.0 20:1.0 
0.0 1.0 1:1.0 3:2.0 6:5.0 12:1.0 13:1.0 14:1.0 15:2.0 22:2.0 26:1.0 
0.0 1.0 3:1.0 5:1.0 6:2.0 
0.0 1.0 3:1.0 4:1.0 5:1.0 6:2.0 7:1.0 11:2.0 17:1.0 
1.0 1.0 2:1.0 3:3.0 5:2.0 6:2.0 10:1.0 20:-1.0 
1.0 1.0 2:1.0 3:1.0 5:3.0 6:2.0 8:1.0 10:1.0 11:1.0 18:1.0 20:2.0 
0.0 1.0 1:1.0 3:5.0 14:1.0 20:1.0 
0.0 1.0 1:1.0 3:1.0 5:1.0 6:1.0 7:1.0 17:1.0 20:1.0 
1.0 1.0 6:6.0 
0.0 1.0 1:3.0 3:2.0 4:1.0 6:3.0 20:3.0 
1.0 1.0 3:1.0 4:1.0 5:2.0 6:5.0 7:1.0 8:3.0 14:1.0 18:3.0 23:1.0 
0.0 1.0 3:2.0 6:2.0 7:1.0 17:1.0 
1.0 1.0 2:1.0 3:5.0 5:1.0 6:2.0 10:1.0 20:1.0 
1.0 1.0 1:2.0 3:2.0 6:3.0 10:1.0 11:1.0 
0.0 1.0 1:1.0 3:1.0 5:1.0 6:1.0 
0.0 1.0 1:1.0 4:1.0 5:2.0 6:2.0 11:1.0 20:1.0 
0.0 1.0 3:3.0 6:2.0 
1.0 1.0 3:4.0 5:1.0 6:3.0 11:1.0 13:1.0 16:2.0 
0.0 1.0 3:2.0 6:1.0 
0.0 1.0 3:2.0 6:1.0 
1.0 1.0 2:1.0 3:3.0 4:1.0 5:1.0 6:2.0 12:1.0 20:1.0 
1.0 1.0 1:1.0 5:2.0 6:4.0 10:2.0 
0.0 1.0 1:1.0 3:4.0 6:1.0 20:1.0 
1.0 1.0 3:2.0 5:1.0 6:3.0 
0.0 1.0 1:3.0 3:4.0 4:2.0 5:1.0 6:3.0 13:2.0 16:2.0 20:1.0 26:2.0 28:2.0 
0.0 1.0 1:1.0 3:2.0 6:1.0 20:1.0 
0.0 1.0 3:3.0 
0.0 1.0 3:1.0 6:3.0 10:1.0 
0.0 1.0 1:3.0 3:5.0 5:3.0 6:2.0 11:1.0 12:2.0 20:2.0 21:4.0 26:2.0 
1.0 1.0 3:1.0 5:1.0 6:3.0 11:1.0 
0.0 1.0 1:2.0 3:1.0 5:1.0 12:1.0 20:2.0 
1.0 1.0 2:1.0 3:5.0 6:2.0 11:1.0 13:1.0 16:2.0 20:1.0 
0.0 1.0 1:1.0 3:1.0 4:1.0 5:4.0 6:5.0 10:2.0 20:-1.0 
1.0 1.0 1:1.0 2:1.0 3:2.0 5:3.0 6:3.0 12:1.0 15:4.0 20:2.0 
1.0 1.0 1:1.0 3:1.0 6:4.0 20:1.0 
0.0 1.0 1:1.0 5:2.0 6:3.0 20:1.0 
1.0 1.0 3:1.0 4:1.0 5:5.0 6:3.0 11:1.0 12:1.0 
0.0 1.0 1:2.0 5:1.0 6:4.0 20:2.0 
0.0 1.0 3:2.0 6:1.0 
0.0 1.0 3:3.0 6:1.0 
1.0 1.0 2:1.0 3:2.0 5:1.0 6:3.0 20:1.0 
0.0 1.0 1:2.0 3:3.0 4:1.0 5:1.0 6:2.0 12:1.0 15:8.0 20:2.0 
0.0 1.0 1:1.0 3:2.0 6:5.0 7:1.0 23:1.0 
0.0 1.0 3:1.0 6:3.0 13:1.0 16:2.0 
0.0 1.0 2:1.0 3:3.0 
1.0 1.0 3:5.0 4:1.0 5:3.0 6:1.0 9:1.0 11:1.0 12:1.0 13:2.0 14:3.0 28:2.0 49:1.0 
1.0 1.0 2:1.0 3:2.0 6:2.0 8:1.0 10:1.0 18:1.0 20:1.0 
1.0 1.0 3:1.0 6:5.0 13:1.0 16:2.0 
1.0 1.0 3:1.0 5:3.0 6:2.0 10:1.0 
0.0 1.0 1:1.0 2:1.0 3:3.0 20:2.0 
0.0 1.0 3:2.0 6:2.0 7:1.0 17:1.0 
0.0 1.0 1:2.0 3:2.0 5:1.0 6:2.0 10:1.0 20:-1.0 
0.0 1.0 1:1.0 2:1.0 3:1.0 5:2.0 6:1.0 10:1.0 13:1.0 16:2.0 20:-1.0 
1.0 1.0 1:1.0 3:1.0 4:1.0 6:3.0 11:1.0 13:1.0 16:2.0 
0.0 1.0 1:1.0 2:1.0 3:7.0 4:1.0 6:1.0 11:1.0 12:1.0 13:1.0 20:2.0 21:4.0 22:2.0 
0.0 1.0 5:2.0 6:3.0 
0.0 1.0 1:3.0 3:2.0 6:3.0 14:1.0 20:2.0 26:1.0 
1.0 1.0 3:2.0 6:4.0 7:1.0 14:1.0 47:1.0 
0.0 1.0 1:1.0 3:1.0 6:1.0 13:1.0 16:2.0 20:1.0 
1.0 1.0 2:1.0 3:3.0 4:1.0 6:1.0 26:1.0 
1.0 1.0 1:1.0 3:2.0 4:3.0 6:2.0 20:1.0 
0.0 1.0 1:4.0 3:2.0 6:4.0 11:2.0 20:6.0 
0.0 1.0 1:1.0 3:3.0 6:1.0 20:1.0 
1.0 1.0 2:2.0 3:1.0 4:1.0 5:1.0 6:2.0 20:2.0 
0.0 1.0 1:1.0 3:2.0 13:1.0 16:2.0 20:1.0 
1.0 1.0 3:5.0 6:2.0 
0.0 1.0 1:1.0 3:2.0 4:3.0 5:1.0 6:5.0 11:1.0 
0.0 1.0 1:1.0 3:8.0 20:1.0 
1.0 1.0 2:1.0 3:2.0 4:1.0 5:2.0 6:3.0 11:1.0 20:1.0 
1.0 1.0 1:1.0 3:1.0 5:2.0 6:2.0 10:1.0 20:1.0 
0.0 1.0 3:6.0 6:2.0 
0.0 1.0 3:5.0 6:3.0 
0.0 1.0 3:3.0 6:2.0 
1.0 1.0 3:4.0 5:2.0 6:1.0 14:2.0 
1.0 1.0 1:1.0 3:2.0 5:3.0 6:2.0 7:1.0 10:1.0 11:1.0 17:1.0 20:1.0 
1.0 1.0 1:2.0 3:3.0 4:2.0 6:1.0 11:1.0 20:2.0 
0.0 1.0 3:1.0 5:1.0 6:2.0 7:1.0 13:1.0 16:2.0 23:1.0 
0.0 1.0 1:2.0 2:1.0 3:5.0 20:3.0 
1.0 1.0 1:2.0 2:1.0 3:1.0 4:2.0 5:1.0 6:4.0 10:1.0 11:1.0 13:1.0 16:2.0 20:1.0 26:2.0 
1.0 1.0 3:3.0 6:3.0 
0.0 1.0 6:4.0 
0.0 1.0 3:1.0 4:2.0 5:3.0 8:1.0 11:1.0 14:1.0 24:1.0 
0.0 1.0 3:5.0 6:3.0 
1.0 1.0 3:2.0 5:1.0 6:3.0 11:1.0 12:1.0 
0.0 1.0 1:2.0 3:2.0 5:1.0 11:1.0 
1.0 1.0 3:3.0 4:4.0 5:2.0 
0.0 1.0 1:1.0 3:4.0 20:1.0 
1.0 1.0 3:3.0 4:1.0 5:1.0 6:3.0 11:1.0 
1.0 1.0 1:1.0 3:2.0 6:3.0 14:2.0 20:1.0 
1.0 1.0 3:2.0 5:1.0 6:3.0 10:1.0 
1.0 1.0 2:1.0 3:4.0 6:3.0 10:1.0 11:1.0 14:1.0 20:1.0 
1.0 1.0 1:1.0 3:1.0 6:4.0 14:1.0 20:1.0 
0.0 1.0 3:3.0 6:2.0 
0.0 1.0 3:3.0 5:3.0 6:5.0 11:1.0 
0.0 1.0 1:1.0 3:5.0 6:2.0 20:1.0 
0.0 1.0 3:3.0 7:1.0 17:1.0 
0.0 1.0 1:2.0 3:2.0 6:4.0 20:2.0 
0.0 1.0 1:1.0 3:3.0 6:1.0 20:1.0 
0.0 1.0 3:2.0 6:1.0 
1.0 1.0 3:4.0 4:1.0 5:1.0 6:2.0 7:1.0 12:1.0 15:4.0 17:1.0 
0.0 1.0 3:2.0 6:2.0 
0.0 1.0 3:8.0 6:1.0 
1.0 1.0 1:1.0 3:3.0 6:3.0 
0.0 1.0 3:2.0 6:1.0 
0.0 1.0 1:1.0 3:5.0 4:1.0 6:3.0 
0.0 1.0 3:3.0 6:1.0 
1.0 1.0 3:2.0 4:2.0 5:3.0 11:4.0 12:1.0 
0.0 1.0 1:2.0 2:2.0 3:2.0 5:1.0 6:5.0 20:2.0 
1.0 1.0 3:2.0 5:2.0 6:1.0 10:1.0 11:1.0 
0.0 1.0 3:2.0 5:2.0 6:1.0 10:1.0 
1.0 1.0 3:2.0 5:1.0 6:2.0 10:1.0 
1.0 1.0 3:4.0 4:1.0 6:1.0 
0.0 1.0 3:1.0 4:1.0 6:2.0 11:1.0 
0.0 1.0 3:2.0 6:2.0 
1.0 1.0 2:1.0 3:2.0 5:1.0 6:3.0 11:1.0 20:1.0 
0.0 1.0 1:1.0 3:1.0 4:1.0 5:1.0 6:1.0 11:1.0 20:1.0 
1.0 1.0 3:3.0 5:1.0 6:1.0 10:1.0 14:1.0 
1.0 1.0 3:1.0 5:1.0 6:3.0 10:1.0 
1.0 1.0 1:1.0 3:3.0 5:2.0 6:1.0 10:1.0 12:3.0 15:4.0 
0.0 1.0 3:1.0 4:1.0 6:2.0 12:1.0 14:1.0 21:4.0 
0.0 1.0 1:1.0 3:4.0 6:1.0 14:3.0 20:1.0 
1.0 1.0 3:3.0 5:1.0 6:2.0 10:1.0 
1.0 1.0 3:3.0 5:1.0 6:2.0 10:1.0 
1.0 1.0 3:3.0 5:1.0 6:2.0 10:1.0 
0.0 1.0 3:2.0 6:1.0 7:1.0 14:1.0 23:1.0 
0.0 1.0 1:3.0 3:2.0 5:3.0 6:5.0 7:1.0 8:1.0 10:1.0 14:6.0 17:1.0 18:1.0 20:1.0 
1.0 1.0 3:3.0 5:1.0 6:2.0 10:1.0 
0.0 1.0 1:2.0 3:2.0 4:1.0 6:4.0 20:2.0 
0.0 1.0 3:2.0 4:1.0 5:1.0 11:2.0 
1.0 1.0 1:1.0 3:2.0 5:1.0 6:3.0 14:6.0 20:1.0 
1.0 1.0 1:1.0 3:1.0 6:5.0 20:1.0 
0.0 1.0 1:1.0 3:4.0 4:1.0 5:2.0 6:3.0 11:1.0 20:1.0 
0.0 1.0 3:2.0 4:1.0 6:2.0 8:1.0 14:6.0 24:1.0 
1.0 1.0 3:3.0 5:1.0 6:2.0 10:1.0 
0.0 1.0 3:5.0 5:1.0 6:3.0 14:6.0 
1.0 1.0 3:3.0 4:2.0 5:1.0 6:1.0 
1.0 1.0 3:3.0 5:1.0 6:2.0 10:1.0 
1.0 1.0 3:3.0 5:1.0 6:2.0 10:1.0 
1.0 1.0 3:3.0 5:1.0 6:2.0 10:1.0 
1.0 1.0 3:3.0 5:1.0 6:2.0 10:1.0 
1.0 1.0 3:3.0 5:1.0 6:2.0 10:1.0 
1.0 1.0 1:1.0 2:1.0 3:1.0 5:2.0 6:5.0 8:3.0 11:2.0 13:1.0 16:2.0 24:3.0 26:2.0 
1.0 1.0 1:1.0 3:2.0 5:1.0 6:3.0 10:1.0 12:1.0 15:1.0 
1.0 1.0 3:3.0 5:1.0 6:2.0 10:1.0 
0.0 1.0 1:1.0 3:1.0 4:1.0 6:2.0 11:1.0 20:2.0 
1.0 1.0 3:3.0 5:1.0 6:2.0 10:1.0 
0.0 1.0 1:1.0 3:2.0 5:1.0 6:5.0 11:2.0 13:2.0 14:1.0 20:1.0 22:2.0 34:2.0 
0.0 1.0 1:1.0 3:1.0 4:1.0 6:1.0 
1.0 1.0 1:1.0 2:1.0 3:1.0 6:4.0 20:1.0 
1.0 1.0 3:3.0 5:1.0 6:2.0 10:1.0 
1.0 1.0 3:3.0 5:1.0 6:2.0 10:1.0 
1.0 1.0 3:3.0 5:1.0 6:2.0 10:1.0 
0.0 1.0 1:1.0 3:1.0 5:1.0 6:1.0 20:1.0 
0.0 1.0 3:2.0 6:2.0 7:1.0 17:1.0 
1.0 1.0 3:2.0 5:1.0 6:4.0 9:1.0 25:1.0 
1.0 1.0 2:1.0 3:5.0 4:3.0 6:2.0 26:1.0 
0.0 1.0 1:1.0 3:2.0 5:3.0 6:3.0 11:1.0 14:6.0 20:3.0 
0.0 1.0 1:2.0 5:1.0 6:4.0 20:1.0 
1.0 0.0 5:6.0 10:3.0 12:1.0 15:2.0 
0.0 1.0 1:1.0 3:2.0 5:2.0 6:4.0 12:1.0 15:4.0 20:1.0 
0.0 1.0 1:1.0 4:1.0 5:3.0 6:7.0 10:1.0 11:2.0 14:3.0 20:1.5 
1.0 1.0 1:1.0 2:2.0 3:1.0 4:1.0 5:3.0 6:3.0 10:1.0 11:1.0 20:-3.0 
1.0 1.0 1:1.0 3:1.0 4:1.0 5:2.0 6:3.0 11:5.0 12:1.0 
0.0 1.0 2:1.0 3:1.0 5:2.0 6:1.0 11:1.0 20:3.0 
1.0 1.0 2:1.0 3:2.0 5:1.0 6:1.0 8:1.0 10:1.0 11:1.0 24:1.0 
1.0 1.0 3:1.0 4:2.0 5:5.0 10:1.0 11:5.0 14:2.0 
0.0 1.0 1:1.0 3:1.0 6:2.0 20:1.0 
1.0 1.0 5:2.0 6:3.0 7:1.0 10:2.0 11:1.0 17:1.0 
1.0 1.0 1:1.0 5:3.0 6:4.0 10:1.0 11:1.0 
1.0 1.0 1:1.0 3:1.0 4:1.0 6:3.0 8:1.0 18:1.0 20:1.0 
1.0 1.0 1:2.0 3:2.0 4:1.0 6:3.0 11:1.0 20:3.0 
0.0 1.0 1:1.0 3:3.0 4:1.0 5:5.0 6:2.0 10:2.0 11:3.0 14:1.0 20:-0.6 
0.0 1.0 3:1.0 6:2.0 12:1.0 15:4.0 
0.0 1.0 1:2.0 3:3.0 4:1.0 5:1.0 6:3.0 11:1.0 20:3.0 
1.0 1.0 3:2.0 5:2.0 6:4.0 10:1.0 11:1.0 
0.0 1.0 3:6.0 
0.0 1.0 3:1.0 5:1.0 6:2.0 
1.0 1.0 1:2.0 3:2.0 4:1.0 5:1.0 6:3.0 20:2.0 
0.0 1.0 1:2.0 2:1.0 3:4.0 5:3.0 6:2.0 10:1.0 20:2.0 
0.0 1.0 3:1.0 6:3.0 
0.0 1.0 3:3.0 6:1.0 14:1.0 
1.0 1.0 3:2.0 5:3.0 6:2.0 10:1.0 11:2.0 
0.0 1.0 1:1.0 3:1.0 5:1.0 6:1.0 20:1.0 
1.0 1.0 3:2.0 5:2.0 6:3.0 7:1.0 11:1.0 23:1.0 
0.0 1.0 3:3.0 4:1.0 
1.0 1.0 2:1.0 3:3.0 5:1.0 6:1.0 8:1.0 18:1.0 20:1.0 
1.0 1.0 3:2.0 6:3.0 
0.0 1.0 1:1.0 3:1.0 4:2.0 5:1.0 6:1.0 11:1.0 20:1.0 
1.0 1.0 2:1.0 3:3.0 4:1.0 5:2.0 6:1.0 8:1.0 10:1.0 14:1.0 20:1.0 24:1.0 
1.0 1.0 1:1.0 2:1.0 3:5.0 4:2.0 6:1.0 20:1.0 
1.0 1.0 3:2.0 6:4.0 11:1.0 
1.0 1.0 3:6.0 4:1.0 5:1.0 11:1.0 
0.0 1.0 3:4.0 4:1.0 5:2.0 6:3.0 11:1.0 13:1.0 22:2.0 
1.0 1.0 3:2.0 4:1.0 5:2.0 6:2.0 9:1.0 11:2.0 13:2.0 16:2.0 25:1.0 
0.0 1.0 1:1.0 3:2.0 4:1.0 8:1.0 14:1.0 20:1.0 24:1.0 
1.0 1.0 3:2.0 4:1.0 5:1.0 6:2.0 
1.0 1.0 2:1.0 3:3.0 4:2.0 5:1.0 6:2.0 11:1.0 20:1.0 
1.0 1.0 3:3.0 4:1.0 6:2.0 7:1.0 8:1.0 11:1.0 17:1.0 18:1.0 
1.0 1.0 1:1.0 3:4.0 4:2.0 5:1.0 11:1.0 14:1.0 26:1.1 
0.0 1.0 3:1.0 6:3.0 8:1.0 13:1.0 16:2.0 24:1.0 
0.0 1.0 3:3.0 6:1.0 13:1.0 16:2.0 
0.0 1.0 1:1.0 3:2.0 20:1.0 
0.0 1.0 1:1.0 3:1.0 5:1.0 11:1.0 14:1.0 20:2.0 
1.0 1.0 3:4.0 4:1.0 5:1.0 10:1.0 14:1.0 
0.0 1.0 3:2.0 4:1.0 5:1.0 13:1.0 16:2.0 
0.0 1.0 1:1.0 2:1.0 3:6.0 6:1.0 20:2.0 
1.0 1.0 1:1.0 2:2.0 3:1.0 4:1.0 6:2.0 14:1.0 26:2.0 
0.0 1.0 1:2.0 3:3.0 6:2.0 20:1.0 
0.0 1.0 2:1.0 3:6.0 5:1.0 6:2.0 10:1.0 14:1.0 20:-1.0 
0.0 1.0 3:2.0 6:2.0 14:1.0 
1.0 1.0 3:4.0 5:1.0 6:1.0 
0.0 1.0 1:2.0 3:1.0 6:2.0 13:1.0 16:2.0 20:2.0 
0.0 1.0 4:1.0 5:2.0 6:2.0 10:1.0 12:2.0 15:2.0 
0.0 1.0 2:2.0 3:7.0 5:1.0 7:1.0 17:1.0 20:1.0 
0.0 1.0 3:3.0 6:1.0 11:1.0 14:1.0 
0.0 1.0 1:3.0 3:4.0 4:3.0 5:2.0 6:4.0 11:1.0 26:3.5 
1.0 1.0 3:5.0 5:2.0 6:1.0 10:1.0 12:1.0 15:4.0 
0.0 1.0 3:3.0 
0.0 1.0 3:2.0 5:1.0 6:1.0 8:1.0 18:1.0 
0.0 1.0 1:2.0 3:3.0 5:2.0 6:4.0 11:2.0 20:2.0 
0.0 1.0 3:6.0 6:1.0 
1.0 1.0 1:1.0 3:3.0 4:1.0 6:2.0 11:1.0 20:1.0 
1.0 1.0 1:1.0 3:3.0 4:1.0 5:3.0 6:1.0 10:1.0 20:1.0 
0.0 1.0 6:4.0 7:1.0 17:1.0 
1.0 1.0 1:1.0 3:3.0 5:3.0 6:2.0 11:1.0 20:1.0 
0.0 1.0 1:1.0 3:6.0 5:1.0 6:3.0 7:1.0 20:1.0 23:1.0 
1.0 1.0 2:1.0 3:3.0 4:1.0 5:1.0 6:2.0 11:1.0 32:1.0 
1.0 1.0 1:1.0 3:4.0 5:1.0 6:1.0 12:1.0 14:2.0 20:1.0 
0.0 1.0 3:4.0 6:1.0 
0.0 1.0 2:1.0 3:2.0 13:2.0 14:1.0 22:2.0 26:1.0 
0.0 1.0 1:1.0 3:2.0 5:1.0 6:2.0 
1.0 1.0 3:4.0 4:2.0 6:1.0 11:2.0 14:1.0 
0.0 1.0 3:1.0 4:1.0 5:1.0 6:1.0 
0.0 1.0 2:1.0 3:1.0 6:2.0 13:2.0 22:2.0 26:1.0 
0.0 1.0 3:2.0 6:1.0 
0.0 1.0 3:2.0 6:1.0 
0.0 1.0 1:1.0 3:2.0 6:5.0 14:2.0 
0.0 1.0 1:4.0 3:4.0 4:1.0 6:4.0 9:5.0 19:5.0 20:4.0 
1.0 1.0 2:1.0 3:2.0 5:2.0 6:3.0 10:1.0 14:3.0 20:1.0 
0.0 1.0 3:1.0 4:1.0 5:1.0 6:1.0 11:1.0 14:1.0 
0.0 1.0 3:4.0 4:3.0 5:4.0 6:2.0 11:2.0 12:1.0 15:4.0 
1.0 1.0 1:2.0 2:1.0 3:2.0 4:1.0 5:1.0 6:3.0 10:1.0 20:1.0 
0.0 1.0 1:1.0 2:1.0 3:3.0 6:5.0 
0.0 1.0 3:4.0 4:2.0 5:2.0 6:2.0 14:5.0 
0.0 1.0 3:2.0 6:1.0 11:1.0 
0.0 1.0 3:1.0 6:3.0 
0.0 1.0 1:1.0 3:4.0 5:1.0 6:3.0 10:1.0 20:1.0 
0.0 1.0 2:1.0 3:4.0 14:2.0 20:1.0 
0.0 1.0 1:1.0 3:6.0 6:2.0 20:1.0 
0.0 1.0 1:1.0 3:2.0 6:1.0 14:1.0 20:1.0 
1.0 1.0 2:1.0 3:2.0 4:1.0 5:2.0 6:1.0 10:1.0 11:1.0 20:-1.0 
0.0 1.0 3:1.0 5:1.0 6:2.0 14:2.0 
0.0 1.0 2:1.0 3:4.0 5:1.0 6:4.0 10:1.0 11:1.0 20:1.0 
1.0 1.0 1:1.0 3:1.0 4:2.0 5:2.0 6:5.0 13:1.0 14:1.0 26:1.0 
0.0 1.0 3:1.0 4:3.0 6:2.0 
0.0 1.0 3:2.0 5:1.0 6:1.0 
0.0 1.0 1:1.0 2:2.0 3:4.0 4:3.0 5:2.0 6:2.0 10:1.0 11:3.0 20:2.0 
1.0 1.0 3:1.0 5:3.0 6:3.0 10:1.0 11:2.0 12:1.0 15:4.0 
0.0 1.0 4:1.0 6:3.0 10:1.0 13:1.0 16:2.0 
0.0 1.0 1:1.0 3:6.0 6:1.0 20:1.0 
0.0 1.0 3:2.0 4:1.0 6:1.0 
0.0 1.0 1:1.0 3:5.0 20:1.0 
1.0 1.0 2:1.0 3:2.0 6:2.0 11:1.0 20:2.0 
1.0 1.0 3:4.0 5:1.0 6:1.0 10:1.0 
0.0 1.0 3:1.0 5:1.0 6:2.0 
0.0 1.0 1:1.0 3:1.0 6:1.0 13:6.0 16:2.0 20:1.0 
1.0 1.0 3:3.0 6:3.0 12:1.0 15:2.0 
0.0 1.0 1:1.0 3:3.0 5:2.0 6:4.0 7:2.0 10:1.0 14:1.0 17:2.0 
0.0 1.0 3:1.0 4:2.0 6:1.0 11:1.0 
0.0 1.0 3:1.0 5:1.0 6:2.0 10:1.0 
0.0 1.0 3:3.0 5:1.0 6:6.0 10:1.0 11:1.0 
0.0 1.0 1:1.0 3:2.0 6:5.0 
0.0 1.0 3:1.0 6:3.0 
0.0 1.0 3:3.0 14:1.0 
0.0 1.0 3:1.0 5:1.0 6:2.0 11:1.0 
1.0 1.0 1:1.0 3:3.0 5:3.0 6:2.0 10:1.0 11:1.0 20:1.5 
0.0 1.0 3:6.0 4:3.0 6:2.0 
1.0 1.0 3:2.0 5:2.0 6:2.0 10:1.0 
0.0 1.0 6:4.0 14:1.0 
0.0 1.0 1:2.0 3:2.0 5:2.0 6:1.0 14:1.0 20:2.0 
0.0 1.0 3:1.0 6:3.0 
0.0 1.0 3:5.0 6:3.0 11:1.0 
0.0 1.0 1:1.0 3:3.0 4:2.0 6:5.0 50:1.0 
0.0 1.0 6:3.0 7:1.0 17:1.0 
1.0 1.0 1:1.0 3:3.0 4:1.0 5:3.0 6:1.0 10:1.0 11:1.0 14:1.0 20:3.0 
0.0 1.0 3:4.0 
0.0 1.0 3:2.0 5:2.0 11:2.0 
1.0 1.0 1:1.0 3:2.0 4:2.0 6:4.0 11:1.0 20:3.0 
0.0 1.0 1:1.0 2:1.0 3:3.0 4:1.0 5:2.0 6:4.0 7:1.0 10:1.0 11:1.0 17:1.0 20:0.5 
0.0 1.0 1:1.0 3:5.0 4:2.0 20:1.0 
0.0 1.0 3:2.0 5:1.0 6:1.0 10:1.0 14:3.0 
1.0 1.0 1:4.0 3:3.0 5:2.0 6:2.0 12:1.0 13:2.0 16:2.0 20:2.0 26:1.0 28:2.0 32:1.0 
0.0 1.0 1:2.0 3:3.0 6:1.0 20:2.0 
0.0 1.0 1:1.0 3:4.0 4:1.0 5:1.0 20:1.0 
0.0 1.0 3:2.0 4:1.0 5:1.0 6:5.0 12:1.0 13:1.0 14:1.0 22:2.0 
0.0 1.0 1:2.0 3:2.0 4:4.0 5:2.0 6:4.0 10:1.0 11:2.0 12:1.0 15:4.0 
1.0 1.0 3:3.0 5:1.0 6:3.0 13:2.0 16:2.0 22:2.0 
1.0 1.0 1:1.0 3:2.0 5:1.0 6:2.0 11:1.0 12:1.0 20:1.0 
1.0 1.0 1:2.0 3:3.0 6:3.0 11:1.0 20:1.0 
1.0 1.0 1:1.0 2:1.0 3:3.0 4:1.0 5:2.0 11:1.0 
1.0 1.0 3:3.0 5:1.0 6:2.0 10:1.0 
1.0 1.0 3:3.0 5:1.0 6:2.0 10:1.0 
1.0 1.0 3:3.0 5:1.0 6:2.0 10:1.0 
1.0 1.0 3:3.0 5:1.0 6:2.0 10:1.0 
1.0 1.0 3:3.0 5:1.0 6:2.0 10:1.0 
1.0 1.0 3:3.0 5:1.0 6:2.0 10:1.0 
0.0 1.0 1:1.0 3:3.0 20:1.0 
1.0 1.0 3:3.0 5:1.0 6:2.0 10:1.0 
1.0 1.0 3:3.0 5:1.0 6:2.0 10:1.0 
1.0 1.0 3:3.0 5:1.0 6:2.0 10:1.0 
1.0 1.0 3:3.0 5:1.0 6:2.0 10:1.0 
1.0 1.0 1:1.0 2:2.0 3:2.0 5:1.0 6:2.0 20:3.0 
1.0 1.0 1:1.0 3:2.0 5:2.0 6:2.0 13:1.0 16:2.0 20:1.0 
1.0 1.0 3:3.0 5:1.0 6:2.0 10:1.0 
1.0 1.0 3:3.0 5:1.0 6:2.0 10:1.0 
1.0 1.0 3:3.0 5:1.0 6:2.0 10:1.0 
1.0 1.0 3:2.0 4:2.0 5:2.0 6:1.0 10:1.0 
0.0 1.0 1:2.0 3:3.0 4:3.0 5:2.0 6:2.0 11:1.0 12:2.0 14:6.0 21:8.0 26:2.0 
1.0 1.0 5:2.0 6:4.0 10:1.0 
1.0 1.0 3:3.0 5:1.0 6:2.0 10:1.0 
1.0 1.0 3:3.0 5:1.0 6:2.0 10:1.0 
1.0 1.0 3:3.0 5:1.0 6:2.0 10:1.0 
1.0 1.0 3:3.0 5:1.0 6:2.0 10:1.0 
1.0 1.0 3:3.0 5:1.0 6:2.0 10:1.0 
1.0 1.0 2:1.0 3:1.0 5:1.0 6:3.0 14:1.0 20:1.0 
0.0 1.0 3:1.0 5:1.0 6:2.0 
1.0 1.0 2:1.0 3:2.0 6:2.0 10:1.0 13:1.0 16:2.0 20:-1.0 
1.0 1.0 1:1.0 3:1.0 4:1.0 5:3.0 6:4.0 11:1.0 12:1.0 20:1.0 
0.0 1.0 3:3.0 6:1.0 
0.0 1.0 1:1.0 2:1.0 5:1.0 6:3.0 20:1.0 
1.0 1.0 3:4.0 4:1.0 6:2.0 11:1.0 12:1.0 
1.0 1.0 2:1.0 3:3.0 4:3.0 6:3.0 20:1.0 
1.0 1.0 1:2.0 3:3.0 5:3.0 6:2.0 11:1.0 20:1.8 
1.0 1.0 2:2.0 3:2.0 6:1.0 12:1.0 14:1.0 15:2.0 20:1.0 
0.0 1.0 1:1.0 2:1.0 3:2.0 5:2.0 6:5.0 10:1.0 
0.0 1.0 1:1.0 2:1.0 3:2.0 5:5.0 6:5.0 10:2.0 13:1.0 16:2.0 26:-1.0 
1.0 1.0 2:2.0 3:1.0 4:2.0 5:2.0 6:4.0 7:1.0 17:1.0 20:2.0 
1.0 1.0 2:2.0 3:3.0 4:1.0 5:2.0 6:2.0 20:2.0 
1.0 1.0 1:1.0 3:3.0 5:1.0 6:3.0 
1.0 1.0 2:1.0 3:2.0 5:1.0 6:3.0 12:1.0 15:4.0 20:1.0 
1.0 1.0 3:2.0 4:1.0 5:2.0 6:2.0 7:1.0 12:1.0 17:1.0 
1.0 1.0 3:1.0 4:3.0 5:2.0 6:3.0 10:1.0 11:1.0 12:1.0 14:1.0 15:8.0 
1.0 1.0 1:1.0 3:2.0 5:2.0 6:3.0 10:1.0 
0.0 1.0 3:2.0 4:1.0 6:1.0 11:1.0 12:1.0 14:1.0 21:4.0 
0.0 1.0 1:3.0 3:3.0 4:1.0 5:1.0 6:3.0 10:1.0 12:1.0 20:1.0 
0.0 1.0 3:1.0 5:1.0 6:2.0 13:1.0 16:2.0 
1.0 1.0 1:2.0 3:2.0 5:2.0 6:1.0 11:1.0 12:1.0 20:1.0 
0.0 1.0 3:1.0 4:1.0 5:1.0 6:1.0 11:1.0 
0.0 1.0 3:2.0 5:2.0 6:1.0 10:1.0 
1.0 1.0 2:1.0 3:3.0 4:1.0 5:2.0 6:3.0 11:2.0 20:1.0 
1.0 1.0 2:1.0 5:2.0 6:3.0 10:1.0 11:1.0 20:-0.8 
1.0 1.0 1:1.0 2:1.0 3:5.0 4:2.0 5:1.0 6:2.0 10:1.0 11:1.0 20:-3.4 
0.0 1.0 3:2.0 5:1.0 6:6.0 
0.0 1.0 3:2.0 6:2.0 11:1.0 
0.0 1.0 3:3.0 6:1.0 14:3.0 
1.0 1.0 1:1.0 4:1.0 5:1.0 6:4.0 10:1.0 20:-1.0 
0.0 1.0 1:1.0 3:3.0 4:2.0 6:1.0 20:1.0 
0.0 1.0 3:2.0 6:1.0 
0.0 1.0 3:2.0 6:1.0 
0.0 1.0 3:1.0 5:1.0 6:2.0 10:1.0 
0.0 1.0 1:1.0 5:1.0 6:4.0 11:1.0 
0.0 1.0 3:2.0 6:2.0 
1.0 1.0 1:1.0 3:1.0 4:1.0 6:4.0 11:1.0 12:1.0 15:4.0 20:1.0 
1.0 1.0 3:3.0 4:1.0 5:2.0 6:1.0 10:1.0 12:1.0 14:1.0 15:4.0 16:1.0 
1.0 1.0 3:3.0 5:1.0 6:2.0 
0.0 1.0 3:4.0 4:1.0 5:2.0 6:4.0 7:1.0 12:1.0 29:1.0 
0.0 1.0 3:2.0 6:1.0 
1.0 1.0 3:4.0 5:1.0 6:3.0 13:1.0 22:2.0 
1.0 1.0 3:3.0 4:1.0 6:4.0 11:1.0 
1.0 1.0 3:1.0 6:4.0 
0.0 1.0 1:2.0 3:1.0 4:2.0 6:1.0 11:1.0 20:2.0 
1.0 1.0 3:3.0 6:3.0 
0.0 1.0 3:3.0 6:1.0 
0.0 1.0 1:1.0 3:1.0 5:2.0 6:1.0 10:1.0 11:1.0 
0.0 1.0 2:1.0 3:3.0 20:1.0 
1.0 1.0 2:1.0 3:5.0 4:1.0 5:1.0 6:1.0 11:2.0 14:1.0 20:1.0 
0.0 1.0 1:1.0 3:2.0 5:1.0 6:2.0 
0.0 1.0 1:1.0 3:5.0 6:3.0 13:1.0 16:2.0 20:1.0 
0.0 1.0 2:2.0 3:7.0 5:1.0 7:1.0 17:1.0 20:1.0 
0.0 1.0 2:1.0 3:1.0 4:1.0 5:1.0 6:1.0 13:1.0 16:2.0 20:1.0 
0.0 1.0 3:3.0 6:1.0 14:1.0 
1.0 1.0 1:2.0 3:4.0 4:2.0 5:1.0 6:1.0 11:1.0 20:3.0 
1.0 1.0 1:1.0 3:2.0 5:3.0 6:3.0 13:1.0 16:2.0 
1.0 1.0 1:1.0 3:2.0 4:1.0 5:2.0 6:1.0 11:1.0 14:1.0 20:2.0 
0.0 1.0 3:3.0 6:1.0 14:1.0 
0.0 1.0 3:5.0 
0.0 1.0 3:3.0 4:1.0 
0.0 1.0 1:1.0 3:4.0 4:1.0 5:3.0 6:4.0 11:1.0 12:1.0 20:1.0 
0.0 1.0 3:1.0 6:4.0 
0.0 1.0 3:5.0 5:1.0 6:1.0 7:3.0 11:1.0 12:1.0 14:2.0 23:3.0 
1.0 1.0 3:4.0 4:1.0 5:2.0 6:1.0 11:2.0 12:1.0 13:1.0 14:4.0 22:2.0 
0.0 1.0 2:1.0 3:2.0 6:1.0 14:2.0 
1.0 1.0 2:1.0 3:1.0 4:1.0 5:1.0 6:4.0 10:1.0 20:1.0 
0.0 1.0 1:1.0 3:4.0 4:1.0 5:1.0 6:3.0 10:1.0 20:-1.0 
1.0 1.0 3:2.0 5:1.0 6:3.0 10:1.0 
0.0 1.0 3:3.0 5:1.0 6:1.0 
1.0 1.0 3:2.0 5:1.0 6:2.0 13:1.0 16:2.0 
0.0 1.0 3:2.0 6:1.0 
1.0 1.0 3:4.0 6:2.0 
1.0 1.0 3:3.0 5:4.0 6:1.0 10:2.0 
1.0 1.0 3:3.0 4:3.0 5:1.0 6:3.0 10:1.0 14:1.0 
0.0 1.0 3:1.0 4:2.0 6:1.0 
0.0 1.0 3:1.0 4:1.0 5:1.0 6:2.0 
0.0 1.0 1:1.0 3:2.0 4:1.0 6:2.0 11:1.0 20:1.0 
1.0 1.0 3:3.0 5:1.0 6:2.0 
1.0 1.0 3:4.0 4:1.0 6:1.0 
0.0 1.0 2:1.0 3:3.0 4:1.0 5:3.0 6:5.0 10:1.0 11:1.0 12:2.0 13:1.0 14:1.0 21:4.0 22:2.0 26:1.0 
1.0 1.0 3:2.0 6:3.0 
1.0 1.0 1:2.0 3:2.0 6:4.0 14:1.0 26:1.0 
0.0 1.0 3:3.0 6:2.0 
1.0 1.0 3:4.0 4:1.0 6:3.0 11:1.0 
0.0 1.0 3:2.0 6:1.0 
0.0 1.0 1:1.0 3:4.0 4:2.0 5:3.0 6:2.0 11:1.0 12:1.0 26:1.0 
0.0 1.0 1:1.0 3:1.0 6:4.0 
1.0 1.0 2:1.0 3:3.0 4:2.0 6:2.0 11:1.0 14:3.0 20:1.5 
0.0 1.0 3:2.0 5:1.0 6:2.0 
1.0 1.0 1:1.0 2:1.0 3:4.0 4:1.0 5:2.0 6:2.0 10:1.0 11:2.0 20:-1.0 
0.0 1.0 3:2.0 6:1.0 
0.0 1.0 3:1.0 6:4.0 
0.0 1.0 2:1.0 3:3.0 20:1.0 
1.0 1.0 1:1.0 3:4.0 5:1.0 6:1.0 12:1.0 14:2.0 20:1.0 
1.0 1.0 1:1.0 3:1.0 6:2.0 13:6.0 16:2.0 20:1.0 
0.0 1.0 3:3.0 6:1.0 
0.0 1.0 1:3.0 3:1.0 4:1.0 5:2.0 10:1.0 20:3.0 
1.0 1.0 3:1.0 4:5.0 5:2.0 6:3.0 10:1.0 11:4.0 13:1.0 14:1.0 22:2.0 
0.0 1.0 3:2.0 4:1.0 6:1.0 
0.0 1.0 3:4.0 
1.0 1.0 1:1.0 3:2.0 4:2.0 5:1.0 6:1.0 11:2.0 14:2.0 20:2.0 
1.0 1.0 3:4.0 6:2.0 
0.0 1.0 3:2.0 4:1.0 6:2.0 
0.0 1.0 1:1.0 3:2.0 5:1.0 6:1.0 20:1.0 
1.0 1.0 3:4.0 6:2.0 
0.0 1.0 1:2.0 3:3.0 6:1.0 20:2.0 
0.0 1.0 3:3.0 6:1.0 
1.0 1.0 1:4.0 2:1.0 3:3.0 4:1.0 5:2.0 6:2.0 10:1.0 20:-2.0 
0.0 1.0 1:1.0 3:2.0 6:1.0 20:1.0 
0.0 1.0 1:4.0 3:3.0 4:1.0 6:2.0 10:1.0 12:1.0 15:4.0 20:2.0 
0.0 1.0 3:3.0 6:1.0 
1.0 1.0 1:1.0 3:3.0 4:1.0 6:3.0 
1.0 1.0 1:1.0 3:1.0 5:2.0 6:3.0 20:1.0 
1.0 1.0 3:3.0 4:2.0 5:3.0 6:2.0 10:1.0 11:1.0 12:1.0 
0.0 1.0 1:1.0 3:1.0 6:1.0 20:1.0 
0.0 1.0 3:2.0 4:1.0 5:4.0 6:5.0 10:1.0 11:4.0 12:1.0 13:1.0 14:1.0 15:4.0 22:2.0 
1.0 1.0 3:1.0 5:1.0 6:2.0 12:1.0 13:1.0 15:8.0 16:2.0 
0.0 1.0 3:2.0 6:5.0 10:2.0 11:1.0 12:1.0 15:4.0 
1.0 1.0 3:3.0 5:1.0 6:2.0 10:1.0 
1.0 1.0 2:1.0 3:3.0 4:1.0 5:1.0 6:1.0 11:1.0 14:3.0 20:1.0 
0.0 1.0 1:1.0 3:1.0 5:1.0 6:3.0 20:1.0 
0.0 1.0 3:3.0 5:1.0 10:1.0 11:1.0 14:1.0 
1.0 1.0 3:3.0 5:1.0 6:2.0 10:1.0 
0.0 1.0 3:2.0 6:1.0 14:1.0 
1.0 1.0 1:1.0 3:1.0 5:2.0 6:2.0 12:1.0 20:1.0 
1.0 1.0 3:3.0 5:1.0 6:2.0 10:1.0 
1.0 1.0 3:3.0 5:1.0 6:2.0 10:1.0 
0.0 1.0 3:1.0 5:1.0 6:2.0 11:1.0 
0.0 1.0 1:1.0 3:2.0 6:1.0 12:1.0 20:1.0 
1.0 1.0 3:3.0 5:1.0 6:2.0 10:1.0 
1.0 1.0 3:3.0 5:1.0 6:2.0 10:1.0 
1.0 1.0 3:3.0 5:1.0 6:2.0 10:1.0 
0.0 1.0 3:1.0 6:2.0 11:1.0 
0.0 1.0 1:3.0 2:1.0 3:3.0 4:2.0 5:6.0 6:3.0 10:1.0 11:1.0 12:1.0 20:3.0 
1.0 1.0 2:1.0 3:1.0 5:1.0 6:3.0 10:1.0 14:1.0 20:-1.0 
1.0 1.0 3:3.0 5:1.0 6:2.0 10:1.0 
1.0 1.0 1:1.0 2:1.0 3:1.0 6:4.0 20:1.0 
0.0 1.0 3:1.0 5:1.0 6:3.0 
1.0 1.0 3:3.0 5:1.0 6:2.0 10:1.0 
1.0 1.0 3:3.0 5:1.0 6:2.0 10:1.0 
1.0 1.0 3:3.0 5:1.0 6:2.0 10:1.0 
0.0 1.0 1:1.0 3:2.0 20:1.0 
1.0 1.0 3:3.0 5:1.0 6:2.0 10:1.0 
1.0 1.0 5:1.0 6:4.0 10:1.0 11:2.0 14:2.0 
0.0 1.0 1:1.0 3:2.0 4:1.0 6:1.0 20:1.0 
1.0 1.0 3:3.0 5:1.0 6:2.0 10:1.0 
1.0 1.0 3:3.0 5:1.0 6:2.0 10:1.0 
0.0 1.0 1:1.0 6:3.0 
0.0 1.0 1:2.0 3:4.0 4:1.0 5:1.0 6:3.0 11:1.0 20:2.0 
0.0 1.0 3:1.0 4:1.0 6:2.0 
1.0 1.0 1:1.0 2:1.0 4:2.0 5:5.0 6:3.0 10:2.0 12:3.0 15:4.0 20:-2.0 
1.0 1.0 1:1.0 3:1.0 4:1.0 5:3.0 6:4.0 11:1.0 12:1.0 20:1.0 
0.0 1.0 1:1.0 3:4.0 5:4.0 6:2.0 11:1.0 20:1.0 
0.0 1.0 3:1.0 5:1.0 6:3.0 
0.0 1.0 2:1.0 3:1.0 5:2.0 6:1.0 11:1.0 20:3.0 
0.0 1.0 2:1.0 3:4.0 5:1.0 6:5.0 10:1.0 
1.0 1.0 1:1.0 2:1.0 3:4.0 4:1.0 5:1.0 6:2.0 10:1.0 14:1.0 
0.0 1.0 2:1.0 3:2.0 4:1.0 5:4.0 6:5.0 10:1.0 11:1.0 20:-1.0 
0.0 1.0 1:1.0 3:5.0 4:1.0 6:4.0 11:1.0 20:1.0 
0.0 1.0 5:2.0 6:5.0 12:2.0 14:1.0 15:8.0 
1.0 1.0 2:1.0 3:1.0 4:1.0 5:3.0 6:2.0 10:1.0 11:2.0 12:1.0 15:4.0 20:-1.0 
0.0 1.0 3:2.0 5:1.0 6:2.0 
1.0 1.0 1:1.0 3:2.0 4:1.0 5:1.0 6:3.0 10:1.0 20:-1.0 
1.0 1.0 1:1.0 3:1.0 5:1.0 6:3.0 11:1.0 20:3.0 
0.0 1.0 3:2.0 5:1.0 6:1.0 7:1.0 17:1.0 
0.0 1.0 2:2.0 3:2.0 6:1.0 20:1.0 
1.0 1.0 3:2.0 4:1.0 6:3.0 14:1.0 
1.0 1.0 3:2.0 5:1.0 6:2.0 10:1.0 14:1.0 
0.0 1.0 3:2.0 6:1.0 
1.0 1.0 1:1.0 3:3.0 5:2.0 6:2.0 20:1.0 
0.0 1.0 3:1.0 6:3.0 
1.0 1.0 3:5.0 6:1.0 10:1.0 
0.0 1.0 3:1.0 5:1.0 6:2.0 12:1.0 15:8.0 
0.0 1.0 3:2.0 4:1.0 6:2.0 
0.0 1.0 3:2.0 4:1.0 6:2.0 
0.0 1.0 3:2.0 6:1.0 
0.0 1.0 1:1.0 4:1.0 5:2.0 6:2.0 11:1.0 14:1.0 
0.0 1.0 1:3.0 3:2.0 4:1.0 6:1.0 20:3.0 
0.0 1.0 1:1.0 4:1.0 6:2.0 9:1.0 13:2.0 16:2.0 22:2.0 26:1.0 31:1.0 
0.0 1.0 1:1.0 3:3.0 4:1.0 5:1.0 6:6.0 13:1.0 16:2.0 20:1.0 
0.0 1.0 1:1.0 3:4.0 6:5.0 11:2.0 
0.0 1.0 3:4.0 4:1.0 8:1.0 18:1.0 
1.0 1.0 1:1.0 3:1.0 4:1.0 5:2.0 6:1.0 10:1.0 11:2.0 14:3.0 26:1.0 
1.0 1.0 1:1.0 2:1.0 3:1.0 4:1.0 5:1.0 6:2.0 11:2.0 26:1.6 
0.0 1.0 3:1.0 4:1.0 6:3.0 11:1.0 
0.0 1.0 5:1.0 6:3.0 11:1.0 12:2.0 15:4.0 
0.0 1.0 3:1.0 4:1.0 5:1.0 6:1.0 
1.0 1.0 3:4.0 5:2.0 6:2.0 12:1.0 
0.0 1.0 3:1.0 5:2.0 6:1.0 10:1.0 11:1.0 
0.0 1.0 3:1.0 4:1.0 5:1.0 6:1.0 11:3.0 
0.0 1.0 1:1.0 2:1.0 3:2.0 6:1.0 11:1.0 20:1.0 
1.0 1.0 3:4.0 4:1.0 6:2.0 11:1.0 13:1.0 16:2.0 
0.0 1.0 1:3.0 3:2.0 5:1.0 6:3.0 12:1.0 14:1.0 15:8.0 20:3.0 
1.0 1.0 1:1.0 5:2.0 6:4.0 12:1.0 13:1.0 15:8.0 16:2.0 20:1.0 
0.0 1.0 1:1.0 3:5.0 4:1.0 5:1.0 6:3.0 20:1.0 
1.0 1.0 3:1.0 4:1.0 5:1.0 6:3.0 11:2.0 13:1.0 14:1.0 22:2.0 
0.0 1.0 1:2.0 3:2.0 4:1.0 6:1.0 11:1.0 14:1.0 20:1.0 
0.0 1.0 3:4.0 4:5.0 5:4.0 6:3.0 11:4.0 12:1.0 13:2.0 14:1.0 16:2.0 21:8.0 22:2.0 
0.0 1.0 1:1.0 3:5.0 5:3.0 6:2.0 11:1.0 14:1.0 20:2.0 
0.0 1.0 3:3.0 6:2.0 
0.0 1.0 1:1.0 3:1.0 6:1.0 13:1.0 22:2.0 26:1.0 
1.0 1.0 1:1.0 4:2.0 5:1.0 6:3.0 11:1.0 12:2.0 13:1.0 14:1.0 16:2.0 21:8.0 26:3.0 
0.0 1.0 3:1.0 4:1.0 6:1.0 13:1.0 16:2.0 
0.0 1.0 3:2.0 6:1.0 
1.0 1.0 1:1.0 3:1.0 4:1.0 5:2.0 6:1.0 13:3.0 16:2.0 22:2.0 28:2.0 
0.0 1.0 3:3.0 6:1.0 14:2.0 
1.0 1.0 1:1.0 3:1.0 5:2.0 6:2.0 12:1.0 20:1.0 
0.0 1.0 1:1.0 3:1.0 5:1.0 6:1.0 13:1.0 16:2.0 20:1.0 
0.0 1.0 1:1.0 3:3.0 13:1.0 22:2.0 26:1.0 
0.0 1.0 1:2.0 3:2.0 5:2.0 6:5.0 12:1.0 20:2.0 
0.0 1.0 4:2.0 5:4.0 10:1.0 11:3.0 13:1.0 16:2.0 
1.0 1.0 3:2.0 5:2.0 6:3.0 10:1.0 14:1.0 
0.0 1.0 3:3.0 6:2.0 
1.0 1.0 1:1.0 3:3.0 5:2.0 6:3.0 7:1.0 11:1.0 13:1.0 16:2.0 20:1.0 23:1.0 
0.0 1.0 1:2.0 3:2.0 6:2.0 20:2.0 
0.0 1.0 1:2.0 3:2.0 5:1.0 6:5.0 11:1.0 12:1.0 13:1.0 15:4.0 16:2.0 20:2.0 
0.0 1.0 3:1.0 6:2.0 11:1.0 12:1.0 14:2.0 
0.0 1.0 1:1.0 3:6.0 4:1.0 6:1.0 20:1.0 
1.0 1.0 3:3.0 5:4.0 6:1.0 10:1.0 12:2.0 15:4.0 
1.0 1.0 3:4.0 5:1.0 6:2.0 14:5.0 38:1.0 
0.0 1.0 1:2.0 6:2.0 20:2.0 
0.0 1.0 1:3.0 3:6.0 4:1.0 5:1.0 6:2.0 11:1.0 20:2.0 
1.0 1.0 1:2.0 3:3.0 4:1.0 5:1.0 11:3.0 12:1.0 15:4.0 20:3.5 
0.0 1.0 3:5.0 6:4.0 7:1.0 11:1.0 29:1.0 
1.0 1.0 1:1.0 3:3.0 4:1.0 5:2.0 10:1.0 
0.0 1.0 3:1.0 4:2.0 5:7.0 6:3.0 10:1.0 11:1.0 
0.0 1.0 3:2.0 6:1.0 
0.0 1.0 3:2.0 4:1.0 5:1.0 6:1.0 10:1.0 
1.0 1.0 3:3.0 5:3.0 6:1.0 12:1.0 
0.0 1.0 2:1.0 3:4.0 4:3.0 5:2.0 6:2.0 11:3.0 20:1.0 
0.0 1.0 1:1.0 3:1.0 6:1.0 20:1.0 
1.0 1.0 3:3.0 6:3.0 
0.0 1.0 3:2.0 6:1.0 11:2.0 
0.0 1.0 3:4.0 4:2.0 5:4.0 6:3.0 10:1.0 11:2.0 
1.0 1.0 3:2.0 5:2.0 6:3.0 10:1.0 
1.0 1.0 1:1.0 3:5.0 5:1.0 6:1.0 11:2.0 20:0.64 
0.0 1.0 3:1.0 6:2.0 13:1.0 16:2.0 
0.0 1.0 1:1.0 3:5.0 4:1.0 5:1.0 6:3.0 11:1.0 14:1.0 
0.0 1.0 3:2.0 6:1.0 13:1.0 14:1.0 16:2.0 
0.0 1.0 3:3.0 4:1.0 5:1.0 6:5.0 12:1.0 13:1.0 15:8.0 16:2.0 
0.0 1.0 1:1.0 3:2.0 4:2.0 5:2.0 6:3.0 12:2.0 14:1.0 15:8.0 20:1.0 
1.0 1.0 4:1.0 5:4.0 6:1.0 10:2.0 11:1.0 13:1.0 16:2.0 
0.0 1.0 1:1.0 3:4.0 6:1.0 20:1.0 
0.0 1.0 3:5.0 4:1.0 5:1.0 6:3.0 11:1.0 
0.0 1.0 3:6.0 5:1.0 6:2.0 11:1.0 
0.0 1.0 3:3.0 6:2.0 
0.0 1.0 2:1.0 3:5.0 4:2.0 5:2.0 6:3.0 20:1.0 
1.0 1.0 1:1.0 3:2.0 4:3.0 5:1.0 6:2.0 11:1.0 12:1.0 15:8.0 20:1.0 
0.0 1.0 3:1.0 4:1.0 5:1.0 6:2.0 
0.0 1.0 3:1.0 5:1.0 6:2.0 
0.0 1.0 1:1.0 3:6.0 4:1.0 5:1.0 6:2.0 10:1.0 12:1.0 15:2.0 20:-1.0 
0.0 1.0 1:2.0 3:3.0 4:1.0 5:1.0 6:3.0 20:2.0 
1.0 1.0 2:1.0 3:5.0 4:2.0 5:2.0 6:1.0 10:2.0 11:2.0 20:1.0 
1.0 1.0 2:1.0 3:4.0 6:2.0 20:1.0 
0.0 1.0 1:2.0 3:5.0 5:1.0 6:4.0 11:2.0 20:1.0 
0.0 1.0 3:2.0 6:1.0 
0.0 1.0 1:1.0 2:1.0 3:4.0 4:2.0 5:1.0 6:4.0 11:2.0 12:1.0 15:4.0 20:1.0 
0.0 1.0 1:1.0 3:1.0 5:1.0 6:2.0 10:1.0 
0.0 1.0 1:1.0 2:1.0 3:2.0 4:1.0 5:1.0 11:1.0 20:3.0 
1.0 1.0 1:1.0 3:2.0 4:2.0 5:3.0 6:1.0 11:2.0 14:1.0 20:2.0 
0.0 1.0 3:2.0 4:2.0 5:1.0 11:3.0 
1.0 1.0 2:1.0 3:3.0 4:1.0 6:3.0 20:1.0 
0.0 1.0 1:1.0 3:2.0 20:1.0 
1.0 1.0 3:2.0 5:1.0 6:2.0 11:1.0 
0.0 1.0 1:1.0 3:2.0 20:1.0 
0.0 1.0 3:1.0 4:1.0 6:2.0 11:1.0 14:1.0 
0.0 1.0 3:2.0 6:2.0 7:1.0 17:1.0 
1.0 1.0 3:1.0 4:1.0 5:1.0 6:3.0 12:1.0 
1.0 1.0 1:3.0 4:1.0 5:3.0 6:3.0 8:1.0 11:1.0 12:2.0 13:2.0 16:2.0 20:1.0 22:2.0 26:2.0 30:1.0 
1.0 1.0 1:2.0 3:3.0 5:1.0 6:2.0 11:1.0 13:1.0 16:2.0 
0.0 1.0 1:3.0 3:4.0 4:1.0 5:2.0 6:3.0 13:1.0 16:2.0 20:3.0 
0.0 1.0 3:8.0 4:1.0 
0.0 1.0 3:1.0 4:2.0 5:1.0 6:1.0 13:1.0 16:2.0 
0.0 1.0 3:5.0 5:1.0 6:3.0 13:1.0 16:2.0 
0.0 1.0 3:2.0 5:1.0 6:2.0 
0.0 1.0 1:1.0 2:1.0 3:4.0 4:3.0 5:6.0 6:3.0 7:1.0 10:2.0 11:1.0 17:1.0 20:-2.0 
0.0 1.0 3:2.0 6:3.0 7:1.0 17:1.0 
1.0 1.0 2:1.0 3:4.0 5:2.0 6:2.0 10:1.0 11:1.0 13:1.0 16:2.0 20:1.0 
0.0 1.0 1:1.0 3:4.0 6:6.0 13:1.0 16:2.0 20:1.0 
0.0 1.0 3:2.0 6:2.0 13:1.0 16:2.0 
0.0 1.0 4:1.0 5:1.0 6:3.0 13:1.0 16:2.0 
1.0 1.0 4:1.0 5:3.0 6:5.0 11:3.0 13:2.0 16:2.0 22:2.0 
1.0 1.0 3:1.0 4:1.0 5:1.0 6:2.0 10:1.0 11:1.0 13:1.0 16:2.0 
1.0 1.0 3:2.0 5:1.0 6:2.0 10:1.0 13:1.0 14:1.0 16:2.0 
1.0 1.0 1:3.0 3:1.0 4:2.0 6:3.0 13:1.0 16:2.0 20:2.0 
0.0 1.0 3:1.0 5:1.0 6:2.0 13:1.0 16:2.0 
1.0 1.0 3:1.0 6:4.0 13:1.0 16:2.0 
0.0 1.0 3:5.0 5:3.0 6:2.0 10:1.0 11:2.0 13:3.0 16:2.0 22:2.0 28:2.0 
0.0 1.0 1:1.0 4:1.0 5:3.0 6:1.0 10:1.0 
1.0 1.0 1:2.0 3:3.0 5:1.0 6:3.0 11:1.0 20:1.0 
0.0 1.0 1:1.0 5:1.0 6:2.0 10:1.0 13:1.0 16:2.0 
1.0 1.0 3:2.0 4:1.0 5:1.0 6:1.0 11:2.0 13:1.0 14:1.0 16:2.0 
1.0 1.0 3:1.0 5:5.0 6:2.0 10:1.0 11:2.0 12:1.0 14:1.0 
0.0 1.0 1:1.0 3:2.0 20:1.0 
0.0 1.0 3:3.0 5:1.0 14:1.0 
1.0 1.0 3:4.0 4:1.0 5:3.0 6:2.0 8:1.0 13:2.0 16:2.0 22:2.0 30:1.0 
0.0 1.0 1:2.0 3:2.0 5:2.0 6:5.0 12:1.0 20:2.0 
0.0 1.0 3:2.0 6:2.0 
0.0 1.0 3:1.0 5:2.0 11:2.0 13:1.0 16:2.0 
0.0 1.0 1:1.0 3:1.0 4:2.0 11:2.0 
0.0 1.0 3:2.0 4:1.0 5:4.0 6:5.0 11:2.0 13:3.0 16:2.0 22:2.0 28:2.0 
1.0 1.0 1:1.0 3:2.0 5:4.0 6:3.0 10:1.0 11:1.0 20:-3.0 
1.0 1.0 3:2.0 4:1.0 5:2.0 6:4.0 7:1.0 10:1.0 13:1.0 14:1.0 29:1.0 
1.0 1.0 1:2.0 3:2.0 5:1.0 6:2.0 7:1.0 10:1.0 13:2.0 16:2.0 22:2.0 29:1.0 
0.0 1.0 3:1.0 4:1.0 5:1.0 6:1.0 
0.0 1.0 1:1.0 3:1.0 6:2.0 20:1.0 
0.0 1.0 1:4.0 3:4.0 6:6.0 7:1.0 11:1.0 13:2.0 16:2.0 20:1.0 22:2.0 23:1.0 26:2.0 
0.0 1.0 1:1.0 3:6.0 6:3.0 20:1.0 
1.0 1.0 3:2.0 4:1.0 5:3.0 6:3.0 10:1.0 14:1.0 
0.0 1.0 3:3.0 4:1.0 6:1.0 11:1.0 
0.0 1.0 1:1.0 3:2.0 4:1.0 5:2.0 6:6.0 11:1.0 20:1.0 
0.0 1.0 1:1.0 3:5.0 4:2.0 5:2.0 6:3.0 11:2.0 
1.0 1.0 1:1.0 4:1.0 5:2.0 6:3.0 20:1.0 
1.0 1.0 3:3.0 6:2.0 11:1.0 
0.0 1.0 1:1.0 2:1.0 3:5.0 4:1.0 5:2.0 6:3.0 10:1.0 20:2.0 
0.0 1.0 3:2.0 6:1.0 
0.0 1.0 3:1.0 4:2.0 5:3.0 6:5.0 10:2.0 11:1.0 12:1.0 15:4.0 
1.0 1.0 1:1.0 3:3.0 6:3.0 12:1.0 20:1.0 
1.0 1.0 1:1.0 3:3.0 5:3.0 6:2.0 10:1.0 12:1.0 20:1.0 
0.0 1.0 3:2.0 5:1.0 6:1.0 11:1.0 
1.0 1.0 1:1.0 2:1.0 3:3.0 4:1.0 5:2.0 6:1.0 11:1.0 26:2.0 
0.0 1.0 1:1.0 3:2.0 6:1.0 20:1.0 
0.0 1.0 3:2.0 6:1.0 
0.0 1.0 3:2.0 6:2.0 
1.0 1.0 1:1.0 3:2.0 5:2.0 6:2.0 11:1.0 20:1.0 
0.0 1.0 3:2.0 4:1.0 5:1.0 11:1.0 
0.0 1.0 1:1.0 2:1.0 3:2.0 5:2.0 6:5.0 20:2.0 
1.0 1.0 2:1.0 3:2.0 6:3.0 8:1.0 14:1.0 24:1.0 26:1.0 
1.0 1.0 3:4.0 5:1.0 6:2.0 
0.0 1.0 3:5.0 5:1.0 6:3.0 11:1.0 
0.0 1.0 3:1.0 4:2.0 5:3.0 6:5.0 10:2.0 11:1.0 12:1.0 15:4.0 
1.0 1.0 1:1.0 4:1.0 5:2.0 6:5.0 10:1.0 11:3.0 26:1.1 
0.0 1.0 1:1.0 2:2.0 3:3.0 4:3.0 5:2.0 6:4.0 12:2.0 14:1.0 20:1.0 27:4.0 32:2.0 
0.0 1.0 3:5.0 4:2.0 5:2.0 6:3.0 11:2.0 
0.0 1.0 1:1.0 3:2.0 4:1.0 6:7.0 13:1.0 14:1.0 20:1.0 
1.0 1.0 1:1.0 3:1.0 4:1.0 5:1.0 6:4.0 20:1.0 
0.0 1.0 3:2.0 5:1.0 6:1.0 
0.0 1.0 1:1.0 3:3.0 5:1.0 6:4.0 10:1.0 13:2.0 16:2.0 22:2.0 26:1.0 
1.0 1.0 2:1.0 3:4.0 6:1.0 14:2.0 20:1.0 
1.0 1.0 1:1.0 3:1.0 5:3.0 6:4.0 10:1.0 12:1.0 14:1.0 20:1.0 
0.0 1.0 3:2.0 6:1.0 
0.0 1.0 1:2.0 3:1.0 5:2.0 6:5.0 12:1.0 20:2.0 
0.0 1.0 1:1.0 3:2.0 5:1.0 6:7.0 14:1.0 20:1.0 
0.0 1.0 3:4.0 6:4.0 11:1.0 13:3.0 16:2.0 22:2.0 28:2.0 
1.0 1.0 2:2.0 3:2.0 5:2.0 6:1.0 10:1.0 11:3.0 12:1.0 13:1.0 14:1.0 16:2.0 20:2.0 21:8.0 38:-1.0 
0.0 1.0 3:1.0 6:2.0 13:2.0 16:2.0 22:2.0 
1.0 1.0 1:2.0 3:3.0 6:2.0 10:1.0 13:1.0 16:2.0 20:1.0 26:1.0 
0.0 1.0 1:1.0 3:1.0 6:1.0 13:1.0 16:2.0 20:1.0 
1.0 1.0 2:1.0 3:3.0 5:1.0 6:2.0 11:1.0 13:3.0 16:2.0 22:2.0 28:2.0 32:1.0 
1.0 1.0 3:2.0 5:2.0 6:2.0 11:1.0 14:2.0 22:1.0 
1.0 1.0 3:1.0 4:2.0 5:3.0 10:2.0 11:1.0 12:1.0 15:4.0 
0.0 1.0 1:2.0 2:2.0 3:1.0 4:1.0 5:1.0 6:4.0 11:1.0 12:1.0 15:2.0 20:7.0 
1.0 1.0 3:2.0 5:2.0 6:3.0 11:1.0 12:1.0 15:8.0 
0.0 1.0 3:3.0 6:1.0 
0.0 1.0 3:2.0 6:1.0 
0.0 1.0 1:2.0 3:4.0 4:2.0 5:1.0 11:1.0 12:1.0 15:8.0 20:4.0 
1.0 1.0 1:1.0 3:3.0 4:1.0 5:1.0 6:2.0 11:1.0 20:1.5 
1.0 1.0 3:2.0 5:1.0 6:4.0 
1.0 1.0 3:4.0 4:1.0 5:2.0 10:1.0 11:1.0 14:1.0 
0.0 1.0 3:4.0 6:1.0 
0.0 1.0 1:1.0 2:2.0 3:3.0 4:2.0 5:3.0 6:2.0 10:1.0 11:2.0 20:5.0 
0.0 1.0 3:2.0 6:1.0 12:1.0 
0.0 1.0 3:2.0 6:1.0 
1.0 1.0 3:2.0 5:2.0 6:2.0 
1.0 1.0 1:2.0 2:1.0 3:3.0 4:2.0 5:1.0 6:2.0 11:1.0 20:4.0 
1.0 1.0 3:1.0 4:1.0 5:2.0 6:2.0 10:1.0 11:1.0 
0.0 1.0 2:1.0 3:1.0 4:2.0 6:2.0 20:1.0 
0.0 1.0 1:1.0 3:2.0 6:1.0 11:1.0 20:2.0 
0.0 1.0 3:2.0 6:1.0 11:1.0 
1.0 1.0 2:1.0 3:2.0 4:1.0 5:1.0 6:3.0 11:1.0 20:1.0 
0.0 1.0 1:2.0 3:5.0 4:1.0 6:4.0 20:1.0 26:1.0 
1.0 1.0 3:1.0 5:4.0 6:3.0 10:1.0 
1.0 1.0 2:1.0 3:2.0 4:1.0 6:2.0 
1.0 1.0 2:1.0 3:1.0 5:1.0 6:2.0 11:1.0 13:1.0 16:2.0 20:1.0 
0.0 1.0 3:1.0 4:1.0 5:1.0 6:1.0 11:1.0 
0.0 1.0 1:3.0 4:1.0 5:2.0 6:5.0 11:2.0 13:2.0 16:2.0 20:3.0 22:2.0 
0.0 1.0 1:1.0 3:7.0 4:1.0 6:2.0 7:1.0 17:1.0 20:1.0 
0.0 1.0 1:3.0 3:5.0 4:1.0 6:2.0 20:3.0 
0.0 1.0 1:2.0 3:4.0 5:3.0 6:3.0 11:1.0 13:1.0 16:2.0 20:2.0 26:1.0 
1.0 1.0 3:2.0 5:1.0 6:3.0 13:1.0 16:2.0 
0.0 1.0 3:4.0 6:1.0 
1.0 1.0 1:1.0 2:2.0 3:2.0 4:2.0 5:1.0 6:2.0 11:1.0 20:4.0 
1.0 1.0 1:2.0 3:2.0 4:2.0 5:1.0 6:3.0 11:4.0 13:1.0 16:2.0 20:3.0 
0.0 1.0 1:2.0 3:8.0 6:1.0 20:2.0 
0.0 1.0 1:3.0 3:4.0 5:1.0 6:5.0 7:1.0 17:1.0 20:3.0 
0.0 1.0 1:1.0 5:2.0 6:2.0 10:1.0 14:1.0 
0.0 1.0 1:1.0 2:1.0 3:1.0 4:3.0 5:1.0 6:1.0 10:1.0 13:1.0 14:1.0 22:2.0 26:-2.0 
0.0 1.0 6:4.0 13:2.0 16:2.0 22:2.0 
0.0 1.0 1:1.0 3:1.0 6:1.0 20:1.0 
1.0 1.0 3:2.0 4:1.0 5:1.0 6:4.0 13:2.0 16:2.0 22:2.0 
0.0 1.0 3:4.0 6:1.0 14:2.0 
0.0 1.0 3:3.0 6:1.0 
1.0 1.0 1:1.0 3:1.0 5:2.0 6:2.0 12:1.0 20:1.0 
1.0 1.0 3:2.0 4:1.0 5:3.0 6:2.0 13:4.0 16:2.0 22:2.0 28:2.0 34:2.0 
1.0 1.0 2:1.0 4:3.0 5:3.0 6:2.0 10:1.0 11:1.0 12:2.0 15:2.0 20:-1.0 
0.0 1.0 2:1.0 3:4.0 5:2.0 6:4.0 13:1.0 20:1.0 28:2.0 
0.0 1.0 1:2.0 3:1.0 5:2.0 6:5.0 12:1.0 20:2.0 
0.0 1.0 3:3.0 4:1.0 5:2.0 6:6.0 11:1.0 12:1.0 
1.0 1.0 3:1.0 4:1.0 5:1.0 6:2.0 11:2.0 13:3.0 16:2.0 22:2.0 28:2.0 
1.0 1.0 1:1.0 3:2.0 5:3.0 6:2.0 10:2.0 11:1.0 14:2.0 
0.0 1.0 3:2.0 5:1.0 6:5.0 11:2.0 13:1.0 16:2.0 
0.0 1.0 1:1.0 4:1.0 5:1.0 6:2.0 11:1.0 20:1.0 
1.0 1.0 3:2.0 4:1.0 5:2.0 10:1.0 12:1.0 13:2.0 16:2.0 22:2.0 
1.0 1.0 3:2.0 5:1.0 6:3.0 11:1.0 13:3.0 16:2.0 22:2.0 28:2.0 
1.0 1.0 3:4.0 6:1.0 13:1.0 16:2.0 
1.0 1.0 3:2.0 5:1.0 6:3.0 13:1.0 14:1.0 22:2.0 
0.0 1.0 1:2.0 3:1.0 13:1.0 16:2.0 20:2.0 
0.0 1.0 3:1.0 5:1.0 6:2.0 11:1.0 14:1.0 
0.0 1.0 1:1.0 3:5.0 6:1.0 20:1.0 
1.0 1.0 3:1.0 5:1.0 6:3.0 11:1.0 12:1.0 13:1.0 15:8.0 16:2.0 
-0.0 1.0 3:6.0 6:1.0 
0.0 1.0 1:1.0 3:4.0 4:1.0 6:5.0 20:1.0 
0.0 1.0 1:2.0 3:4.0 6:1.0 20:2.0 
0.0 1.0 1:1.0 3:3.0 5:1.0 13:1.0 16:2.0 20:1.0 
0.0 1.0 1:1.0 3:1.0 6:1.0 7:1.0 13:1.0 16:2.0 20:1.0 23:1.0 
0.0 1.0 1:4.0 3:3.0 4:2.0 5:1.0 6:4.0 11:1.0 12:1.0 13:1.0 15:8.0 16:2.0 20:3.0 
1.0 1.0 1:1.0 3:1.0 4:1.0 5:2.0 6:3.0 12:1.0 20:1.0 
0.0 1.0 1:1.0 3:3.0 4:1.0 6:4.0 11:1.0 13:1.0 16:2.0 20:1.0 
1.0 1.0 3:1.0 5:2.0 6:2.0 10:1.0 13:1.0 16:2.0 
0.0 1.0 3:7.0 
1.0 1.0 3:3.0 6:3.0 11:1.0 
0.0 1.0 1:1.0 2:2.0 3:2.0 4:2.0 5:1.0 6:6.0 20:3.0 
0.0 1.0 1:4.0 3:3.0 4:1.0 5:2.0 6:4.0 11:1.0 20:3.0 26:2.0 
1.0 1.0 3:2.0 5:2.0 6:2.0 10:1.0 11:1.0 
0.0 1.0 1:1.0 3:1.0 5:1.0 6:2.0 11:1.0 
1.0 1.0 3:2.0 5:3.0 10:1.0 12:1.0 15:4.0 
0.0 1.0 3:1.0 4:1.0 5:1.0 6:2.0 
0.0 1.0 2:1.0 3:1.0 5:1.0 6:2.0 20:1.0 
1.0 1.0 3:1.0 5:2.0 6:2.0 10:1.0 13:1.0 16:2.0 
0.0 1.0 3:2.0 5:1.0 6:1.0 
1.0 1.0 2:1.0 3:2.0 4:1.0 5:1.0 6:3.0 20:1.0 
1.0 1.0 3:3.0 5:1.0 6:1.0 12:1.0 14:2.0 
0.0 1.0 1:1.0 3:2.0 4:2.0 5:1.0 6:5.0 20:1.0 
0.0 1.0 1:1.0 3:1.0 5:1.0 11:1.0 20:2.0 
1.0 1.0 3:4.0 5:1.0 6:2.0 
0.0 1.0 1:4.0 6:3.0 20:4.0 
0.0 1.0 1:1.0 3:1.0 5:1.0 6:1.0 20:1.0 
0.0 1.0 3:5.0 5:2.0 6:3.0 10:1.0 
0.0 1.0 3:1.0 6:4.0 
1.0 1.0 3:4.0 5:2.0 6:1.0 10:1.0 
0.0 1.0 3:4.0 4:2.0 6:5.0 11:2.0 12:1.0 14:1.0 21:4.0 
0.0 1.0 3:1.0 5:2.0 6:6.0 10:1.0 14:1.0 
0.0 1.0 1:1.0 3:3.0 20:1.0 
0.0 1.0 3:2.0 4:1.0 6:1.0 
0.0 1.0 2:1.0 3:1.0 5:2.0 6:1.0 11:1.0 12:1.0 20:1.5 
1.0 1.0 2:1.0 3:1.0 5:2.0 6:2.0 10:1.0 20:-1.0 
1.0 1.0 1:1.0 3:3.0 4:1.0 5:2.0 10:1.0 
1.0 1.0 3:3.0 5:1.0 6:1.0 11:1.0 
0.0 1.0 1:2.0 3:2.0 4:2.0 5:1.0 20:2.0 
0.0 1.0 3:3.0 4:1.0 
1.0 1.0 3:1.0 5:3.0 6:2.0 10:1.0 
1.0 1.0 2:1.0 3:1.0 5:2.0 6:2.0 11:2.0 12:1.0 15:8.0 20:1.0 
1.0 1.0 1:1.0 2:1.0 3:1.0 5:3.0 6:1.0 10:1.0 11:1.0 20:-1.0 
1.0 1.0 1:1.0 3:2.0 5:1.0 6:3.0 11:1.0 20:1.0 
0.0 1.0 3:2.0 6:2.0 
0.0 1.0 1:1.0 3:3.0 5:1.0 6:5.0 20:1.0 
0.0 1.0 3:4.0 6:6.0 13:1.0 16:2.0 
0.0 1.0 3:5.0 4:1.0 5:2.0 6:3.0 10:1.0 11:1.0 12:1.0 13:1.0 14:2.0 16:1.0 21:8.0 28:2.0 
0.0 1.0 2:1.0 3:1.0 4:1.0 5:1.0 6:1.0 11:1.0 13:1.0 16:2.0 20:1.0 
1.0 1.0 3:2.0 5:2.0 6:1.0 11:1.0 13:1.0 16:2.0 
1.0 1.0 1:1.0 3:2.0 4:2.0 5:2.0 6:1.0 11:1.0 12:1.0 15:8.0 20:3.0 
1.0 1.0 3:3.0 4:1.0 5:2.0 6:2.0 10:1.0 11:1.0 
0.0 1.0 2:2.0 3:3.0 4:2.0 5:4.0 6:4.0 10:2.0 12:2.0 21:2.0 26:2.0 
1.0 1.0 3:5.0 6:2.0 13:2.0 16:2.0 22:2.0 
1.0 1.0 3:1.0 5:2.0 6:3.0 10:2.0 14:1.0 
1.0 1.0 3:1.0 5:1.0 6:3.0 13:1.0 16:2.0 
1.0 1.0 2:1.0 3:3.0 5:1.0 6:1.0 10:1.0 13:2.0 16:2.0 22:2.0 26:-1.0 
0.0 1.0 3:1.0 4:1.0 6:2.0 11:1.0 13:1.0 16:2.0 
1.0 1.0 3:2.0 5:1.0 6:2.0 11:1.0 13:1.0 16:2.0 
0.0 1.0 1:1.0 3:4.0 5:2.0 6:2.0 11:1.0 12:1.0 20:1.5 
1.0 1.0 3:3.0 6:2.0 11:1.0 13:1.0 16:2.0 
0.0 1.0 3:2.0 6:2.0 14:1.0 
1.0 1.0 2:1.0 3:1.0 5:2.0 6:4.0 10:1.0 11:1.0 13:1.0 16:2.0 20:-2.0 
1.0 1.0 1:2.0 3:3.0 5:1.0 6:3.0 11:1.0 20:1.0 
1.0 1.0 1:1.0 3:1.0 4:1.0 5:1.0 6:3.0 11:2.0 20:1.0 
0.0 1.0 3:3.0 6:1.0 
0.0 1.0 2:1.0 3:2.0 6:1.0 20:1.0 
0.0 1.0 3:7.0 4:1.0 5:2.0 6:1.0 
1.0 1.0 2:1.0 3:3.0 5:1.0 6:3.0 10:1.0 
1.0 1.0 2:1.0 3:3.0 4:1.0 6:1.0 20:1.0 
0.0 1.0 3:3.0 4:1.0 6:1.0 
0.0 1.0 2:1.0 3:1.0 6:2.0 14:1.0 20:1.0 
1.0 1.0 2:1.0 3:1.0 5:2.0 6:1.0 10:1.0 13:1.0 16:2.0 20:1.0 
0.0 1.0 1:1.0 2:2.0 3:1.0 6:2.0 20:3.0 
0.0 1.0 3:3.0 6:1.0 
1.0 1.0 2:2.0 3:3.0 4:1.0 11:1.0 20:2.0 
0.0 1.0 3:1.0 5:1.0 6:2.0 
1.0 1.0 3:3.0 5:1.0 6:4.0 10:1.0 
0.0 1.0 1:1.0 3:1.0 5:1.0 6:1.0 11:2.0 14:1.0 20:3.0 
0.0 1.0 1:1.0 3:2.0 20:1.0 
0.0 1.0 3:6.0 6:1.0 14:1.0 
1.0 1.0 3:4.0 4:2.0 6:1.0 7:1.0 13:1.0 16:2.0 23:1.0 
0.0 1.0 1:1.0 3:5.0 6:3.0 13:1.0 16:2.0 
0.0 1.0 1:1.0 3:4.0 6:6.0 13:1.0 16:2.0 20:1.0 
0.0 1.0 1:2.0 2:1.0 3:1.0 4:2.0 5:3.0 6:4.0 11:5.0 12:2.0 15:8.0 20:11.0 
0.0 1.0 1:1.0 3:7.0 4:1.0 6:2.0 7:1.0 17:1.0 20:1.0 
1.0 1.0 1:1.0 2:1.0 3:2.0 4:2.0 5:2.0 6:2.0 11:1.0 13:1.0 14:1.0 20:6.0 22:2.0 
0.0 1.0 1:1.0 3:4.0 4:1.0 6:5.0 13:1.0 16:2.0 20:1.0 
0.0 1.0 1:1.0 2:1.0 3:5.0 4:1.0 6:4.0 20:2.0 
1.0 1.0 3:4.0 6:2.0 
0.0 1.0 1:1.0 3:2.0 4:1.0 5:1.0 6:1.0 10:1.0 20:1.0 
0.0 1.0 1:1.0 3:2.0 13:1.0 16:2.0 20:1.0 
1.0 1.0 1:1.0 3:1.0 5:2.0 6:2.0 12:1.0 20:1.0 
0.0 1.0 3:1.0 5:1.0 6:2.0 13:1.0 16:2.0 
0.0 1.0 6:3.0 13:2.0 16:2.0 22:2.0 
0.0 1.0 1:2.0 3:2.0 5:2.0 6:4.0 12:1.0 20:2.0 
0.0 1.0 3:1.0 4:1.0 5:1.0 6:1.0 11:1.0 
0.0 1.0 3:1.0 4:2.0 5:2.0 6:5.0 10:1.0 11:3.0 12:1.0 13:2.0 15:4.0 16:2.0 22:2.0 
1.0 1.0 3:2.0 4:1.0 6:3.0 11:1.0 13:1.0 16:2.0 
0.0 1.0 3:2.0 6:2.0 14:2.0 
0.0 1.0 1:2.0 3:6.0 5:2.0 6:2.0 13:1.0 20:2.0 22:2.0 
0.0 1.0 1:3.0 5:1.0 6:2.0 14:2.0 20:2.0 26:1.0 
0.0 1.0 1:1.0 4:1.0 6:4.0 14:1.0 20:1.0 
0.0 1.0 3:2.0 5:1.0 6:5.0 11:2.0 12:1.0 13:2.0 16:2.0 21:4.0 22:2.0 
0.0 1.0 3:5.0 4:1.0 6:3.0 11:2.0 14:1.0 
0.0 1.0 4:1.0 6:3.0 13:1.0 16:2.0 
1.0 1.0 1:1.0 3:1.0 5:2.0 6:2.0 12:1.0 20:1.0 
0.0 1.0 3:1.0 4:1.0 5:2.0 6:5.0 10:1.0 11:2.0 12:2.0 13:1.0 15:8.0 16:2.0 21:8.0 
1.0 1.0 2:2.0 3:1.0 4:1.0 5:1.0 6:1.0 10:1.0 11:1.0 13:2.0 16:2.0 22:2.0 26:1.5 
0.0 1.0 3:3.0 4:1.0 13:1.0 16:2.0 
1.0 1.0 4:1.0 5:1.0 6:4.0 13:1.0 14:1.0 16:2.0 
1.0 1.0 1:1.0 2:2.0 3:1.0 5:3.0 6:4.0 10:2.0 13:1.0 16:2.0 20:-1.0 26:-2.0 
0.0 1.0 3:2.0 5:1.0 11:1.0 
1.0 1.0 2:1.0 3:1.0 5:3.0 6:1.0 10:1.0 20:1.0 
0.0 1.0 3:1.0 5:1.0 6:2.0 
0.0 1.0 6:3.0 13:2.0 16:2.0 22:2.0 
1.0 1.0 1:1.0 3:1.0 5:2.0 6:2.0 12:1.0 20:1.0 
1.0 1.0 1:1.0 3:3.0 4:2.0 5:2.0 6:1.0 11:2.0 12:1.0 13:1.0 15:4.0 16:2.0 20:1.0 
1.0 1.0 3:1.0 5:1.0 6:3.0 12:1.0 13:1.0 22:2.0 
1.0 1.0 3:3.0 6:2.0 13:1.0 16:2.0 
1.0 1.0 3:4.0 5:1.0 6:1.0 13:1.0 16:2.0 
0.0 1.0 1:1.0 3:4.0 6:1.0 20:1.0 
1.0 1.0 3:1.0 6:4.0 8:1.0 13:1.0 14:1.0 16:2.0 30:1.0 
1.0 1.0 3:2.0 5:3.0 6:1.0 10:2.0 
1.0 1.0 1:2.0 3:2.0 4:2.0 6:3.0 11:1.0 20:1.8 
1.0 1.0 1:2.0 3:3.0 5:1.0 6:2.0 20:2.0 
0.0 1.0 3:2.0 5:1.0 6:1.0 11:1.0 13:1.0 16:2.0 
0.0 1.0 3:2.0 6:1.0 
1.0 1.0 1:1.0 3:2.0 5:3.0 6:2.0 11:1.0 
1.0 1.0 3:1.0 5:2.0 6:3.0 10:1.0 11:1.0 
1.0 1.0 3:2.0 4:2.0 6:4.0 11:1.0 
0.0 1.0 1:2.0 3:4.0 5:1.0 6:3.0 20:2.0 
1.0 1.0 3:3.0 5:1.0 6:4.0 
0.0 1.0 3:2.0 5:1.0 6:1.0 11:1.0 
0.0 1.0 3:1.0 4:3.0 5:3.0 11:1.0 
0.0 1.0 3:2.0 6:1.0 
1.0 1.0 4:2.0 5:2.0 6:3.0 10:1.0 11:2.0 
1.0 1.0 2:1.0 3:2.0 5:1.0 6:2.0 10:1.0 20:1.0 
0.0 1.0 1:1.0 2:1.0 3:2.0 5:2.0 6:4.0 11:1.0 12:1.0 20:3.0 
0.0 1.0 3:1.0 5:1.0 6:2.0 11:1.0 
1.0 1.0 1:2.0 3:3.0 5:1.0 6:2.0 20:2.0 
0.0 1.0 3:3.0 6:1.0 
1.0 1.0 3:4.0 5:1.0 6:3.0 
0.0 1.0 3:2.0 5:1.0 6:2.0 
1.0 1.0 3:2.0 5:1.0 6:2.0 12:1.0 
1.0 1.0 1:1.0 2:1.0 3:3.0 5:2.0 6:2.0 8:1.0 12:1.0 18:1.0 20:2.0 
0.0 1.0 3:1.0 5:1.0 6:2.0 14:1.0 
1.0 1.0 3:3.0 5:2.0 6:2.0 10:1.0 11:1.0 
0.0 1.0 3:3.0 4:1.0 
0.0 1.0 1:1.0 3:2.0 4:1.0 6:2.0 20:1.0 
1.0 1.0 3:2.0 5:1.0 6:3.0 11:1.0 
1.0 1.0 1:1.0 2:1.0 3:2.0 5:1.0 6:3.0 10:1.0 14:1.0 20:2.0 
1.0 1.0 1:1.0 3:1.0 4:1.0 5:2.0 6:2.0 10:1.0 20:1.0 
0.0 1.0 3:1.0 5:1.0 6:2.0 10:1.0 
0.0 1.0 3:6.0 6:3.0 
1.0 1.0 1:1.0 3:4.0 6:2.0 13:1.0 16:2.0 20:1.0 
1.0 1.0 1:1.0 3:2.0 5:1.0 6:3.0 13:1.0 16:2.0 20:1.0 
1.0 1.0 3:3.0 6:3.0 14:1.0 
1.0 1.0 3:1.0 5:2.0 6:3.0 10:1.0 11:1.0 12:1.0 15:2.0 
0.0 1.0 1:1.0 3:2.0 6:2.0 
1.0 1.0 2:2.0 3:2.0 4:1.0 5:1.0 6:2.0 12:1.0 15:4.0 20:2.0 
1.0 1.0 3:3.0 4:1.0 5:2.0 6:3.0 11:1.0 
0.0 1.0 1:2.0 3:3.0 4:1.0 6:3.0 20:2.0 
0.0 1.0 3:1.0 6:3.0 
1.0 1.0 2:1.0 3:1.0 6:4.0 20:2.0 
1.0 1.0 2:1.0 3:5.0 5:2.0 11:1.0 12:1.0 20:1.0 
1.0 1.0 3:2.0 5:1.0 6:2.0 10:1.0 13:1.0 16:2.0 
1.0 1.0 1:1.0 5:2.0 6:3.0 11:2.0 14:3.0 20:1.0 
0.0 1.0 1:2.0 2:1.0 3:4.0 4:2.0 5:2.0 6:2.0 11:2.0 12:1.0 15:4.0 20:8.0 
0.0 1.0 1:1.0 2:1.0 3:2.0 4:1.0 5:3.0 6:4.0 10:1.0 11:2.0 
0.0 1.0 1:2.0 5:1.0 6:1.0 11:1.0 14:1.0 20:6.0 
0.0 1.0 2:1.0 3:3.0 
1.0 1.0 3:4.0 5:1.0 6:2.0 
0.0 1.0 1:1.0 3:1.0 4:1.0 5:2.0 6:1.0 11:1.0 20:1.5 
1.0 1.0 1:1.0 2:1.0 3:2.0 4:3.0 5:2.0 6:3.0 11:1.0 12:2.0 15:1.0 20:2.0 
1.0 1.0 3:3.0 6:2.0 11:1.0 12:1.0 15:4.0 
0.0 1.0 1:1.0 2:1.0 3:1.0 6:1.0 20:2.0 
1.0 1.0 1:1.0 3:3.0 4:1.0 6:2.0 20:1.0 
1.0 1.0 1:1.0 3:1.0 4:2.0 5:2.0 6:3.0 11:2.0 14:2.0 20:1.0 
0.0 1.0 3:3.0 4:1.0 5:1.0 6:5.0 10:1.0 11:2.0 13:1.0 14:1.0 
1.0 1.0 1:1.0 5:3.0 6:3.0 11:1.0 14:1.0 
0.0 1.0 1:3.0 3:1.0 4:3.0 5:1.0 6:6.0 11:2.0 20:1.0 32:4.0 
1.0 1.0 5:2.0 6:3.0 10:1.0 13:1.0 16:2.0 
0.0 1.0 2:1.0 3:1.0 5:2.0 6:1.0 20:1.0 
0.0 1.0 2:1.0 3:6.0 4:1.0 6:3.0 10:1.0 11:1.0 12:1.0 14:1.0 26:1.0 
1.0 1.0 3:3.0 4:1.0 6:2.0 11:1.0 
1.0 1.0 3:3.0 4:1.0 5:2.0 6:3.0 10:1.0 14:1.0 
0.0 1.0 1:1.0 3:1.0 5:1.0 6:1.0 11:1.0 13:1.0 16:2.0 20:3.0 
0.0 1.0 3:5.0 4:2.0 5:1.0 6:2.0 10:1.0 13:1.0 14:1.0 
0.0 1.0 3:3.0 5:1.0 6:1.0 
0.0 1.0 3:6.0 6:1.0 
0.0 1.0 1:1.0 4:1.0 6:3.0 11:1.0 20:3.0 
0.0 1.0 3:1.0 4:1.0 6:3.0 11:1.0 
1.0 1.0 3:1.0 4:1.0 6:3.0 11:1.0 13:1.0 14:1.0 16:2.0 
1.0 1.0 3:3.0 4:1.0 5:2.0 10:1.0 11:1.0 
0.0 1.0 1:1.0 2:1.0 3:4.0 5:3.0 6:3.0 10:1.0 12:1.0 13:3.0 20:1.0 22:2.0 26:1.0 28:2.0 34:2.0 
0.0 1.0 1:1.0 3:2.0 4:1.0 5:2.0 6:4.0 10:1.0 11:2.0 12:1.0 13:1.0 16:2.0 20:2.0 21:4.0 
0.0 1.0 3:1.0 5:2.0 6:6.0 11:2.0 13:1.0 22:2.0 
0.0 1.0 1:2.0 3:2.0 5:2.0 6:5.0 12:1.0 20:2.0 
0.0 1.0 1:1.0 3:2.0 4:1.0 5:3.0 6:5.0 11:1.0 20:1.0 
1.0 1.0 3:3.0 5:1.0 6:4.0 
0.0 1.0 2:1.0 3:1.0 4:1.0 6:2.0 20:1.0 
0.0 1.0 1:1.0 3:1.0 4:2.0 11:2.0 
1.0 1.0 1:1.0 3:2.0 4:1.0 5:1.0 6:2.0 20:1.0 
1.0 1.0 3:2.0 5:2.0 6:1.0 10:1.0 13:1.0 16:2.0 
0.0 1.0 1:4.0 3:5.0 4:2.0 5:1.0 6:4.0 13:1.0 16:2.0 20:1.0 26:2.0 
1.0 1.0 1:2.0 2:1.0 3:3.0 4:1.0 5:1.0 6:3.0 11:2.0 20:1.0 26:5.5 
0.0 1.0 1:1.0 3:1.0 4:1.0 5:1.0 6:1.0 11:2.0 20:1.0 
0.0 1.0 1:3.0 2:1.0 3:1.0 4:3.0 5:4.0 6:3.0 11:3.0 12:1.0 13:1.0 16:2.0 20:4.5 21:8.0 
1.0 1.0 1:2.0 2:2.0 3:2.0 5:2.0 6:4.0 12:1.0 20:1.0 26:1.0 
0.0 1.0 3:1.0 6:3.0 
1.0 1.0 2:1.0 3:3.0 4:1.0 5:2.0 6:1.0 10:1.0 11:1.0 20:1.0 
1.0 1.0 3:2.0 4:1.0 6:2.0 11:3.0 
1.0 1.0 1:1.0 2:2.0 3:1.0 5:1.0 6:4.0 10:1.0 20:-1.0 
0.0 1.0 3:2.0 4:1.0 11:1.0 
0.0 1.0 1:4.0 3:5.0 5:2.0 6:3.0 20:3.0 26:1.0 
0.0 1.0 1:2.0 3:1.0 5:2.0 6:1.0 12:1.0 20:2.0 
0.0 1.0 3:2.0 6:2.0 
0.0 1.0 1:1.0 3:1.0 6:2.0 20:1.0 
0.0 1.0 1:1.0 3:3.0 6:1.0 9:1.0 19:1.0 20:1.0 
0.0 1.0 3:5.0 5:4.0 6:2.0 13:2.0 16:2.0 22:2.0 
0.0 1.0 3:5.0 4:3.0 5:1.0 6:4.0 13:1.0 16:2.0 
0.0 1.0 3:3.0 4:2.0 5:1.0 6:4.0 11:3.0 12:2.0 13:1.0 15:8.0 16:2.0 
1.0 1.0 1:1.0 3:3.0 4:1.0 5:1.0 6:3.0 7:1.0 11:2.0 17:1.0 20:1.0 
0.0 1.0 1:2.0 3:3.0 6:2.0 20:1.0 
1.0 1.0 3:2.0 6:2.0 11:1.0 12:1.0 15:4.0 
0.0 1.0 2:2.0 3:1.0 5:1.0 6:1.0 13:1.0 16:2.0 20:2.0 
0.0 1.0 1:1.0 3:2.0 4:3.0 6:5.0 20:1.0 
0.0 1.0 1:3.0 3:1.0 4:3.0 6:2.0 20:3.0 
0.0 1.0 1:1.0 2:1.0 3:3.0 4:1.0 5:1.0 6:5.0 7:1.0 11:1.0 14:1.0 20:4.0 23:1.0 
1.0 1.0 1:1.0 3:4.0 4:1.0 5:2.0 6:2.0 8:1.0 18:1.0 20:1.0 
0.0 1.0 3:1.0 5:1.0 6:2.0 13:1.0 16:2.0 
1.0 1.0 3:5.0 5:2.0 10:1.0 11:1.0 12:1.0 
1.0 1.0 3:1.0 5:3.0 6:2.0 12:3.0 14:1.0 15:8.0 21:8.0 
1.0 1.0 2:1.0 6:6.0 13:1.0 22:2.0 
0.0 1.0 5:1.0 6:3.0 13:1.0 16:2.0 
0.0 1.0 1:1.0 3:1.0 5:2.0 10:1.0 13:1.0 16:2.0 20:1.0 
1.0 1.0 3:1.0 5:5.0 6:3.0 10:1.0 11:2.0 14:1.0 
1.0 1.0 1:1.0 5:2.0 6:5.0 10:1.0 13:2.0 16:2.0 22:2.0 
0.0 1.0 1:2.0 3:1.0 5:2.0 6:5.0 12:1.0 20:2.0 
1.0 1.0 1:1.0 3:1.0 5:2.0 6:2.0 12:1.0 20:1.0 
1.0 1.0 5:2.0 6:3.0 10:1.0 11:1.0 13:2.0 16:2.0 22:2.0 
0.0 1.0 3:2.0 6:1.0 14:1.0 
1.0 1.0 1:1.0 3:3.0 5:2.0 6:2.0 11:2.0 13:1.0 16:2.0 26:1.0 
0.0 1.0 3:2.0 6:1.0 14:1.0 
1.0 1.0 3:1.0 5:1.0 6:4.0 13:1.0 16:2.0 
1.0 1.0 1:2.0 3:1.0 5:2.0 6:3.0 12:1.0 20:2.0 
0.0 1.0 1:1.0 3:2.0 6:2.0 13:1.0 16:2.0 20:1.0 
1.0 1.0 1:1.0 2:1.0 3:5.0 4:1.0 5:2.0 10:1.0 11:1.0 13:3.0 16:2.0 20:1.5 22:2.0 26:-1.0 28:2.0 
0.0 1.0 3:1.0 6:2.0 10:1.0 13:1.0 16:2.0 
0.0 1.0 1:1.0 3:2.0 13:1.0 16:2.0 20:1.0 
0.0 1.0 1:1.0 3:1.0 5:1.0 6:2.0 13:1.0 16:2.0 
1.0 1.0 3:3.0 4:3.0 5:1.0 6:2.0 11:1.0 13:2.0 16:2.0 22:2.0 
1.0 1.0 1:1.0 3:1.0 5:1.0 6:3.0 11:1.0 14:1.0 
1.0 1.0 1:1.0 3:1.0 4:1.0 5:1.0 6:2.0 10:1.0 11:2.0 12:1.0 15:4.0 
1.0 1.0 3:1.0 4:1.0 5:1.0 6:3.0 11:1.0 13:1.0 16:2.0 
0.0 1.0 1:1.0 3:2.0 6:2.0 26:1.0 
0.0 1.0 3:2.0 5:1.0 6:2.0 
1.0 1.0 1:1.0 3:3.0 5:1.0 6:2.0 10:1.0 20:-1.0 
0.0 1.0 3:1.0 4:1.0 5:1.0 6:1.0 
0.0 1.0 3:3.0 4:1.0 6:1.0 11:1.0 
0.0 1.0 1:2.0 2:1.0 3:2.0 4:2.0 5:3.0 6:4.0 10:1.0 11:1.0 20:-1.0 
0.0 1.0 2:1.0 3:1.0 4:1.0 5:1.0 6:1.0 20:1.0 
0.0 1.0 3:2.0 6:2.0 
0.0 1.0 3:3.0 5:3.0 6:5.0 10:2.0 
1.0 1.0 1:2.0 3:2.0 5:2.0 6:2.0 11:1.0 20:1.0 
1.0 1.0 3:3.0 4:1.0 5:2.0 6:2.0 11:2.0 
0.0 1.0 2:1.0 3:2.0 6:1.0 11:1.0 12:1.0 20:1.0 
0.0 1.0 1:1.0 3:2.0 5:1.0 6:1.0 20:1.0 
0.0 1.0 1:1.0 3:7.0 4:1.0 5:1.0 6:1.0 11:1.0 
1.0 1.0 1:1.0 3:3.0 4:1.0 5:2.0 6:1.0 11:1.0 20:2.0 
0.0 1.0 3:2.0 5:1.0 6:2.0 
0.0 1.0 1:2.0 3:4.0 4:1.0 5:3.0 6:4.0 11:1.0 20:2.0 
0.0 1.0 3:2.0 5:1.0 6:1.0 12:1.0 
1.0 1.0 1:1.0 5:3.0 6:4.0 20:1.0 
1.0 1.0 3:1.0 5:2.0 6:3.0 10:1.0 
1.0 1.0 1:1.0 3:2.0 4:1.0 5:2.0 6:2.0 10:4.0 26:-1.0 
0.0 1.0 3:4.0 5:1.0 6:5.0 
0.0 1.0 1:1.0 3:5.0 4:3.0 5:2.0 6:3.0 10:1.0 13:1.0 20:1.0 22:2.0 
1.0 1.0 3:1.0 5:3.0 6:2.0 10:2.0 13:1.0 16:2.0 
0.0 1.0 3:2.0 6:2.0 
1.0 1.0 3:2.0 5:2.0 6:3.0 
0.0 1.0 3:2.0 5:4.0 6:5.0 10:3.0 11:1.0 13:1.0 16:2.0 
0.0 1.0 1:1.0 3:1.0 6:2.0 14:1.0 20:1.0 
1.0 1.0 3:2.0 4:1.0 5:1.0 6:4.0 10:1.0 14:1.0 
1.0 1.0 3:4.0 5:1.0 6:2.0 11:1.0 12:1.0 13:1.0 14:1.0 15:8.0 16:2.0 
1.0 1.0 3:5.0 6:2.0 11:1.0 
1.0 1.0 2:1.0 3:4.0 6:1.0 20:1.0 
0.0 1.0 1:2.0 3:6.0 6:2.0 11:1.0 12:1.0 13:1.0 14:1.0 15:2.0 16:2.0 20:2.0 
1.0 1.0 1:2.0 2:1.0 3:1.0 5:2.0 6:4.0 10:1.0 11:2.0 20:1.0 26:1.1 
0.0 1.0 1:1.0 3:1.0 4:1.0 6:2.0 13:1.0 16:2.0 20:1.0 
0.0 1.0 2:1.0 3:1.0 6:2.0 13:1.0 14:2.0 20:1.0 28:2.0 
0.0 1.0 1:1.0 3:2.0 4:1.0 6:1.0 11:1.0 20:1.7 
0.0 1.0 3:2.0 6:1.0 
1.0 1.0 1:1.0 3:1.0 5:2.0 6:2.0 12:1.0 20:1.0 
0.0 1.0 3:3.0 5:1.0 11:1.0 13:1.0 16:2.0 
1.0 1.0 1:1.0 3:3.0 5:1.0 6:2.0 13:2.0 16:2.0 20:1.0 22:2.0 
1.0 1.0 3:1.0 5:4.0 6:3.0 10:2.0 20:-1.0 
0.0 1.0 3:3.0 4:1.0 5:1.0 13:1.0 14:1.0 16:1.0 
1.0 1.0 3:2.0 4:1.0 5:1.0 6:4.0 11:1.0 
0.0 1.0 3:4.0 
1.0 1.0 3:3.0 6:3.0 
0.0 1.0 3:2.0 6:2.0 
0.0 1.0 3:3.0 14:1.0 
0.0 1.0 3:3.0 4:1.0 5:3.0 6:3.0 7:1.0 11:2.0 13:1.0 16:2.0 29:1.0 
0.0 1.0 3:2.0 5:2.0 6:1.0 7:1.0 10:1.0 14:1.0 23:1.0 
0.0 1.0 1:1.0 3:1.0 6:2.0 7:1.0 17:1.0 20:1.0 
1.0 1.0 3:3.0 4:2.0 5:1.0 6:3.0 11:1.0 13:1.0 14:1.0 22:2.0 
0.0 1.0 1:4.0 3:2.0 4:1.0 6:2.0 13:1.0 16:2.0 20:4.0 
0.0 1.0 1:1.0 3:4.0 4:2.0 6:3.0 7:2.0 11:2.0 17:2.0 20:1.5 
0.0 1.0 1:1.0 3:7.0 5:1.0 6:2.0 7:1.0 17:1.0 20:1.0 
1.0 1.0 2:1.0 3:3.0 5:1.0 6:4.0 13:4.0 16:2.0 22:2.0 28:2.0 34:2.0 44:1.0 
0.0 1.0 1:1.0 3:3.0 4:1.0 20:1.0 
0.0 1.0 3:1.0 6:3.0 7:1.0 13:1.0 16:2.0 23:1.0 
1.0 1.0 1:3.0 2:1.0 3:1.0 4:1.0 5:2.0 6:3.0 7:1.0 10:1.0 11:2.0 13:1.0 16:2.0 20:2.0 23:1.0 
0.0 1.0 1:3.0 3:3.0 4:4.0 5:3.0 6:2.0 11:3.0 13:2.0 16:2.0 20:2.0 22:2.0 26:5.5 
0.0 1.0 3:2.0 4:1.0 6:1.0 7:1.0 17:1.0 
0.0 1.0 1:1.0 2:1.0 3:3.0 4:1.0 5:2.0 6:4.0 10:1.0 11:2.0 
1.0 1.0 3:2.0 5:1.0 6:2.0 13:1.0 16:2.0 
1.0 1.0 3:1.0 5:2.0 6:3.0 10:1.0 11:1.0 
0.0 1.0 3:1.0 5:1.0 6:2.0 11:1.0 13:1.0 16:2.0 
0.0 1.0 1:1.0 2:2.0 3:1.0 6:2.0 12:1.0 20:2.0 
0.0 1.0 1:2.0 3:2.0 5:2.0 6:5.0 12:1.0 20:2.0 
1.0 1.0 3:1.0 5:3.0 6:2.0 10:2.0 11:1.0 
0.0 1.0 2:1.0 3:4.0 5:2.0 6:4.0 13:1.0 20:1.0 28:2.0 
0.0 1.0 1:1.0 3:2.0 6:1.0 14:1.0 20:1.0 
0.0 1.0 2:1.0 5:1.0 6:2.0 12:1.0 13:1.0 14:1.0 15:8.0 16:2.0 26:1.0 
0.0 1.0 1:1.0 3:3.0 4:1.0 5:4.0 6:5.0 10:1.0 11:1.0 12:1.0 13:2.0 16:2.0 22:2.0 27:2.0 32:1.0 
1.0 1.0 3:2.0 5:1.0 6:3.0 10:1.0 13:2.0 16:2.0 22:2.0 
0.0 1.0 3:1.0 4:1.0 5:2.0 6:1.0 11:1.0 13:1.0 16:2.0 
0.0 1.0 3:2.0 5:1.0 6:1.0 
1.0 1.0 2:1.0 3:3.0 5:2.0 6:2.0 10:2.0 13:1.0 14:1.0 20:-1.0 22:2.0 
1.0 1.0 3:2.0 4:1.0 6:2.0 13:2.0 14:1.0 16:2.0 28:2.0 
1.0 1.0 3:3.0 4:1.0 5:1.0 6:1.0 
0.0 1.0 3:2.0 4:1.0 5:1.0 6:1.0 11:2.0 
1.0 1.0 1:1.0 3:4.0 4:1.0 6:1.0 20:1.0 
0.0 1.0 3:3.0 5:1.0 6:1.0 
1.0 1.0 1:1.0 3:3.0 4:1.0 6:2.0 11:1.0 13:1.0 16:2.0 20:1.5 
0.0 1.0 1:1.0 3:2.0 6:2.0 
0.0 1.0 3:3.0 5:1.0 6:1.0 
0.0 1.0 3:6.0 5:2.0 6:2.0 
0.0 1.0 1:1.0 3:1.0 6:1.0 20:1.0 
0.0 1.0 3:3.0 4:1.0 11:1.0 14:8.0 
1.0 1.0 1:1.0 3:4.0 5:2.0 6:2.0 20:1.0 
1.0 1.0 1:1.0 3:1.0 5:1.0 6:4.0 14:2.0 20:1.0 
0.0 1.0 3:1.0 6:2.0 12:1.0 
0.0 1.0 3:2.0 6:2.0 
0.0 1.0 3:2.0 6:2.0 
1.0 1.0 1:2.0 2:1.0 3:4.0 5:2.0 6:1.0 20:1.0 
0.0 1.0 3:2.0 6:1.0 11:1.0 
0.0 1.0 3:2.0 4:1.0 11:1.0 
0.0 1.0 2:1.0 3:2.0 6:2.0 20:1.0 
0.0 1.0 1:2.0 3:5.0 4:2.0 5:1.0 6:3.0 11:1.0 20:2.0 
0.0 1.0 3:2.0 6:1.0 
0.0 1.0 1:2.0 2:1.0 3:4.0 4:2.0 6:2.0 14:6.0 20:3.0 
1.0 1.0 1:2.0 2:1.0 3:3.0 5:1.0 6:2.0 10:1.0 11:1.0 12:1.0 15:2.0 20:-1.0 
0.0 1.0 1:2.0 2:2.0 3:3.0 4:2.0 5:2.0 6:3.0 10:1.0 11:1.0 20:7.0 
1.0 1.0 1:1.0 3:3.0 6:2.0 20:1.0 
0.0 1.0 3:3.0 4:2.0 5:2.0 6:2.0 11:1.0 14:14.0 
0.0 1.0 3:2.0 4:1.0 5:1.0 6:1.0 11:2.0 
0.0 1.0 3:2.0 6:1.0 10:1.0 13:1.0 16:2.0 
0.0 1.0 1:2.0 2:1.0 3:1.0 5:7.0 6:2.0 10:1.0 11:1.0 12:2.0 15:8.0 21:4.0 26:2.0 32:1.0 
0.0 1.0 3:1.0 4:1.0 5:1.0 6:2.0 11:1.0 
0.0 1.0 1:1.0 3:2.0 5:1.0 6:1.0 20:1.0 
1.0 1.0 3:1.0 5:1.0 6:3.0 10:1.0 
1.0 1.0 3:2.0 4:1.0 5:2.0 6:1.0 11:1.0 
0.0 1.0 1:3.0 3:2.0 4:3.0 5:3.0 6:3.0 11:3.0 12:2.0 13:1.0 15:4.0 16:2.0 20:4.0 
0.0 1.0 1:1.0 3:2.0 5:1.0 6:1.0 20:1.0 
1.0 1.0 3:3.0 6:2.0 11:1.0 14:1.0 
1.0 1.0 3:2.0 4:1.0 5:1.0 6:2.0 10:1.0 14:1.0 
1.0 1.0 1:2.0 3:3.0 4:2.0 6:2.0 14:2.0 26:1.0 32:1.0 
0.0 1.0 1:4.0 3:3.0 6:4.0 13:1.0 16:2.0 20:4.0 
0.0 1.0 1:2.0 3:3.0 5:3.0 6:3.0 11:1.0 26:2.0 
0.0 1.0 1:2.0 3:2.0 5:2.0 6:4.0 20:1.0 26:1.0 
1.0 1.0 2:1.0 3:2.0 4:1.0 5:1.0 6:2.0 20:1.0 
1.0 1.0 1:1.0 2:1.0 3:3.0 4:2.0 5:3.0 6:1.0 12:1.0 15:4.0 20:2.0 
1.0 1.0 1:1.0 3:2.0 4:2.0 5:1.0 6:2.0 20:1.0 
0.0 1.0 3:2.0 4:1.0 5:1.0 6:1.0 
1.0 1.0 3:2.0 4:1.0 5:2.0 6:2.0 11:1.0 
0.0 1.0 3:6.0 4:1.0 6:2.0 11:1.0 
1.0 1.0 3:4.0 4:1.0 6:2.0 
0.0 1.0 1:1.0 3:3.0 4:1.0 5:1.0 6:4.0 20:1.0 
1.0 1.0 2:2.0 3:1.0 4:1.0 5:3.0 6:1.0 10:1.0 11:1.0 12:1.0 15:4.0 20:2.0 
1.0 1.0 2:1.0 3:2.0 4:4.0 5:4.0 6:2.0 11:2.0 12:1.0 15:4.0 20:1.0 
1.0 1.0 2:1.0 3:3.0 5:2.0 6:3.0 12:1.0 15:2.0 20:1.0 
1.0 1.0 3:3.0 4:1.0 6:2.0 
1.0 1.0 3:3.0 4:2.0 5:1.0 6:1.0 11:1.0 12:1.0 21:4.0 
0.0 1.0 1:2.0 3:2.0 4:1.0 5:3.0 6:4.0 10:1.0 11:2.0 14:12.0 56:1.0 
1.0 1.0 3:1.0 5:1.0 6:2.0 12:1.0 21:8.0 
0.0 1.0 1:1.0 3:1.0 4:1.0 6:2.0 20:1.0 
1.0 1.0 4:2.0 5:2.0 6:1.0 10:1.0 11:4.0 12:1.0 15:4.0 
0.0 1.0 3:4.0 4:2.0 5:3.0 6:4.0 10:1.0 11:2.0 
0.0 1.0 3:1.0 5:1.0 6:2.0 11:1.0 13:1.0 14:1.0 16:2.0 
1.0 1.0 1:1.0 3:3.0 6:2.0 20:1.0 
1.0 1.0 3:3.0 6:3.0 
0.0 1.0 3:2.0 5:1.0 6:1.0 11:1.0 
0.0 1.0 1:2.0 3:1.0 6:2.0 20:2.0 
1.0 1.0 2:1.0 3:2.0 4:1.0 5:4.0 6:2.0 10:1.0 11:1.0 12:3.0 15:8.0 20:1.0 
0.0 1.0 5:1.0 6:4.0 10:1.0 
0.0 1.0 3:1.0 5:2.0 6:7.0 13:6.0 16:2.0 
0.0 1.0 2:1.0 3:1.0 4:2.0 11:1.0 13:4.0 16:2.0 22:2.0 28:2.0 34:2.0 
1.0 1.0 1:2.0 3:3.0 5:1.0 6:1.0 12:1.0 14:3.0 20:1.0 21:8.0 26:1.0 
0.0 1.0 3:2.0 6:2.0 
0.0 1.0 3:2.0 6:2.0 
0.0 1.0 3:2.0 6:2.0 
0.0 1.0 3:2.0 6:2.0 
0.0 1.0 1:1.0 3:2.0 5:1.0 20:1.0 
0.0 1.0 3:5.0 4:1.0 5:1.0 6:1.0 11:1.0 12:1.0 15:8.0 
1.0 1.0 1:2.0 2:2.0 3:1.0 4:1.0 6:3.0 20:4.0 
0.0 1.0 2:1.0 3:2.0 5:2.0 11:1.0 20:1.0 
0.0 1.0 3:2.0 5:2.0 6:1.0 10:1.0 
1.0 1.0 2:1.0 3:4.0 4:2.0 5:1.0 6:2.0 8:1.0 11:1.0 14:2.0 20:1.0 24:1.0 
0.0 1.0 3:1.0 6:2.0 11:1.0 
0.0 1.0 4:2.0 5:3.0 6:1.0 10:2.0 11:1.0 12:1.0 
1.0 1.0 3:5.0 4:1.0 5:1.0 6:1.0 11:1.0 14:3.0 
1.0 1.0 1:1.0 4:1.0 5:3.0 6:3.0 11:1.0 
0.0 1.0 1:1.0 3:1.0 4:1.0 6:2.0 11:1.0 14:1.0 20:1.0 
0.0 1.0 3:4.0 4:3.0 5:2.0 6:3.0 11:3.0 12:1.0 14:1.0 
0.0 1.0 3:6.0 4:2.0 6:2.0 13:1.0 22:2.0 
0.0 1.0 1:2.0 3:1.0 4:3.0 20:2.0 
0.0 1.0 1:1.0 3:1.0 6:1.0 20:1.0 
0.0 1.0 2:1.0 3:6.0 4:1.0 6:2.0 11:1.0 12:1.0 15:2.0 20:1.7 
1.0 1.0 2:1.0 3:3.0 4:1.0 5:4.0 6:2.0 11:1.0 12:1.0 20:1.0 
0.0 1.0 3:4.0 4:1.0 5:1.0 6:4.0 
0.0 1.0 1:1.0 3:3.0 5:2.0 6:4.0 10:2.0 
0.0 1.0 1:2.0 5:1.0 6:2.0 12:1.0 
0.0 1.0 3:3.0 4:1.0 
0.0 1.0 2:3.0 3:2.0 4:1.0 6:6.0 20:1.0 26:2.0 
0.0 1.0 1:2.0 3:5.0 4:1.0 5:3.0 6:2.0 10:2.0 20:2.0 
1.0 1.0 3:2.0 4:1.0 5:1.0 6:2.0 
1.0 1.0 1:2.0 3:3.0 4:1.0 6:2.0 20:2.0 
1.0 1.0 1:1.0 3:5.0 4:2.0 6:1.0 26:1.0 
0.0 1.0 3:5.0 4:1.0 
0.0 1.0 3:3.0 5:1.0 6:1.0 
1.0 1.0 3:2.0 5:2.0 6:2.0 10:2.0 
1.0 1.0 3:4.0 6:2.0 
0.0 1.0 3:3.0 5:1.0 11:1.0 
1.0 1.0 3:4.0 4:1.0 6:1.0 11:1.0 
1.0 1.0 1:4.0 2:6.0 3:1.0 4:10.0 6:1.0 11:2.0 20:4.0 26:5.0 
1.0 1.0 3:3.0 6:3.0 11:1.0 
0.0 1.0 3:1.0 6:3.0 
0.0 1.0 2:1.0 3:7.0 5:1.0 6:2.0 20:1.0 
1.0 1.0 3:2.0 5:2.0 6:1.0 9:1.0 11:3.0 14:6.0 25:1.0 
0.0 1.0 1:5.0 3:6.0 4:4.0 6:1.0 11:1.0 14:1.0 20:5.0 
1.0 1.0 1:1.0 2:1.0 3:2.0 4:2.0 5:2.0 6:2.0 10:2.0 11:1.0 12:3.0 15:8.0 20:1.0 21:4.0 26:-1.0 
0.0 1.0 3:3.0 4:1.0 
0.0 1.0 1:2.0 3:2.0 4:1.0 6:6.0 20:2.0 
1.0 1.0 3:4.0 5:1.0 6:2.0 12:1.0 15:2.0 
1.0 1.0 3:2.0 5:1.0 6:3.0 
0.0 1.0 1:4.0 3:6.0 4:1.0 5:4.0 6:1.0 12:1.0 20:2.0 21:8.0 26:1.0 32:1.0 
0.0 1.0 3:4.0 5:1.0 6:3.0 11:2.0 12:1.0 14:10.0 21:4.0 
1.0 1.0 1:1.0 2:1.0 3:1.0 4:1.0 6:3.0 11:1.0 20:2.0 
0.0 1.0 1:1.0 2:1.0 3:3.0 5:1.0 6:4.0 12:1.0 20:2.0 
0.0 1.0 1:1.0 3:2.0 5:1.0 6:1.0 20:1.0 
1.0 1.0 1:1.0 3:1.0 4:1.0 5:2.0 6:2.0 11:1.0 20:1.0 
0.0 1.0 3:4.0 5:3.0 6:4.0 11:1.0 
0.0 1.0 2:1.0 3:1.0 4:1.0 5:1.0 11:2.0 20:1.0 
1.0 1.0 1:1.0 2:1.0 3:3.0 4:1.0 6:3.0 20:2.0 
0.0 1.0 3:4.0 4:1.0 
0.0 1.0 1:4.0 3:2.0 5:5.0 6:5.0 8:1.0 10:2.0 11:2.0 18:1.0 
1.0 1.0 1:1.0 2:2.0 3:3.0 4:1.0 6:1.0 20:3.0 
0.0 1.0 1:4.0 3:2.0 4:1.0 6:2.0 20:4.0 
1.0 1.0 1:1.0 3:4.0 4:1.0 5:2.0 6:1.0 11:1.0 20:1.5 
0.0 1.0 3:2.0 6:1.0 14:3.0 
0.0 1.0 1:2.0 4:1.0 6:1.0 11:2.0 14:1.0 20:6.6 
0.0 1.0 1:4.0 3:5.0 4:2.0 6:2.0 14:1.0 20:1.0 26:3.0 
0.0 1.0 1:3.0 4:1.0 5:4.0 6:5.0 11:2.0 12:1.0 20:4.0 
0.0 1.0 1:1.0 3:2.0 4:1.0 20:1.0 
1.0 1.0 1:1.0 3:4.0 6:2.0 20:1.0 
0.0 1.0 3:2.0 6:2.0 14:1.0 
0.0 1.0 1:1.0 2:1.0 3:5.0 5:1.0 6:2.0 20:2.0 
0.0 1.0 1:1.0 3:4.0 20:1.0 
0.0 1.0 3:3.0 
0.0 1.0 1:2.0 3:2.0 6:4.0 11:1.0 20:4.0 
0.0 1.0 3:3.0 
0.0 1.0 1:1.0 3:2.0 6:1.0 20:1.0 
0.0 1.0 3:3.0 
0.0 1.0 3:4.0 6:1.0 
1.0 1.0 3:4.0 5:2.0 6:1.0 11:1.0 
0.0 1.0 1:2.0 2:1.0 3:1.0 4:1.0 5:1.0 6:5.0 11:1.0 20:2.2 
1.0 1.0 1:1.0 3:1.0 5:1.0 6:4.0 14:1.0 
1.0 1.0 3:2.0 4:1.0 5:3.0 6:3.0 11:1.0 
1.0 1.0 1:3.0 3:1.0 4:2.0 5:2.0 6:3.0 20:3.0 
0.0 1.0 1:2.0 3:2.0 5:1.0 6:1.0 20:2.0 
0.0 1.0 1:1.0 3:2.0 4:1.0 20:1.0 
0.0 1.0 1:2.0 3:7.0 4:2.0 5:2.0 6:1.0 26:2.0 
0.0 1.0 1:1.0 2:1.0 3:1.0 6:2.0 26:1.0 
1.0 1.0 3:2.0 4:2.0 5:3.0 6:3.0 11:1.0 12:1.0 15:4.0 
0.0 1.0 1:1.0 2:1.0 3:2.0 6:1.0 20:2.0 
0.0 1.0 1:1.0 3:5.0 4:3.0 6:2.0 20:1.0 
1.0 1.0 2:1.0 3:3.0 5:2.0 6:1.0 8:1.0 11:2.0 14:1.0 20:2.0 24:1.0 
0.0 1.0 2:1.0 3:3.0 4:1.0 5:3.0 6:3.0 10:1.0 11:1.0 12:1.0 15:8.0 20:1.0 
0.0 1.0 2:1.0 3:1.0 5:2.0 6:1.0 20:1.0 
0.0 1.0 1:1.0 3:6.0 4:2.0 5:1.0 6:2.0 20:1.0 
1.0 1.0 3:4.0 4:1.0 6:2.0 
1.0 1.0 1:4.0 2:1.0 3:2.0 4:3.0 5:1.0 6:2.0 13:1.0 16:2.0 20:5.0 
0.0 1.0 1:2.0 2:1.0 3:3.0 4:3.0 5:3.0 6:2.0 7:1.0 20:3.0 23:1.0 
1.0 1.0 1:2.0 2:2.0 4:4.0 5:6.0 10:2.0 11:2.0 14:1.0 20:-2.38 
1.0 1.0 3:3.0 6:4.0 9:1.0 11:1.0 19:1.0 
0.0 1.0 3:6.0 4:1.0 6:3.0 11:1.0 13:1.0 16:2.0 
0.0 1.0 3:1.0 4:2.0 6:2.0 14:1.0 
0.0 1.0 1:1.0 3:3.0 5:1.0 6:5.0 13:6.0 16:2.0 20:1.0 22:2.0 
1.0 1.0 1:1.0 3:3.0 5:1.0 6:2.0 
0.0 1.0 1:1.0 3:2.0 6:2.0 11:1.0 20:1.0 
0.0 1.0 3:2.0 6:2.0 
0.0 1.0 3:6.0 4:1.0 6:2.0 14:1.0 
0.0 1.0 3:2.0 6:2.0 
0.0 1.0 3:2.0 6:2.0 
0.0 1.0 3:2.0 6:2.0 
0.0 1.0 3:2.0 6:2.0 
1.0 1.0 1:1.0 5:2.0 6:5.0 10:1.0 11:1.0 13:1.0 16:2.0 20:-1.1 
1.0 1.0 3:3.0 5:3.0 6:3.0 11:1.0 
1.0 1.0 1:1.0 3:2.0 4:1.0 5:1.0 6:2.0 11:1.0 20:1.0 
0.0 1.0 1:1.0 3:5.0 4:1.0 5:1.0 6:2.0 20:1.0 
0.0 1.0 1:2.0 3:4.0 4:3.0 6:2.0 11:2.0 20:1.0 26:2.0 
1.0 1.0 3:3.0 5:3.0 6:1.0 14:1.0 
0.0 1.0 3:1.0 4:1.0 5:1.0 6:1.0 
0.0 1.0 1:2.0 2:1.0 3:4.0 5:2.0 6:3.0 20:1.0 26:2.0 
1.0 1.0 1:1.0 3:3.0 4:1.0 5:2.0 6:2.0 7:2.0 9:2.0 10:1.0 11:1.0 12:1.0 13:3.0 14:1.0 20:1.0 22:2.0 28:2.0 29:2.0 34:2.0 43:2.0 
0.0 1.0 5:1.0 6:4.0 
0.0 1.0 3:4.0 
-0.0 1.0 3:5.0 4:1.0 5:2.0 6:2.0 10:1.0 11:1.0 
1.0 1.0 3:2.0 4:1.0 5:1.0 6:1.0 8:1.0 11:2.0 18:1.0 
0.0 1.0 3:5.0 6:3.0 14:1.0 
0.0 1.0 3:3.0 5:1.0 6:1.0 
-0.0 1.0 3:3.0 5:3.0 6:4.0 10:1.0 
1.0 1.0 1:1.0 3:1.0 5:3.0 6:3.0 10:1.0 12:2.0 15:2.0 
0.0 1.0 3:2.0 6:2.0 11:1.0 14:1.0 
1.0 1.0 2:1.0 3:4.0 4:1.0 5:1.0 6:2.0 9:1.0 11:1.0 14:1.0 31:1.0 32:1.5 
0.0 1.0 1:2.0 3:6.0 4:2.0 5:1.0 6:1.0 7:1.0 12:1.0 13:1.0 15:8.0 16:2.0 17:1.0 26:2.0 
0.0 1.0 3:4.0 4:4.0 6:3.0 11:1.0 
0.0 1.0 1:2.0 2:1.0 3:2.0 4:2.0 5:4.0 6:3.0 7:6.0 10:2.0 11:1.0 14:1.0 17:2.0 20:-0.5 23:4.0 
0.0 1.0 3:2.0 6:3.0 7:1.0 14:1.0 29:1.0 
0.0 1.0 1:1.0 3:3.0 4:2.0 5:1.0 6:5.0 14:3.0 26:1.0 
1.0 1.0 1:1.0 3:1.0 4:2.0 5:1.0 6:2.0 11:2.0 20:1.0 
1.0 1.0 1:1.0 3:3.0 5:1.0 6:2.0 26:1.0 
0.0 1.0 1:1.0 2:1.0 3:2.0 4:4.0 5:4.0 6:5.0 10:2.0 11:2.0 12:1.0 20:1.8 
1.0 1.0 1:2.0 3:1.0 4:2.0 5:2.0 6:3.0 20:2.0 
0.0 1.0 1:2.0 4:2.0 5:3.0 6:1.0 11:3.0 20:2.0 
-0.0 1.0 1:1.0 3:4.0 5:2.0 6:3.0 10:1.0 26:1.0 
