svm_type c_svc
kernel_type rbf
gamma 0.014705882352941176
nr_class 3
total_sv 16283
rho -0.7162830253796264 -0.4492564332214179 0.5280500557843618
label 0 -1 1
nr_sv 7679 2353 6251
SV
1.0 0.0 3:1.0 6:1.0 8:1.0 14:1.0 24:1.0 
0.0 1.0 4:1.0 6:2.0 
0.0 1.0 1:1.0 3:2.0 4:1.0 5:3.0 6:2.0 10:1.0 11:2.0 20:2.0 
0.0 1.0 1:3.0 2:2.0 3:15.0 5:7.0 6:13.0 10:1.0 11:1.0 13:2.0 16:2.0 22:2.0 32:3.0 
0.5814069278447612 0.0 1:1.0 2:2.0 3:3.0 4:4.0 5:5.0 6:3.0 10:2.0 11:4.0 12:1.0 14:1.0 20:6.0 26:1.5 
1.0 1.0 3:3.0 13:1.0 16:2.0 
1.0 1.0 2:3.0 3:4.0 4:2.0 5:2.0 6:1.0 10:1.0 11:1.0 13:1.0 16:2.0 20:1.0 
0.0 1.0 3:1.0 13:1.0 16:2.0 
1.0 0.0 2:2.0 3:2.0 6:1.0 13:1.0 16:2.0 20:1.0 
0.0 1.0 13:1.0 16:2.0 
1.0 0.0 1:1.0 2:1.0 3:14.0 4:4.0 5:10.0 6:12.0 10:2.0 11:2.0 13:1.0 20:2.0 40:2.0 
1.0 0.0 8:3.0 18:3.0 
0.0 1.0 3:1.0 4:1.0 6:1.0 11:1.0 13:1.0 16:2.0 
0.0 1.0 3:4.0 5:1.0 6:1.0 13:1.0 16:2.0 
0.0 0.12079657225285689 1:2.0 3:7.0 5:3.0 6:8.0 11:2.0 20:2.0 
0.0 1.0 4:1.0 11:1.0 
0.0 1.0 3:2.0 13:1.0 16:2.0 
1.0 0.0 8:3.0 18:3.0 
1.0 0.0 2:1.0 3:1.0 20:1.0 
1.0 1.0 3:2.0 5:1.0 6:2.0 9:1.0 13:1.0 16:2.0 25:1.0 
0.0 1.0 3:5.0 4:4.0 5:4.0 6:8.0 11:2.0 12:2.0 13:1.0 15:4.0 16:2.0 
0.0 1.0 3:2.0 4:3.0 5:1.0 6:2.0 13:1.0 16:2.0 
1.0 1.0 2:2.0 3:1.0 6:1.0 13:1.0 16:2.0 20:2.0 
0.0 1.0 1:1.0 4:1.0 5:1.0 6:1.0 11:1.0 14:1.0 20:2.0 
0.0 1.0 1:1.0 3:4.0 4:1.0 5:7.0 6:10.0 10:1.0 11:2.0 13:1.0 14:1.0 20:1.5 22:2.0 
0.0 1.0 6:1.0 13:1.0 16:2.0 
0.0 1.0 3:1.0 13:1.0 16:2.0 
0.0 1.0 6:1.0 13:1.0 16:2.0 
0.0 1.0 4:1.0 11:1.0 
0.0 1.0 13:1.0 16:2.0 
0.0 1.0 6:1.0 13:1.0 16:2.0 
1.0 1.0 1:1.0 3:1.0 4:1.0 5:3.0 10:2.0 11:1.0 20:-0.6 
0.01768018409088158 1.0 1:1.0 3:7.0 4:3.0 5:2.0 6:5.0 10:1.0 11:1.0 12:1.0 13:1.0 15:8.0 16:2.0 20:3.0 
0.0 1.0 1:1.0 2:1.0 3:3.0 4:1.0 5:1.0 6:9.0 11:1.0 20:2.0 
1.0 0.0 2:1.0 3:1.0 6:1.0 10:1.0 13:3.0 16:2.0 20:-1.0 
0.0 1.0 1:1.0 5:1.0 6:2.0 13:1.0 16:2.0 20:1.0 
0.7803523346099464 0.0 2:2.0 3:5.0 4:4.0 5:6.0 6:11.0 11:2.0 12:3.0 15:8.0 20:2.0 21:2.0 
1.0 0.0 1:1.0 3:5.0 5:3.0 6:2.0 10:1.0 12:1.0 14:1.0 20:1.0 
1.0 0.0 1:2.0 2:2.0 3:6.0 4:2.0 5:5.0 6:3.0 10:1.0 11:2.0 12:3.0 15:4.0 20:6.0 
1.0 1.0 3:2.0 5:1.0 6:3.0 11:1.0 13:2.0 16:2.0 22:2.0 
0.0 1.0 1:2.0 3:4.0 4:5.0 5:5.0 6:6.0 10:2.0 11:3.0 12:3.0 13:1.0 15:8.0 16:2.0 20:2.0 
1.0 0.0 3:2.0 10:1.0 
0.0 1.0 1:1.0 6:2.0 13:1.0 16:2.0 
1.0 0.0 2:1.0 3:1.0 20:1.0 
0.0 1.0 6:2.0 13:1.0 16:2.0 
0.8366788587441346 1.0 4:1.0 6:2.0 11:3.0 12:1.0 13:1.0 15:4.0 16:2.0 
0.0 1.0 1:1.0 13:1.0 16:2.0 20:1.0 
0.0 1.0 4:1.0 5:1.0 11:2.0 
1.0 0.0 2:2.0 3:2.0 6:1.0 20:2.0 
1.0 0.0 3:1.0 6:2.0 14:2.0 
0.0 1.0 6:4.0 11:1.0 
1.0 1.0 1:1.0 2:1.0 3:1.0 4:2.0 5:2.0 6:1.0 10:1.0 11:1.0 13:1.0 14:1.0 20:-1.0 22:2.0 26:2.0 
0.0 1.0 1:1.0 3:2.0 4:1.0 5:2.0 6:3.0 10:1.0 12:1.0 13:1.0 15:4.0 16:2.0 20:-1.0 
1.0 1.0 2:1.0 4:1.0 5:1.0 20:1.0 
0.0 1.0 1:1.0 3:2.0 6:2.0 20:1.0 
1.0 1.0 2:1.0 3:2.0 4:1.0 5:1.0 6:2.0 11:1.0 12:1.0 13:1.0 15:2.0 16:2.0 20:2.0 
1.0 1.0 3:1.0 4:1.0 5:1.0 6:1.0 11:1.0 13:1.0 16:2.0 
0.2517702870756087 0.964015908829328 3:4.0 5:1.0 6:1.0 11:1.0 
0.0 1.0 6:1.0 11:1.0 13:1.0 16:2.0 
0.0 1.0 1:2.0 2:1.0 3:5.0 4:3.0 5:3.0 6:1.0 11:4.0 12:1.0 15:4.0 20:4.0 
1.0 1.0 2:1.0 3:5.0 4:1.0 5:1.0 6:3.0 13:1.0 20:1.0 22:2.0 
1.0 1.0 1:1.0 2:1.0 4:2.0 5:1.0 6:2.0 11:2.0 20:2.0 
0.5301254447215562 1.0 1:5.0 2:3.0 3:7.0 4:3.0 5:5.0 6:6.0 7:1.0 10:2.0 11:2.0 12:3.0 15:8.0 20:2.0 21:8.0 26:3.0 29:1.0 
0.28723872786883264 0.3196193131247488 1:2.0 2:7.0 3:12.0 4:4.0 5:4.0 6:15.0 9:1.0 10:2.0 11:5.0 12:3.0 15:4.0 20:8.6 25:1.0 
0.0 1.0 1:4.0 3:3.0 4:2.0 5:1.0 6:6.0 20:3.0 
1.0 0.0 3:7.0 4:1.0 5:4.0 6:7.0 9:3.0 11:1.0 13:4.0 22:2.0 31:3.0 
0.1687913626128569 1.0 1:5.0 2:2.0 3:1.0 4:1.0 5:8.0 6:5.0 10:1.0 11:3.0 12:1.0 15:8.0 20:13.0 
0.0 1.0 1:1.0 3:2.0 5:2.0 6:2.0 10:1.0 20:1.0 
1.0 1.0 3:1.0 4:2.0 5:2.0 11:1.0 
1.0 1.0 1:1.0 2:1.0 3:2.0 5:2.0 6:4.0 12:1.0 15:8.0 20:2.0 
0.0 1.0 3:6.0 4:1.0 5:4.0 6:5.0 11:2.0 13:1.0 22:2.0 
0.075975022991408 0.2984432213121841 1:2.0 2:3.0 3:1.0 4:8.0 5:12.0 6:19.0 8:1.0 10:1.0 12:3.0 15:4.0 20:4.0 24:1.0 
1.0 1.0 2:1.0 3:1.0 5:4.0 6:1.0 10:1.0 11:3.0 20:1.5 
0.0 1.0 1:4.0 3:3.0 6:4.0 11:1.0 13:2.0 16:2.0 20:2.0 22:2.0 26:1.0 
0.0 1.0 1:1.0 3:6.0 4:1.0 5:3.0 11:3.0 20:1.5 
1.0 0.0 8:3.0 18:3.0 
0.1975502591103872 0.0 1:1.0 2:2.0 3:6.0 4:1.0 5:2.0 6:3.0 10:1.0 12:1.0 14:8.0 15:4.0 20:2.0 26:-1.0 
0.0 1.0 3:3.0 5:1.0 6:3.0 12:1.0 13:1.0 16:2.0 
0.0 1.0 3:3.0 5:1.0 6:3.0 12:1.0 13:1.0 16:2.0 
1.0 1.0 3:1.0 11:2.0 
0.0 1.0 1:2.0 3:5.0 4:1.0 5:2.0 6:3.0 11:1.0 12:1.0 13:2.0 16:2.0 20:0.8 28:2.0 
0.0 1.0 3:1.0 4:1.0 5:1.0 11:1.0 
1.0 1.0 1:1.0 3:3.0 4:3.0 5:2.0 6:3.0 9:1.0 11:3.0 19:1.0 
1.0 0.0 4:2.0 5:2.0 6:2.0 10:1.0 11:2.0 14:1.0 
0.0 1.0 1:1.0 3:2.0 5:1.0 6:1.0 11:1.0 20:1.5 
1.0 0.0 2:1.0 3:1.0 5:2.0 6:3.0 10:1.0 20:1.0 
0.0 1.0 1:1.0 3:1.0 4:2.0 5:2.0 6:1.0 11:2.0 20:2.0 
1.0 1.0 1:1.0 2:1.0 3:2.0 4:1.0 5:3.0 6:2.0 11:1.0 12:1.0 15:8.0 20:4.0 
0.0 1.0 1:1.0 3:1.0 4:2.0 5:3.0 6:1.0 10:1.0 11:2.0 20:1.1 
0.0 1.0 3:1.0 4:2.0 5:1.0 6:1.0 11:3.0 12:1.0 15:4.0 
1.0 0.0 2:1.0 3:3.0 5:3.0 6:3.0 10:1.0 11:1.0 12:1.0 20:-1.0 
1.0 1.0 2:1.0 13:1.0 16:2.0 20:1.0 
0.0 1.0 3:2.0 4:1.0 6:1.0 13:1.0 16:2.0 
0.0 1.0 1:1.0 3:1.0 5:1.0 6:1.0 13:1.0 16:2.0 20:1.0 
0.0 1.0 3:1.0 5:1.0 6:1.0 11:1.0 13:1.0 14:1.0 16:2.0 
1.0 1.0 2:2.0 3:1.0 5:2.0 6:2.0 11:2.0 13:1.0 16:2.0 20:4.0 
1.0 1.0 2:1.0 6:1.0 13:1.0 16:2.0 20:1.0 
1.0 0.0 1:2.0 2:2.0 3:10.0 4:5.0 5:7.0 6:11.0 10:3.0 11:3.0 20:1.0 26:1.0 32:-0.4 
0.0 1.0 7:1.0 13:1.0 16:2.0 23:1.0 
0.0 1.0 6:1.0 7:1.0 17:1.0 
0.0 1.0 3:2.0 7:1.0 14:1.0 23:1.0 
0.0 1.0 1:1.0 3:1.0 4:1.0 6:1.0 7:3.0 13:1.0 16:2.0 20:1.0 23:3.0 
0.9380887728612977 0.3996115827369351 1:2.0 2:4.0 3:10.0 4:5.0 5:14.0 6:15.0 10:2.0 11:4.0 12:1.0 26:-1.0 44:1.0 50:1.0 51:4.0 56:1.0 
1.0 0.0 3:3.0 4:2.0 5:2.0 6:3.0 10:2.0 11:1.0 
0.0 1.0 1:1.0 3:2.0 5:1.0 6:1.0 11:1.0 20:1.0 
0.9634195073535151 1.0 3:1.0 6:2.0 13:1.0 14:1.0 16:2.0 
0.0 1.0 1:1.0 2:1.0 3:2.0 6:2.0 20:2.0 
0.0 1.0 4:1.0 11:1.0 
0.0 1.0 1:2.0 3:10.0 4:3.0 5:6.0 6:6.0 10:1.0 11:2.0 12:1.0 26:3.0 
1.0 0.0 2:1.0 5:1.0 6:1.0 12:1.0 15:8.0 20:1.0 
1.0 0.5464590973579507 2:2.0 3:10.0 5:4.0 6:11.0 10:4.0 11:1.0 12:1.0 
0.0 1.0 6:2.0 13:1.0 16:2.0 
0.0 1.0 1:1.0 2:2.0 3:3.0 6:4.0 11:2.0 20:2.8 
0.0 1.0 3:3.0 4:1.0 5:1.0 11:1.0 
0.0 1.0 1:1.0 3:4.0 20:1.0 
1.0 0.0 2:3.0 3:3.0 4:1.0 6:1.0 20:3.0 
0.0 1.0 1:1.0 6:1.0 20:1.0 
0.0 1.0 1:1.0 4:1.0 20:1.0 
1.0 1.0 3:1.0 4:1.0 6:2.0 11:2.0 
0.0 1.0 1:1.0 3:2.0 5:1.0 6:3.0 13:1.0 16:2.0 20:1.0 
1.0 1.0 1:1.0 2:1.0 4:1.0 5:1.0 11:1.0 20:2.0 
0.0 1.0 5:1.0 6:1.0 11:1.0 
0.0 1.0 5:1.0 6:1.0 11:1.0 
0.875520358386952 1.0 1:2.0 2:2.0 3:2.0 4:3.0 5:5.0 6:8.0 11:2.0 20:3.0 
0.0 1.0 3:1.0 5:1.0 6:1.0 11:1.0 
1.0 0.0 3:1.0 6:1.0 10:1.0 
0.2905802007421744 1.0 3:1.0 5:1.0 6:1.0 7:1.0 12:1.0 15:8.0 17:1.0 
1.0 0.0 3:2.0 5:3.0 6:3.0 10:1.0 
1.0 0.0 2:1.0 3:2.0 4:1.0 5:1.0 6:3.0 11:1.0 12:1.0 15:2.0 20:1.5 
0.4811130676575137 1.0 4:1.0 5:2.0 6:1.0 10:1.0 11:1.0 
0.0 1.0 7:1.0 8:1.0 17:1.0 18:1.0 
0.0 1.0 2:1.0 3:2.0 4:1.0 5:3.0 6:4.0 7:1.0 11:1.0 20:1.0 23:1.0 
0.0 1.0 1:1.0 3:1.0 8:1.0 20:1.0 24:1.0 
0.0 1.0 5:1.0 13:1.0 16:2.0 
0.0 1.0 6:2.0 13:2.0 14:1.0 22:2.0 
0.9172306127804493 1.0 1:1.0 2:3.0 4:2.0 5:6.0 6:3.0 7:1.0 10:1.0 11:2.0 17:1.0 20:-1.0 
1.0 1.0 2:1.0 5:1.0 13:1.0 16:2.0 20:1.0 
0.0 1.0 1:1.0 3:2.0 4:3.0 5:4.0 6:4.0 10:1.0 11:4.0 12:1.0 21:2.0 26:1.0 
0.0 0.6840442342640417 1:1.0 3:16.0 4:4.0 5:3.0 6:8.0 11:2.0 14:2.0 26:1.5 
1.0 1.0 3:12.0 4:1.0 5:1.0 6:5.0 8:2.0 13:2.0 16:2.0 18:2.0 
0.0 1.0 3:2.0 5:1.0 6:3.0 13:1.0 16:2.0 
0.7572391658992089 0.0 5:3.0 6:4.0 12:2.0 15:8.0 
1.0 0.0 2:1.0 3:5.0 5:1.0 6:2.0 20:1.0 
0.7917515242660678 0.0 3:5.0 5:2.0 6:2.0 10:2.0 
1.0 0.0 2:1.0 3:4.0 5:1.0 6:1.0 20:1.0 
0.8708026931766186 0.0 2:5.0 3:5.0 5:6.0 6:6.0 10:3.0 11:1.0 12:1.0 14:1.0 20:1.0 21:2.0 26:0.2 
1.0 0.0 3:4.0 5:1.0 6:4.0 10:1.0 11:1.0 
1.0 0.15961436699894369 1:1.0 2:1.0 3:1.0 5:2.0 6:4.0 12:1.0 15:8.0 20:1.0 
0.0 1.0 1:1.0 3:1.0 5:1.0 6:1.0 20:1.0 
1.0 1.0 2:2.0 3:4.0 4:2.0 5:2.0 6:1.0 11:2.0 20:2.0 
0.0 1.0 1:1.0 3:1.0 20:1.0 
1.0 1.0 1:1.0 2:2.0 3:1.0 4:1.0 5:4.0 6:5.0 10:2.0 11:2.0 13:3.0 20:-1.0 22:2.0 26:4.0 
1.0 1.0 3:3.0 4:2.0 6:1.0 11:2.0 13:1.0 16:2.0 
1.0 0.0 2:1.0 3:1.0 4:1.0 5:2.0 6:1.0 11:1.0 14:1.0 20:1.5 
0.0 1.0 1:1.0 3:5.0 5:1.0 6:3.0 11:1.0 20:1.0 
1.0 1.0 4:1.0 6:1.0 14:1.0 16:1.0 
1.0 0.0 2:1.0 3:1.0 5:1.0 6:3.0 11:1.0 14:1.0 20:3.0 
0.0 1.0 5:1.0 6:1.0 11:1.0 
0.0 1.0 4:1.0 
0.0 1.0 1:1.0 3:1.0 5:2.0 6:2.0 10:1.0 12:1.0 20:1.0 
0.0 1.0 5:1.0 11:1.0 
1.0 1.0 4:1.0 5:2.0 10:1.0 11:1.0 13:1.0 16:2.0 
1.0 0.0 2:1.0 3:2.0 5:2.0 6:3.0 10:1.0 11:1.0 20:3.0 
0.0 1.0 2:1.0 4:1.0 5:3.0 6:1.0 7:1.0 10:1.0 11:2.0 17:1.0 20:-1.5 
0.0 1.0 3:3.0 7:1.0 14:1.0 23:1.0 
0.0 1.0 3:1.0 5:1.0 6:1.0 11:2.0 
0.0 1.0 7:1.0 23:1.0 
0.0 1.0 5:1.0 6:1.0 7:1.0 10:1.0 23:1.0 
1.0 1.0 1:1.0 3:3.0 4:1.0 6:1.0 9:1.0 19:1.0 20:1.0 
0.0 1.0 5:1.0 6:1.0 11:1.0 
0.0 1.0 2:1.0 3:1.0 6:1.0 7:1.0 10:1.0 17:1.0 
0.0 1.0 1:1.0 6:2.0 20:1.0 
1.0 1.0 2:1.0 3:2.0 4:1.0 5:1.0 6:3.0 11:1.0 13:1.0 16:2.0 20:1.0 
1.0 1.0 1:3.0 3:2.0 4:1.0 5:2.0 6:3.0 10:1.0 11:2.0 20:1.0 
1.0 1.0 1:1.0 2:1.0 3:1.0 4:1.0 5:2.0 6:2.0 12:1.0 13:1.0 15:8.0 16:2.0 20:2.0 
1.0 1.0 1:1.0 2:1.0 3:1.0 4:1.0 5:1.0 20:2.0 
0.0 1.0 3:5.0 6:5.0 11:1.0 
1.0 0.0 2:3.0 3:3.0 6:4.0 20:3.0 
0.0 1.0 4:2.0 5:4.0 6:2.0 11:3.0 
1.0 1.0 2:1.0 3:1.0 5:1.0 6:1.0 11:1.0 20:2.0 
0.0 1.0 1:1.0 5:1.0 13:1.0 16:2.0 20:1.0 
1.0 1.0 2:1.0 4:1.0 20:1.0 
0.0 1.0 1:1.0 2:1.0 6:1.0 20:2.0 
0.0 1.0 1:1.0 3:1.0 4:1.0 5:1.0 6:4.0 12:1.0 20:1.0 
1.0 1.0 5:1.0 11:2.0 
0.0 1.0 1:1.0 6:1.0 20:1.0 
0.0 1.0 4:1.0 6:1.0 
0.0 1.0 3:3.0 4:2.0 6:1.0 11:1.0 
0.0 1.0 3:5.0 5:1.0 6:1.0 11:1.0 
0.0 1.0 3:1.0 4:1.0 5:1.0 6:1.0 11:1.0 
0.0 1.0 1:1.0 3:2.0 4:1.0 5:1.0 6:2.0 11:1.0 14:1.0 20:1.5 
1.0 1.0 5:1.0 6:4.0 8:1.0 10:1.0 18:1.0 
1.0 0.0 3:3.0 4:1.0 5:3.0 6:2.0 10:2.0 11:2.0 
0.41440656357384015 1.0 3:2.0 5:1.0 6:2.0 11:2.0 
0.8357644588339161 0.5216647222877598 3:1.0 5:2.0 6:2.0 12:1.0 13:1.0 21:8.0 28:2.0 
0.2900800292678348 0.0 2:1.0 3:6.0 5:4.0 6:2.0 10:1.0 12:1.0 15:4.0 20:1.0 
0.8989513236924133 1.0 6:1.0 7:1.0 13:4.0 16:2.0 23:1.0 
1.0 1.0 2:1.0 3:3.0 4:2.0 5:2.0 6:1.0 11:1.0 13:1.0 20:1.5 22:2.0 
1.0 0.0 1:1.0 2:1.0 3:1.0 4:2.0 5:3.0 6:4.0 10:1.0 11:1.0 20:2.7 
0.0 0.9355246810977844 1:1.0 3:1.0 5:3.0 6:3.0 11:1.0 12:2.0 14:1.0 15:4.0 
0.0 1.0 6:2.0 11:1.0 
1.0 0.0 3:1.0 4:1.0 5:1.0 6:2.0 11:1.0 14:1.0 
1.0 0.0 2:1.0 3:1.0 4:1.0 5:2.0 6:3.0 10:1.0 11:1.0 20:-1.0 
0.0 1.0 13:1.0 16:2.0 
1.0 1.0 3:1.0 5:2.0 6:1.0 10:1.0 11:1.0 13:1.0 16:2.0 
1.0 0.0 2:1.0 5:1.0 6:2.0 20:1.0 
1.0 1.0 3:1.0 4:2.0 5:1.0 6:1.0 11:2.0 
1.0 1.0 1:1.0 2:1.0 3:2.0 5:2.0 6:2.0 11:1.0 20:2.5 
1.0 1.0 1:1.0 2:1.0 3:1.0 4:1.0 20:2.0 
0.0 1.0 3:1.0 5:1.0 6:1.0 10:1.0 13:1.0 16:2.0 
0.0 1.0 1:1.0 3:1.0 6:2.0 
0.0 1.0 1:1.0 4:1.0 6:1.0 13:1.0 16:2.0 20:1.0 
1.0 1.0 3:2.0 5:2.0 6:3.0 10:1.0 11:1.0 13:1.0 16:2.0 
0.10583388589222324 1.0 1:1.0 2:1.0 3:1.0 5:1.0 6:2.0 13:1.0 20:1.0 22:2.0 26:1.0 
0.0 1.0 4:1.0 5:1.0 6:1.0 11:1.0 
1.0 1.0 2:1.0 3:1.0 5:1.0 6:2.0 13:1.0 16:2.0 20:1.0 
0.0 1.0 1:1.0 3:1.0 20:1.0 
0.0 1.0 1:1.0 20:1.0 
0.0 1.0 1:1.0 6:1.0 20:1.0 
1.0 1.0 2:1.0 4:1.0 5:1.0 6:2.0 11:2.0 20:1.5 
0.0 1.0 1:4.0 2:1.0 3:10.0 4:7.0 5:3.0 6:9.0 11:2.0 20:5.0 
1.0 0.0 2:2.0 3:1.0 6:3.0 20:2.0 
1.0 1.0 3:5.0 5:1.0 6:2.0 8:1.0 11:1.0 14:3.0 36:1.0 
0.0 1.0 7:1.0 17:1.0 
0.0 1.0 1:1.0 3:1.0 4:1.0 5:1.0 6:2.0 7:1.0 11:1.0 17:1.0 20:1.0 
0.0 1.0 7:1.0 17:1.0 
0.0 1.0 1:1.0 3:1.0 5:1.0 6:1.0 20:1.0 
1.0 1.0 3:5.0 6:3.0 8:2.0 18:2.0 
0.0 1.0 7:1.0 17:1.0 
0.0 1.0 7:1.0 17:1.0 
0.0 1.0 3:3.0 4:1.0 6:1.0 11:1.0 
1.0 0.0 3:1.0 6:1.0 8:1.0 18:1.0 
0.0 1.0 3:1.0 5:1.0 11:1.0 
0.0 1.0 3:2.0 6:1.0 8:1.0 13:1.0 22:2.0 30:1.0 
0.0 1.0 3:4.0 4:2.0 5:1.0 6:3.0 11:1.0 13:3.0 22:2.0 28:2.0 
0.0 1.0 1:3.0 3:1.0 5:1.0 6:2.0 12:1.0 20:3.0 
0.0 1.0 3:2.0 4:1.0 5:3.0 7:1.0 10:1.0 11:1.0 23:1.0 
1.0 1.0 2:1.0 3:5.0 5:2.0 6:7.0 12:2.0 13:2.0 16:2.0 20:1.0 22:2.0 
1.0 1.0 1:3.0 2:1.0 3:1.0 4:4.0 5:6.0 6:8.0 8:2.0 9:2.0 11:1.0 20:6.0 24:2.0 25:2.0 26:1.0 
0.38152045748643615 0.34818598392930417 3:9.0 4:3.0 5:16.0 6:16.0 8:3.0 9:4.0 10:4.0 11:5.0 12:5.0 15:4.0 18:3.0 19:4.0 
0.0 1.0 3:1.0 6:3.0 7:2.0 12:1.0 13:2.0 16:2.0 17:2.0 21:4.0 22:2.0 
1.0 0.0 8:1.0 9:1.0 18:1.0 19:1.0 
0.0 1.0 6:1.0 7:1.0 14:1.0 23:1.0 
1.0 1.0 3:1.0 4:3.0 5:1.0 6:1.0 8:2.0 11:2.0 24:2.0 
1.0 1.0 3:1.0 4:1.0 5:1.0 11:1.0 13:1.0 16:2.0 
0.0 1.0 1:1.0 3:4.0 6:3.0 7:1.0 11:1.0 13:1.0 22:2.0 29:1.0 
1.0 0.9910856280288043 1:1.0 2:5.0 3:14.0 4:2.0 5:6.0 6:7.0 10:2.0 11:1.0 12:5.0 15:4.0 26:4.0 27:4.0 
0.0 1.0 3:1.0 8:1.0 13:1.0 22:2.0 30:1.0 
0.0 1.0 3:3.0 5:1.0 6:1.0 8:1.0 13:1.0 14:1.0 16:2.0 30:1.0 
0.0 1.0 3:2.0 7:1.0 13:1.0 16:2.0 23:1.0 
0.0 1.0 3:1.0 5:1.0 6:1.0 7:2.0 29:2.0 
0.0 1.0 1:1.0 3:1.0 6:2.0 20:1.0 
1.0 1.0 1:1.0 2:1.0 3:2.0 4:1.0 5:1.0 6:1.0 8:1.0 9:1.0 11:1.0 18:1.0 19:1.0 20:2.0 
1.0 0.0 2:1.0 3:1.0 4:1.0 5:1.0 6:1.0 20:1.0 
1.0 0.0 2:1.0 3:2.0 5:2.0 6:3.0 20:1.0 
0.0 1.0 1:2.0 3:1.0 4:2.0 5:1.0 6:2.0 11:1.0 12:1.0 15:8.0 20:4.0 
0.0 1.0 1:1.0 3:2.0 5:1.0 20:1.0 
0.0 1.0 1:1.0 3:3.0 20:1.0 
0.0 1.0 1:1.0 3:2.0 6:2.0 20:1.0 
0.0 1.0 1:1.0 3:2.0 6:1.0 20:1.0 
0.0 1.0 1:1.0 3:1.0 20:1.0 
0.0 1.0 3:2.0 4:1.0 6:5.0 13:2.0 16:2.0 22:2.0 
0.0 1.0 1:1.0 2:1.0 3:5.0 4:1.0 5:2.0 6:5.0 13:1.0 16:2.0 20:1.0 
0.0 1.0 2:1.0 5:2.0 6:5.0 7:2.0 13:1.0 16:2.0 26:1.0 29:2.0 
0.0 1.0 3:2.0 6:1.0 7:1.0 14:1.0 23:1.0 
0.0 1.0 1:1.0 5:1.0 6:2.0 12:2.0 15:8.0 20:1.0 
0.0 1.0 3:2.0 6:1.0 7:1.0 17:1.0 
0.0 1.0 1:1.0 4:1.0 5:1.0 6:1.0 11:1.0 20:1.5 
1.0 1.0 2:1.0 4:1.0 5:1.0 11:2.0 13:1.0 16:2.0 20:1.5 
0.0 1.0 5:1.0 6:2.0 11:1.0 
0.0 1.0 6:1.0 7:1.0 17:1.0 
0.0 1.0 1:1.0 6:1.0 13:1.0 16:2.0 20:1.0 
0.0 1.0 2:1.0 3:1.0 6:1.0 7:1.0 17:1.0 20:1.0 
0.0 1.0 3:2.0 4:1.0 5:1.0 11:1.0 
0.0 1.0 4:1.0 5:1.0 11:1.0 
0.0 1.0 3:1.0 4:1.0 
1.0 1.0 5:1.0 6:2.0 10:1.0 11:2.0 
1.0 1.0 1:1.0 3:2.0 4:1.0 5:1.0 6:2.0 11:1.0 20:0.8 
1.0 1.0 3:4.0 5:1.0 6:3.0 8:1.0 10:1.0 11:1.0 18:1.0 
1.0 1.0 1:1.0 3:2.0 4:1.0 5:1.0 6:2.0 7:1.0 9:5.0 11:1.0 17:1.0 19:5.0 20:1.0 
0.0 1.0 1:1.0 3:1.0 13:1.0 16:2.0 20:1.0 
0.0 1.0 1:1.0 3:2.0 5:1.0 6:5.0 12:1.0 13:2.0 16:2.0 20:1.0 21:2.0 22:2.0 
1.0 1.0 3:1.0 5:3.0 6:2.0 10:1.0 13:1.0 16:2.0 
0.0 1.0 3:1.0 6:1.0 13:1.0 16:2.0 
0.0 1.0 3:2.0 6:2.0 7:1.0 17:1.0 
0.0 1.0 3:2.0 6:2.0 13:1.0 16:2.0 
1.0 1.0 3:1.0 4:1.0 6:1.0 8:1.0 18:1.0 
0.0 1.0 4:1.0 6:2.0 7:1.0 17:1.0 
0.0 1.0 4:2.0 
0.0 1.0 3:1.0 5:1.0 6:2.0 7:3.0 17:3.0 
0.0 1.0 1:1.0 4:1.0 5:1.0 11:1.0 20:2.0 
0.0 1.0 1:2.0 3:4.0 4:1.0 5:1.0 6:2.0 11:2.0 13:1.0 14:1.0 34:2.0 38:1.0 44:1.0 
0.0 1.0 4:1.0 7:1.0 17:1.0 
1.0 1.0 3:1.0 6:1.0 13:3.0 16:2.0 
0.0 1.0 7:1.0 17:1.0 
0.0 1.0 3:3.0 7:1.0 8:1.0 17:1.0 18:1.0 
0.0 1.0 7:3.0 17:3.0 
0.0 1.0 4:1.0 13:1.0 16:2.0 
0.0 1.0 3:1.0 4:1.0 5:1.0 7:1.0 17:1.0 
1.0 0.0 2:1.0 4:2.0 5:1.0 6:1.0 8:1.0 10:1.0 11:1.0 18:1.0 20:-1.5 
0.0 1.0 5:1.0 11:1.0 
1.0 1.0 1:1.0 2:1.0 3:1.0 4:3.0 6:2.0 13:1.0 16:2.0 20:2.0 
1.0 0.0 2:1.0 3:1.0 20:1.0 
0.47956468135401137 0.5492572686366689 1:1.0 2:2.0 3:17.0 4:3.0 5:10.0 6:20.0 7:3.0 8:1.0 10:2.0 11:3.0 12:3.0 13:2.0 14:1.0 16:2.0 21:8.0 22:2.0 26:1.0 33:4.0 35:3.0 36:1.0 38:4.0 
0.0 1.0 1:1.0 3:1.0 5:1.0 6:1.0 12:1.0 20:1.0 
0.0 1.0 3:4.0 6:2.0 7:2.0 14:1.0 23:2.0 
0.0 1.0 7:1.0 8:1.0 17:1.0 18:1.0 
0.0 1.0 1:1.0 4:1.0 6:1.0 20:1.0 
0.14527916914395403 1.0 7:7.0 17:7.0 
0.0 1.0 1:1.0 6:1.0 20:1.0 
0.567258248485383 0.0 1:1.0 2:3.0 3:8.0 4:3.0 5:1.0 6:10.0 11:2.0 12:1.0 15:8.0 20:2.0 26:2.0 
0.0 1.0 1:1.0 6:2.0 
1.0 1.0 1:2.0 2:1.0 3:1.0 5:2.0 6:1.0 10:1.0 11:2.0 13:1.0 16:2.0 26:1.0 
0.0 1.0 1:1.0 20:1.0 
0.0 1.0 7:1.0 17:1.0 
0.0 1.0 3:1.0 4:1.0 6:2.0 11:2.0 12:1.0 15:2.0 
0.0 1.0 1:1.0 3:2.0 4:1.0 6:2.0 11:1.0 12:1.0 15:2.0 20:1.0 
0.0 1.0 1:1.0 3:1.0 20:1.0 
0.0 1.0 1:1.0 3:3.0 6:1.0 20:1.0 
0.2835366361179083 0.5504548064104317 3:5.0 5:1.0 13:3.0 14:38.0 16:2.0 22:2.0 28:2.0 
0.0 1.0 2:2.0 3:4.0 4:1.0 6:1.0 7:1.0 12:1.0 15:4.0 20:2.0 23:1.0 
0.0 1.0 3:1.0 5:1.0 6:2.0 7:2.0 10:1.0 14:2.0 29:2.0 
0.0 1.0 6:1.0 7:1.0 17:1.0 
0.35717945527603 1.0 1:1.0 3:13.0 4:2.0 5:3.0 6:10.0 7:2.0 8:1.0 11:1.0 12:2.0 14:3.0 15:8.0 26:2.0 29:2.0 30:1.0 
1.0 0.0 3:3.0 4:1.0 5:1.0 6:2.0 9:1.0 10:1.0 19:1.0 
0.0 1.0 7:1.0 17:1.0 
0.0 1.0 3:2.0 6:3.0 13:1.0 16:2.0 
1.0 1.0 1:3.0 2:3.0 3:1.0 5:1.0 6:3.0 7:1.0 12:2.0 13:2.0 15:4.0 16:2.0 20:3.0 22:2.0 26:2.0 29:1.0 
0.0 1.0 1:1.0 2:1.0 3:2.0 6:3.0 7:5.0 13:1.0 16:2.0 20:2.0 23:5.0 
1.0 0.0 2:1.0 6:1.0 9:1.0 19:1.0 20:1.0 
1.0 0.0 9:1.0 19:1.0 
0.0 1.0 1:2.0 3:2.0 6:1.0 20:2.0 
0.0 1.0 3:1.0 7:1.0 17:1.0 
0.0 1.0 1:1.0 3:1.0 4:3.0 5:1.0 6:1.0 11:2.0 20:1.0 
0.0 1.0 1:1.0 4:1.0 13:1.0 16:2.0 20:1.0 
0.5353844012050666 0.0 3:1.0 6:1.0 10:1.0 
1.0 0.0 1:1.0 2:2.0 3:3.0 4:1.0 5:1.0 6:1.0 14:1.0 20:3.0 
0.0 1.0 1:1.0 2:3.0 3:1.0 4:2.0 5:1.0 7:1.0 10:1.0 17:1.0 
0.0 1.0 3:1.0 4:1.0 11:1.0 13:1.0 16:2.0 
0.0 1.0 3:2.0 6:1.0 7:1.0 23:1.0 
0.0 1.0 1:1.0 3:1.0 4:2.0 5:2.0 6:1.0 10:1.0 11:1.0 20:1.5 
0.0 1.0 1:1.0 3:3.0 4:1.0 20:1.0 
0.0 1.0 2:1.0 3:2.0 4:1.0 6:1.0 7:1.0 20:1.0 23:1.0 
0.0 1.0 6:1.0 7:1.0 13:1.0 14:1.0 16:2.0 23:1.0 
0.0 1.0 1:1.0 3:1.0 4:1.0 6:2.0 20:1.0 
1.0 1.0 4:2.0 11:1.0 13:1.0 16:2.0 
0.2480080723705217 1.0 1:9.0 3:6.0 4:6.0 5:2.0 6:3.0 8:1.0 11:1.0 14:1.0 20:2.0 26:2.0 32:1.0 38:1.0 44:9.0 48:1.0 
1.0 1.0 1:1.0 3:1.0 5:1.0 6:4.0 9:1.0 11:1.0 19:1.0 20:1.5 
1.0 0.0 2:2.0 3:3.0 14:1.0 20:1.0 
0.0 1.0 1:1.0 3:1.0 14:1.0 20:1.0 
0.0 0.31021915343695466 1:6.0 3:10.0 4:1.0 6:6.0 20:1.0 26:2.0 32:1.0 
0.0 1.0 3:1.0 7:1.0 17:1.0 
0.0 1.0 3:1.0 11:1.0 
0.0 1.0 7:1.0 17:1.0 
0.0 1.0 1:2.0 3:1.0 4:2.0 6:2.0 7:1.0 20:1.0 29:1.0 
0.0 1.0 3:1.0 5:1.0 11:2.0 
0.0 1.0 1:1.0 4:1.0 5:1.0 6:1.0 11:1.0 20:2.0 
0.0 1.0 3:1.0 5:1.0 6:5.0 7:1.0 17:1.0 
0.0 1.0 3:1.0 5:1.0 6:1.0 11:1.0 12:1.0 13:1.0 15:8.0 16:2.0 
1.0 0.0 5:1.0 6:1.0 9:1.0 19:1.0 
0.0 0.40709947750740993 1:1.0 3:4.0 4:6.0 5:4.0 6:6.0 10:2.0 11:2.0 12:1.0 15:8.0 20:1.0 
0.0 1.0 1:1.0 3:3.0 6:1.0 20:1.0 
1.0 0.0 3:1.0 6:2.0 8:1.0 18:1.0 
1.0 1.0 1:1.0 2:1.0 5:2.0 8:1.0 12:2.0 15:8.0 18:1.0 20:1.0 
0.0 1.0 1:1.0 5:1.0 6:1.0 11:1.0 14:1.0 20:2.0 
0.0 1.0 1:1.0 3:2.0 4:1.0 5:1.0 6:1.0 20:1.0 
0.0 1.0 5:1.0 6:3.0 7:1.0 17:1.0 
1.0 0.0 2:1.0 5:2.0 6:2.0 8:2.0 10:1.0 18:2.0 20:1.0 
0.0 1.0 3:1.0 7:1.0 17:1.0 
1.0 1.0 4:1.0 5:2.0 6:1.0 10:1.0 11:1.0 
0.0 1.0 1:1.0 5:1.0 6:1.0 20:1.0 
0.0 1.0 1:1.0 3:1.0 5:2.0 6:3.0 20:1.0 
0.0 1.0 1:1.0 6:1.0 13:1.0 16:2.0 20:1.0 
0.0 1.0 4:2.0 5:1.0 11:1.0 
1.0 0.0 2:1.0 3:1.0 8:3.0 18:3.0 20:1.0 
0.0 1.0 1:1.0 3:1.0 6:1.0 7:1.0 17:1.0 
0.0 1.0 1:1.0 5:1.0 6:1.0 20:1.0 
0.0 1.0 1:1.0 6:1.0 14:1.0 20:1.0 
1.0 0.0 8:3.0 18:3.0 
0.0 1.0 6:1.0 7:1.0 8:1.0 14:1.0 23:1.0 24:1.0 
0.0 1.0 3:1.0 4:1.0 8:1.0 11:1.0 24:1.0 
0.0 1.0 3:1.0 4:3.0 7:1.0 11:2.0 17:1.0 
0.0 1.0 3:1.0 7:1.0 17:1.0 
0.0 1.0 1:1.0 3:5.0 4:3.0 6:4.0 11:1.0 12:1.0 15:4.0 20:1.0 
1.0 1.0 3:2.0 4:2.0 6:1.0 8:1.0 18:1.0 
1.0 0.0 4:1.0 5:1.0 6:1.0 8:3.0 14:3.0 18:3.0 
0.0 1.0 1:1.0 3:5.0 4:1.0 6:2.0 7:1.0 17:1.0 20:1.0 
0.0 1.0 5:3.0 7:1.0 10:1.0 17:1.0 
0.0 1.0 1:1.0 3:2.0 4:1.0 6:3.0 7:1.0 8:1.0 17:1.0 18:1.0 
1.0 0.0 9:1.0 19:1.0 
0.0 1.0 3:1.0 7:1.0 17:1.0 
0.0 1.0 5:1.0 6:1.0 11:1.0 
0.0 1.0 3:1.0 4:1.0 5:1.0 7:1.0 17:1.0 
0.8039797780744273 1.0 1:1.0 2:1.0 3:2.0 4:1.0 6:1.0 7:1.0 12:1.0 13:2.0 16:2.0 21:4.0 22:2.0 29:1.0 32:1.0 
0.0 1.0 7:1.0 17:1.0 
0.0 1.0 3:1.0 7:1.0 17:1.0 
0.0 1.0 2:1.0 3:1.0 4:1.0 5:2.0 7:1.0 11:1.0 17:1.0 20:1.5 
0.34784100920845756 0.0 2:1.0 3:1.0 5:1.0 6:3.0 10:2.0 12:1.0 15:2.0 20:1.0 
0.0 1.0 3:2.0 4:2.0 8:1.0 18:1.0 
1.0 1.0 3:1.0 5:2.0 8:1.0 11:2.0 18:1.0 
0.0 1.0 3:1.0 7:1.0 17:1.0 
1.0 0.0 3:4.0 4:3.0 5:1.0 6:2.0 10:1.0 11:1.0 
0.0 1.0 1:2.0 2:1.0 3:5.0 4:2.0 5:2.0 6:2.0 10:1.0 12:1.0 14:1.0 26:1.0 27:4.0 32:2.0 
1.0 1.0 2:1.0 5:1.0 20:1.0 
1.0 1.0 1:2.0 2:1.0 3:3.0 4:2.0 5:3.0 6:1.0 10:1.0 11:1.0 20:-0.5 
0.0 1.0 1:1.0 2:1.0 6:1.0 20:1.0 
0.0 1.0 1:1.0 2:1.0 3:3.0 6:1.0 20:2.0 
1.0 1.0 1:1.0 2:2.0 3:3.0 4:2.0 5:2.0 6:2.0 11:4.0 12:1.0 15:4.0 20:6.75 
1.0 0.0 2:1.0 3:1.0 20:1.0 
1.0 0.0 2:1.0 3:1.0 20:1.0 
0.0 1.0 3:1.0 13:2.0 16:2.0 
0.0 1.0 3:1.0 5:2.0 6:3.0 11:2.0 
0.0 1.0 2:1.0 3:2.0 5:1.0 6:4.0 7:2.0 17:2.0 20:1.0 
0.0 1.0 1:1.0 5:1.0 11:1.0 13:1.0 16:2.0 20:2.0 
1.0 0.9621123272935174 1:1.0 3:4.0 4:2.0 6:2.0 11:1.0 12:1.0 14:2.0 15:4.0 20:1.0 
0.0 1.0 1:3.0 2:1.0 3:11.0 4:1.0 5:5.0 6:8.0 7:4.0 11:1.0 20:3.5 26:1.0 29:4.0 
1.0 1.0 3:4.0 4:2.0 5:2.0 6:5.0 10:2.0 11:1.0 
0.0 1.0 1:3.0 2:3.0 3:2.0 5:2.0 6:5.0 7:1.0 10:1.0 20:1.0 23:1.0 
0.0 1.0 1:1.0 3:2.0 5:1.0 6:2.0 20:1.0 
0.0 1.0 1:3.0 3:2.0 5:4.0 6:4.0 7:1.0 11:2.0 13:1.0 14:1.0 16:2.0 26:7.0 29:1.0 
0.0 1.0 3:5.0 5:4.0 6:3.0 7:1.0 10:1.0 11:2.0 17:1.0 
0.0 1.0 6:1.0 13:1.0 16:2.0 
0.0 1.0 7:1.0 17:1.0 
1.0 1.0 1:1.0 3:2.0 4:1.0 5:2.0 6:2.0 11:2.0 12:2.0 15:2.0 20:1.0 
0.0 1.0 1:2.0 3:3.0 4:1.0 5:2.0 6:1.0 11:1.0 20:2.5 
1.0 1.0 2:1.0 3:5.0 4:1.0 5:2.0 11:1.0 12:1.0 15:8.0 20:2.0 
0.0 0.7477285485518528 1:2.0 3:9.0 5:2.0 6:6.0 20:1.0 26:1.0 
0.0 1.0 4:1.0 
0.0 1.0 1:2.0 3:2.0 4:3.0 5:2.0 6:1.0 11:1.0 20:2.0 
0.915729507976134 0.0 1:1.0 3:4.0 4:1.0 5:2.0 6:2.0 10:2.0 
1.0 1.0 3:2.0 4:2.0 5:1.0 11:1.0 
1.0 1.0 1:2.0 2:1.0 3:1.0 4:1.0 5:4.0 6:3.0 7:1.0 10:1.0 11:1.0 12:1.0 13:2.0 16:2.0 20:1.0 21:8.0 22:2.0 29:1.0 
0.0 1.0 1:2.0 3:3.0 5:2.0 6:1.0 13:2.0 14:5.0 16:2.0 20:1.0 22:2.0 26:1.0 
0.0 1.0 1:1.0 3:1.0 4:1.0 5:1.0 6:2.0 20:1.0 
0.0 1.0 1:1.0 2:1.0 5:1.0 6:1.0 20:1.0 
1.0 1.0 1:1.0 2:1.0 3:1.0 5:2.0 6:2.0 13:1.0 16:2.0 20:1.0 
0.33895993443753253 1.0 2:2.0 3:3.0 4:1.0 5:1.0 6:4.0 10:1.0 11:1.0 14:10.0 38:1.0 44:-1.0 
0.0 0.1705296533331535 1:3.0 3:9.0 5:7.0 6:8.0 11:3.0 12:1.0 13:1.0 14:2.0 20:1.0 22:2.0 26:6.0 
0.7060747886713485 0.9295058731783893 1:6.0 2:6.0 3:17.0 4:6.0 5:10.0 6:14.0 10:2.0 11:4.0 12:2.0 13:1.0 15:8.0 21:4.0 22:2.0 26:5.1 
0.0 0.6481066017070389 1:6.0 2:1.0 3:16.0 5:6.0 6:12.0 11:1.0 12:2.0 15:8.0 20:7.0 
0.0 1.0 1:1.0 5:1.0 6:2.0 11:1.0 
0.0 1.0 1:2.0 3:2.0 4:1.0 6:2.0 14:1.0 20:1.0 26:1.0 
0.0 1.0 3:1.0 13:1.0 16:2.0 
0.0 1.0 4:1.0 
1.0 1.0 3:2.0 4:1.0 5:1.0 6:2.0 11:2.0 
1.0 1.0 2:1.0 3:2.0 4:2.0 5:2.0 6:1.0 11:3.0 20:4.5 
0.0 1.0 1:1.0 2:1.0 3:2.0 5:1.0 6:1.0 20:2.0 
1.0 1.0 1:1.0 3:1.0 5:3.0 6:6.0 10:1.0 11:2.0 12:4.0 15:4.0 20:1.0 
0.0 1.0 3:1.0 6:1.0 13:1.0 16:2.0 
0.0 1.0 5:1.0 11:1.0 
1.0 1.0 6:1.0 9:1.0 13:1.0 16:2.0 25:1.0 
1.0 1.0 1:1.0 3:2.0 5:1.0 6:1.0 9:1.0 19:1.0 20:1.0 
0.0 1.0 1:7.0 2:1.0 3:9.0 4:4.0 5:1.0 6:9.0 13:1.0 20:2.0 22:2.0 26:6.0 
0.0 1.0 4:1.0 11:1.0 14:1.0 
0.0 1.0 3:2.0 4:1.0 6:1.0 11:1.0 13:1.0 16:2.0 
0.0 0.7655385651812184 1:1.0 3:5.0 6:1.0 20:1.0 
1.0 1.0 1:1.0 3:1.0 5:1.0 6:3.0 9:1.0 19:1.0 20:1.0 
0.0 1.0 2:1.0 3:1.0 4:1.0 5:1.0 7:1.0 11:1.0 17:1.0 20:1.0 
0.0 1.0 1:1.0 3:1.0 4:1.0 5:1.0 6:2.0 11:1.0 20:1.5 
0.0 1.0 1:2.0 3:3.0 4:2.0 5:7.0 6:5.0 10:3.0 11:2.0 12:1.0 14:1.0 20:1.0 
0.0 1.0 1:1.0 3:1.0 20:1.0 
0.30695778325713646 1.0 2:2.0 3:1.0 4:2.0 5:2.0 6:4.0 11:1.0 12:2.0 13:1.0 15:4.0 16:2.0 20:1.0 21:8.0 26:1.0 
1.0 0.0 5:1.0 6:2.0 12:1.0 15:8.0 
0.0 1.0 1:3.0 3:5.0 4:2.0 6:5.0 20:3.0 
0.0 0.4076553594548231 1:2.0 2:2.0 3:18.0 4:1.0 5:4.0 6:12.0 10:3.0 20:4.0 
0.0 0.7174421402905432 1:6.0 3:15.0 4:4.0 5:1.0 6:5.0 20:2.0 26:3.0 
0.0 0.07841566584242274 1:3.0 3:23.0 4:3.0 5:2.0 6:5.0 11:3.0 12:1.0 15:4.0 20:4.0 
0.0 1.0 1:2.0 2:1.0 3:1.0 4:2.0 5:2.0 6:4.0 20:3.0 
0.0 1.0 1:1.0 3:1.0 4:1.0 5:1.0 6:2.0 11:2.0 
1.0 1.0 2:2.0 3:2.0 5:4.0 6:9.0 11:1.0 20:1.0 26:1.0 
0.0 1.0 4:2.0 11:1.0 
0.0 1.0 1:1.0 3:1.0 5:1.0 6:3.0 11:1.0 20:1.0 
0.0 1.0 6:1.0 11:1.0 
0.0 1.0 4:1.0 6:1.0 11:1.0 
0.0 1.0 6:1.0 11:1.0 
0.0 1.0 1:4.0 3:2.0 4:3.0 5:4.0 6:6.0 11:2.0 12:1.0 13:1.0 20:4.0 22:2.0 26:1.0 
1.0 0.0 2:2.0 3:2.0 5:1.0 6:4.0 12:1.0 14:1.0 15:2.0 20:1.0 
0.0 1.0 4:1.0 6:1.0 
0.0 1.0 1:1.0 3:1.0 5:1.0 6:1.0 10:1.0 
0.0 1.0 1:1.0 3:1.0 5:1.0 6:3.0 11:1.0 12:1.0 15:8.0 20:3.0 
1.0 1.0 3:2.0 4:1.0 5:2.0 6:4.0 11:1.0 13:2.0 16:2.0 22:2.0 
0.0 1.0 4:1.0 
1.0 0.0 2:1.0 6:3.0 8:1.0 18:1.0 20:1.0 
0.0 1.0 1:2.0 3:2.0 6:5.0 11:1.0 14:1.0 20:1.0 26:1.0 
0.0 1.0 1:1.0 6:4.0 11:1.0 20:2.0 
0.0 1.0 2:1.0 6:1.0 20:1.0 
0.0 1.0 1:1.0 3:1.0 5:1.0 20:1.0 
1.0 0.0 5:1.0 6:3.0 10:1.0 14:1.0 
0.0 1.0 1:1.0 4:1.0 6:2.0 20:1.0 
0.0 1.0 7:1.0 8:2.0 17:1.0 18:2.0 
0.0 1.0 1:2.0 3:1.0 4:1.0 6:1.0 14:1.0 20:2.0 
1.0 1.0 3:4.0 6:6.0 8:1.0 14:2.0 24:1.0 
1.0 0.0 5:1.0 9:1.0 19:1.0 
0.0 1.0 4:1.0 
1.0 0.0 1:1.0 3:2.0 4:1.0 6:4.0 9:3.0 19:3.0 20:1.0 
0.0 1.0 3:2.0 4:1.0 6:2.0 11:1.0 
0.0 1.0 1:1.0 3:5.0 6:1.0 20:1.0 
1.0 0.0 2:1.0 5:1.0 14:1.0 20:1.0 
0.0 1.0 1:3.0 5:1.0 6:6.0 11:1.0 12:1.0 15:8.0 20:5.0 
0.0 0.1842168442971497 1:1.0 2:1.0 3:5.0 5:1.0 6:4.0 11:1.0 20:2.1 
0.0 1.0 1:4.0 3:7.0 6:3.0 11:3.0 26:3.0 
0.5478281904153456 1.0 3:4.0 5:1.0 11:1.0 13:1.0 16:2.0 
0.0 1.0 1:2.0 3:1.0 4:1.0 6:2.0 20:2.0 
0.09227648882874927 0.7026268292715769 1:5.0 2:5.0 3:9.0 4:6.0 5:6.0 6:11.0 11:1.0 12:1.0 20:5.0 26:7.0 
0.0 1.0 1:1.0 3:1.0 4:2.0 5:4.0 6:2.0 11:2.0 12:1.0 20:2.0 
0.0 1.0 1:1.0 5:3.0 6:2.0 13:1.0 16:2.0 20:1.0 
0.0 1.0 1:1.0 20:1.0 
1.0 0.0 2:2.0 3:1.0 5:1.0 6:2.0 12:1.0 20:2.0 
0.0 1.0 1:1.0 3:3.0 4:2.0 6:3.0 11:1.0 20:2.0 
0.0 1.0 1:2.0 3:2.0 4:2.0 5:2.0 6:4.0 10:1.0 11:1.0 20:3.0 26:1.0 
0.0 1.0 1:2.0 5:1.0 6:4.0 20:2.0 
0.715731395713391 1.0 4:1.0 6:1.0 11:1.0 13:1.0 16:2.0 
0.36738131571588056 0.571885832797556 1:3.0 3:8.0 4:2.0 5:6.0 6:14.0 10:4.0 11:2.0 12:1.0 13:2.0 14:23.0 20:1.0 28:2.0 
0.0 1.0 1:4.0 3:6.0 5:3.0 6:4.0 11:2.0 12:2.0 15:2.0 20:2.0 21:2.0 26:1.0 32:1.0 
0.0 1.0 1:1.0 3:2.0 20:1.0 
0.0 1.0 1:1.0 3:1.0 6:1.0 20:1.0 
0.0 1.0 3:1.0 6:1.0 13:1.0 16:2.0 
0.0 1.0 4:1.0 11:1.0 
1.0 1.0 1:2.0 2:1.0 4:1.0 5:1.0 8:1.0 18:1.0 20:3.0 
0.0 1.0 4:1.0 6:1.0 8:1.0 18:1.0 
0.0 1.0 4:1.0 5:1.0 10:1.0 11:1.0 
0.0 1.0 1:2.0 4:2.0 5:4.0 11:3.0 20:3.75 
0.0 1.0 3:1.0 6:2.0 7:1.0 17:1.0 
1.0 1.0 1:1.0 6:1.0 9:1.0 19:1.0 
1.0 0.0 3:1.0 4:1.0 5:3.0 6:5.0 8:1.0 10:1.0 18:1.0 
1.0 1.0 2:1.0 3:1.0 4:2.0 5:2.0 6:1.0 11:2.0 20:6.0 
0.0 1.0 7:1.0 17:1.0 
0.0 1.0 1:1.0 6:1.0 
1.0 0.0 4:1.0 5:3.0 6:1.0 10:1.0 
0.0 1.0 6:2.0 7:1.0 17:1.0 
0.0 1.0 7:1.0 17:1.0 
0.0 1.0 3:1.0 5:2.0 6:1.0 7:1.0 10:1.0 12:1.0 17:1.0 
0.0 1.0 1:2.0 3:4.0 4:3.0 5:3.0 6:3.0 10:1.0 11:1.0 13:2.0 16:2.0 20:1.0 22:2.0 
1.0 0.0 3:2.0 8:1.0 18:1.0 
0.0 1.0 5:1.0 7:1.0 12:1.0 17:1.0 
0.0 1.0 5:1.0 6:1.0 11:1.0 
0.0 1.0 1:1.0 6:1.0 20:1.0 
1.0 0.0 2:1.0 3:1.0 5:1.0 6:1.0 8:1.0 10:1.0 18:1.0 20:-1.0 
0.0 1.0 7:1.0 17:1.0 
0.0 1.0 1:1.0 3:2.0 4:3.0 6:1.0 13:1.0 14:1.0 20:1.0 
0.0 1.0 7:1.0 17:1.0 
1.0 0.0 3:1.0 4:2.0 5:3.0 6:4.0 8:1.0 11:3.0 14:1.0 24:1.0 
1.0 0.0 6:1.0 8:1.0 18:1.0 
0.0 1.0 1:1.0 3:1.0 4:2.0 6:1.0 
1.0 1.0 2:1.0 3:1.0 4:1.0 6:6.0 10:2.0 20:1.0 
1.0 1.0 3:4.0 4:2.0 6:2.0 8:1.0 24:1.0 
0.9837392726767442 1.0 3:1.0 5:1.0 6:1.0 10:1.0 11:1.0 13:1.0 16:2.0 
1.0 1.0 2:1.0 3:1.0 4:1.0 20:1.0 
1.0 1.0 4:1.0 8:1.0 11:1.0 18:1.0 
0.0 1.0 7:1.0 17:1.0 
1.0 1.0 1:1.0 3:1.0 4:1.0 8:2.0 18:2.0 20:1.0 
1.0 0.0 2:1.0 5:3.0 6:2.0 10:2.0 20:1.0 
0.0 1.0 1:6.0 3:5.0 4:2.0 5:3.0 6:7.0 12:2.0 14:3.0 15:4.0 20:1.0 21:4.0 32:1.0 
1.0 0.0 1:1.0 3:8.0 5:2.0 6:1.0 10:1.0 20:1.0 
0.2342590989346882 0.08438584581883013 1:2.0 3:25.0 4:3.0 5:3.0 6:6.0 11:3.0 12:1.0 20:2.0 27:4.0 
0.0 1.0 1:3.0 2:1.0 3:3.0 4:1.0 5:2.0 6:4.0 10:1.0 11:2.0 12:1.0 15:4.0 20:5.5 
0.017608413251831982 0.10436282671004408 1:7.0 2:7.0 3:24.0 4:2.0 5:1.0 6:11.0 10:1.0 11:1.0 14:2.0 20:-1.0 26:3.0 32:10.0 
0.0 1.0 1:1.0 3:1.0 6:2.0 20:1.0 
0.0 1.0 1:1.0 3:1.0 5:1.0 6:5.0 11:1.0 20:1.0 
0.0 1.0 1:1.0 3:5.0 4:2.0 6:4.0 11:1.0 12:1.0 15:4.0 20:1.0 
1.0 1.0 1:2.0 2:1.0 3:5.0 4:1.0 5:3.0 6:7.0 10:1.0 13:2.0 16:2.0 20:1.0 22:2.0 
0.0 0.7028604571524449 1:7.0 3:13.0 4:1.0 5:2.0 6:5.0 11:3.0 20:8.4 
0.0 1.0 1:3.0 3:3.0 4:3.0 5:4.0 6:2.0 10:1.0 11:1.0 12:2.0 14:1.0 15:8.0 20:-0.2 26:1.0 
0.0 0.760361911582082 3:1.0 5:1.0 6:1.0 8:1.0 30:1.0 
1.0 1.0 3:2.0 4:2.0 5:2.0 6:4.0 11:1.0 13:3.0 16:2.0 22:2.0 34:2.0 
0.0 1.0 2:1.0 7:1.0 13:1.0 16:2.0 20:1.0 23:1.0 
1.0 1.0 3:4.0 4:1.0 6:4.0 8:1.0 10:1.0 36:1.0 
0.7344739513980031 0.22056849818726948 1:1.0 2:1.0 3:9.0 5:2.0 6:4.0 10:2.0 26:-2.0 
0.42136008587754226 1.0 1:2.0 3:2.0 4:3.0 5:3.0 6:3.0 11:1.0 12:2.0 13:1.0 20:1.0 32:1.0 33:8.0 34:2.0 
0.0 1.0 4:1.0 6:1.0 
1.0 1.0 1:1.0 2:2.0 3:2.0 4:4.0 5:6.0 6:4.0 11:4.0 13:2.0 16:2.0 20:6.0 22:2.0 
1.0 0.0 3:4.0 5:1.0 6:3.0 
0.0 1.0 1:2.0 3:6.0 4:1.0 5:1.0 6:2.0 7:1.0 13:3.0 14:1.0 20:1.0 22:2.0 28:2.0 32:1.0 34:2.0 41:1.0 
0.0 1.0 2:1.0 3:2.0 6:1.0 7:1.0 20:1.0 23:1.0 
0.7293562703565649 0.0 3:2.0 4:1.0 5:1.0 6:2.0 8:1.0 10:1.0 14:1.0 30:1.0 
1.0 1.0 1:1.0 3:4.0 5:3.0 6:4.0 8:2.0 10:1.0 30:2.0 
0.0 1.0 1:2.0 2:1.0 3:8.0 4:2.0 5:3.0 6:4.0 11:3.0 13:1.0 14:1.0 20:1.0 26:3.0 32:4.5 
0.0 1.0 3:2.0 5:1.0 6:1.0 13:1.0 16:2.0 
1.0 1.0 3:1.0 5:1.0 6:2.0 8:1.0 10:1.0 13:1.0 22:2.0 30:1.0 
0.0 1.0 2:1.0 6:1.0 8:1.0 26:1.0 30:1.0 
0.0 1.0 3:2.0 6:2.0 13:1.0 16:2.0 
0.0 1.0 1:1.0 3:2.0 4:1.0 6:2.0 7:1.0 17:1.0 20:1.0 
1.0 0.0 8:3.0 18:3.0 
1.0 0.0 1:1.0 2:1.0 3:5.0 5:5.0 6:3.0 10:2.0 12:1.0 20:1.0 
0.0 1.0 6:1.0 13:1.0 16:2.0 
0.0 1.0 1:2.0 3:1.0 4:1.0 5:1.0 6:2.0 13:1.0 14:1.0 16:2.0 20:2.0 
1.0 1.0 5:1.0 6:3.0 11:1.0 12:1.0 13:1.0 15:4.0 16:2.0 
0.0 1.0 3:3.0 4:1.0 13:1.0 16:2.0 
1.0 0.0 5:1.0 6:1.0 9:1.0 19:1.0 
0.0 1.0 1:3.0 3:3.0 5:2.0 6:4.0 12:1.0 15:8.0 20:3.0 
0.0 1.0 1:2.0 3:1.0 4:2.0 6:1.0 11:1.0 12:2.0 15:4.0 20:2.0 
0.6769776985945931 0.0 1:2.0 3:11.0 4:1.0 5:1.0 6:6.0 12:1.0 15:8.0 20:2.0 
0.0 1.0 1:2.0 3:4.0 6:1.0 20:2.0 
0.0 0.585181214960039 1:3.0 3:16.0 4:7.0 5:3.0 6:2.0 10:1.0 11:2.0 20:2.0 26:1.0 
0.0 1.0 3:4.0 4:1.0 5:1.0 6:2.0 11:1.0 12:1.0 15:8.0 
0.0 1.0 1:4.0 3:8.0 4:1.0 5:1.0 6:6.0 11:1.0 20:3.0 
0.0 1.0 3:3.0 4:1.0 5:1.0 6:3.0 7:1.0 14:1.0 23:1.0 
0.0 1.0 1:1.0 3:4.0 6:3.0 11:1.0 20:0.8 
1.0 1.0 3:5.0 5:2.0 6:5.0 10:1.0 12:1.0 
0.0 1.0 2:1.0 3:6.0 4:3.0 5:3.0 6:3.0 10:1.0 11:4.0 20:1.0 
0.0 1.0 1:2.0 2:2.0 3:19.0 4:3.0 5:1.0 6:6.0 20:4.0 
0.0 1.0 3:2.0 4:1.0 5:1.0 6:1.0 11:1.0 
0.0 1.0 1:1.0 3:2.0 6:2.0 20:1.0 
0.0 1.0 3:7.0 5:1.0 6:5.0 
0.904154756004021 0.0 1:3.0 3:5.0 5:3.0 6:4.0 10:2.0 12:1.0 20:1.0 
0.0 1.0 3:2.0 4:2.0 6:2.0 11:1.0 
1.0 1.0 1:2.0 2:1.0 3:4.0 5:2.0 6:1.0 11:1.0 20:1.0 
0.0 1.0 1:2.0 3:2.0 6:2.0 20:2.0 
0.0 1.0 1:1.0 3:2.0 4:3.0 5:1.0 6:2.0 11:1.0 12:1.0 15:8.0 20:1.0 
0.0 1.0 1:1.0 4:1.0 7:1.0 17:1.0 20:1.0 
0.0 0.4227877718183706 1:2.0 3:8.0 4:4.0 5:7.0 6:8.0 10:2.0 11:2.0 12:2.0 15:2.0 20:2.0 
0.48976389940301973 0.0 2:3.0 3:10.0 4:4.0 5:8.0 6:18.0 10:2.0 11:3.0 12:2.0 20:1.0 32:1.0 33:8.0 38:1.0 
0.0 1.0 5:1.0 6:2.0 7:1.0 12:1.0 17:1.0 
0.0 1.0 1:2.0 3:2.0 6:2.0 20:2.0 
0.0 1.0 1:1.0 3:2.0 5:2.0 6:1.0 12:1.0 20:1.0 
0.0 1.0 1:1.0 3:4.0 5:4.0 6:7.0 7:1.0 11:3.0 17:1.0 20:1.0 
0.06952922704322817 0.0 3:4.0 5:2.0 6:2.0 
0.0 1.0 1:1.0 3:1.0 20:1.0 
0.0 1.0 1:3.0 3:9.0 5:7.0 6:8.0 11:3.0 12:1.0 13:1.0 14:2.0 20:1.0 22:2.0 26:6.0 
0.0 1.0 7:1.0 17:1.0 
0.0 1.0 1:1.0 3:1.0 5:1.0 6:1.0 12:1.0 15:8.0 20:1.0 
0.0 1.0 1:1.0 3:2.0 4:1.0 5:3.0 6:4.0 11:2.0 12:2.0 15:8.0 20:3.0 
0.0 1.0 1:1.0 3:1.0 5:1.0 6:2.0 12:1.0 15:8.0 20:1.0 
0.4856973845720063 0.0 6:2.0 10:1.0 14:1.0 
0.0 1.0 6:3.0 7:1.0 17:1.0 
0.0 1.0 1:1.0 3:2.0 20:1.0 
0.0 1.0 1:1.0 3:3.0 4:1.0 5:3.0 6:4.0 12:1.0 15:8.0 26:1.0 
0.0 1.0 3:2.0 5:1.0 7:1.0 11:1.0 14:1.0 23:1.0 
0.0 1.0 1:1.0 6:2.0 14:1.0 20:1.0 
0.0 1.0 1:1.0 3:2.0 5:1.0 6:1.0 12:1.0 20:1.0 
0.0 1.0 3:1.0 6:1.0 13:1.0 16:2.0 
0.009433533592481124 0.0 3:2.0 5:1.0 6:1.0 10:1.0 11:1.0 12:1.0 15:2.0 
0.0 1.0 1:1.0 3:1.0 4:1.0 5:1.0 6:3.0 
0.0 1.0 1:1.0 2:1.0 3:7.0 4:2.0 5:3.0 6:1.0 11:2.0 20:1.0 26:1.0 
1.0 0.1557561574007747 1:1.0 2:1.0 3:7.0 5:1.0 6:9.0 9:1.0 20:2.0 25:1.0 
0.0 1.0 3:1.0 7:1.0 17:1.0 
0.0 1.0 1:1.0 3:1.0 4:1.0 5:1.0 6:1.0 7:1.0 14:1.0 20:1.0 23:1.0 
1.0 0.0 1:1.0 2:1.0 3:1.0 5:1.0 6:2.0 10:1.0 13:1.0 16:2.0 20:-2.0 
1.0 0.0 2:1.0 5:1.0 6:3.0 10:1.0 20:1.0 
1.0 0.0 3:1.0 6:2.0 12:1.0 14:1.0 
1.0 0.0 1:1.0 3:5.0 4:2.0 5:1.0 6:2.0 10:1.0 11:1.0 20:-1.0 
0.0 1.0 1:1.0 3:2.0 4:1.0 5:7.0 6:8.0 7:1.0 10:2.0 11:3.0 12:1.0 15:4.0 17:1.0 
0.0 1.0 3:1.0 13:1.0 16:2.0 
1.0 0.0 2:2.0 3:2.0 4:2.0 5:1.0 6:2.0 10:2.0 14:1.0 20:-1.0 
1.0 0.0 1:1.0 2:3.0 3:3.0 4:1.0 5:1.0 6:2.0 11:1.0 14:1.0 20:6.0 
0.0 1.0 3:1.0 4:2.0 7:1.0 11:1.0 14:1.0 23:1.0 
0.0 1.0 3:1.0 6:1.0 13:1.0 16:2.0 
0.6878911179071902 1.0 4:2.0 5:1.0 11:1.0 14:1.0 16:1.0 
1.0 1.0 1:1.0 3:1.0 5:2.0 6:1.0 10:1.0 11:1.0 20:-0.6 
0.0 1.0 3:1.0 7:1.0 17:1.0 
0.0 1.0 3:1.0 5:1.0 6:2.0 7:1.0 17:1.0 
0.3131100042771664 0.0 1:3.0 2:3.0 3:10.0 4:4.0 5:12.0 6:19.0 10:5.0 11:3.0 12:4.0 14:1.0 15:4.0 20:3.1 26:-1.0 
0.0 1.0 1:1.0 6:1.0 14:1.0 20:1.0 
0.0 1.0 2:1.0 6:1.0 20:1.0 
0.0 1.0 1:1.0 3:5.0 5:1.0 6:3.0 13:2.0 16:2.0 20:1.0 
0.0 1.0 1:1.0 3:6.0 4:2.0 6:3.0 11:1.0 14:1.0 26:1.5 
0.0 1.0 1:2.0 3:4.0 5:1.0 6:4.0 12:1.0 13:1.0 16:2.0 20:1.0 26:1.0 
1.0 0.0 1:1.0 2:4.0 3:10.0 4:3.0 5:4.0 6:7.0 8:1.0 10:1.0 24:1.0 26:2.0 
1.0 0.0 2:1.0 3:1.0 4:1.0 5:1.0 6:1.0 10:1.0 20:1.0 
0.0 1.0 1:1.0 3:4.0 4:3.0 5:3.0 6:1.0 12:2.0 13:1.0 20:1.0 22:2.0 
0.3779701495616842 0.0 1:2.0 2:3.0 3:8.0 4:1.0 5:2.0 6:11.0 11:1.0 12:1.0 15:8.0 20:5.0 
0.0 1.0 1:6.0 3:13.0 4:3.0 5:6.0 6:10.0 10:2.0 11:1.0 12:1.0 15:4.0 20:6.0 
0.0 0.9037521818997845 1:6.0 3:13.0 4:3.0 5:6.0 6:10.0 10:2.0 11:1.0 12:1.0 15:4.0 20:6.0 
0.3536473124886429 0.0 1:2.0 2:2.0 3:13.0 4:5.0 5:10.0 6:15.0 10:3.0 11:2.0 12:5.0 21:4.0 26:1.0 27:2.0 32:1.0 
0.0 1.0 1:6.0 3:18.0 4:4.0 5:7.0 6:10.0 11:4.0 12:1.0 20:6.0 
1.0 1.0 1:2.0 3:9.0 4:1.0 5:1.0 6:7.0 10:1.0 12:1.0 20:1.0 
0.0 1.0 1:1.0 3:7.0 4:1.0 5:1.0 6:2.0 11:3.0 13:1.0 16:2.0 20:1.0 
0.0 0.1944880919301197 1:9.0 2:1.0 3:17.0 4:8.0 5:2.0 6:14.0 11:1.0 12:1.0 20:8.0 21:4.0 26:2.0 
0.0 0.9280854870881641 1:9.0 2:3.0 3:20.0 4:10.0 6:7.0 20:3.0 26:1.0 32:8.0 
1.0 1.0 3:8.0 4:3.0 5:4.0 6:6.0 10:1.0 11:2.0 13:2.0 14:1.0 16:2.0 22:2.0 
0.0 1.0 1:1.0 3:1.0 4:1.0 6:2.0 20:1.0 
0.7227507013805893 0.2658193215733871 1:1.0 3:12.0 4:1.0 5:4.0 6:8.0 10:1.0 11:3.0 12:2.0 14:2.0 15:8.0 20:3.0 27:4.0 
0.0 0.5901562512623418 1:2.0 3:12.0 4:2.0 6:6.0 11:1.0 13:1.0 16:2.0 20:1.5 
1.0 0.9872199433519993 1:4.0 2:2.0 3:8.0 4:3.0 5:12.0 6:10.0 10:3.0 11:3.0 12:5.0 15:8.0 20:1.0 26:6.0 
0.3181107957316562 1.0 1:3.0 2:2.0 3:3.0 4:3.0 6:2.0 10:1.0 11:1.0 14:1.0 20:3.0 26:6.0 
0.0 1.0 4:1.0 5:2.0 
1.0 0.0 3:2.0 4:1.0 5:3.0 6:5.0 10:2.0 11:1.0 12:1.0 
0.5661776535775946 0.0 1:1.0 3:5.0 6:1.0 10:1.0 20:1.0 
1.0 1.0 4:1.0 5:1.0 9:1.0 11:2.0 19:1.0 
0.0 1.0 1:2.0 2:1.0 4:1.0 5:2.0 6:3.0 11:1.0 20:5.0 
0.0 1.0 1:1.0 2:1.0 3:6.0 4:2.0 5:2.0 6:1.0 10:1.0 11:1.0 20:2.0 
0.0 1.0 1:1.0 3:3.0 6:1.0 20:1.0 
0.0 1.0 3:4.0 13:1.0 16:2.0 
0.7737013298657377 1.0 1:1.0 5:3.0 10:1.0 
0.0 1.0 1:4.0 3:12.0 4:4.0 5:2.0 6:10.0 11:2.0 13:1.0 16:2.0 20:2.8 
0.0 1.0 1:5.0 3:6.0 5:3.0 6:6.0 11:1.0 14:1.0 20:6.0 
0.9251889033132854 0.0 1:1.0 2:1.0 3:6.0 5:4.0 6:6.0 10:2.0 11:2.0 12:3.0 14:1.0 15:2.0 
0.0 1.0 1:4.0 3:11.0 4:1.0 5:4.0 6:14.0 7:1.0 11:2.0 12:1.0 13:1.0 14:2.0 20:1.0 21:4.0 23:1.0 26:3.0 28:2.0 32:1.0 
0.0 1.0 1:2.0 3:3.0 5:2.0 6:5.0 10:1.0 13:2.0 14:1.0 22:2.0 28:2.0 32:2.0 
0.0 1.0 1:1.0 5:1.0 7:1.0 11:1.0 14:1.0 20:2.0 23:1.0 
0.0 1.0 1:2.0 3:2.0 6:1.0 13:1.0 16:2.0 
0.0 1.0 1:2.0 3:4.0 5:1.0 6:2.0 11:1.0 14:1.0 20:3.0 
1.0 1.0 4:1.0 9:1.0 19:1.0 
0.0 1.0 1:3.0 3:10.0 4:8.0 5:2.0 6:12.0 11:1.0 12:1.0 13:1.0 21:8.0 26:1.0 28:2.0 32:2.0 
0.0 1.0 3:1.0 5:1.0 6:1.0 11:1.0 12:1.0 
0.13871574790055344 0.0 1:1.0 2:1.0 3:5.0 4:2.0 5:3.0 6:2.0 10:2.0 12:1.0 20:2.0 
0.0 1.0 1:1.0 3:1.0 6:2.0 7:1.0 17:1.0 20:1.0 
0.0 1.0 4:1.0 
0.0 1.0 7:1.0 17:1.0 
1.0 0.0 2:2.0 3:2.0 5:1.0 6:2.0 20:2.0 
1.0 1.0 1:2.0 2:2.0 3:8.0 4:1.0 5:4.0 6:11.0 7:3.0 8:2.0 9:1.0 10:2.0 11:2.0 14:1.0 17:1.0 18:2.0 19:1.0 20:1.5 23:2.0 26:-1.0 
0.0 1.0 1:1.0 5:1.0 14:1.0 
1.0 0.0 1:1.0 3:1.0 6:4.0 9:1.0 19:1.0 20:1.0 
0.0 1.0 1:1.0 3:2.0 5:1.0 6:2.0 11:1.0 14:1.0 20:1.5 
1.0 1.0 3:1.0 7:1.0 9:2.0 17:1.0 19:2.0 
0.0 1.0 3:1.0 4:1.0 5:1.0 6:1.0 11:1.0 
1.0 0.4324234445019553 1:1.0 2:4.0 3:3.0 4:2.0 5:9.0 6:10.0 8:3.0 10:6.0 11:2.0 12:1.0 14:2.0 15:4.0 18:3.0 20:1.5 
1.0 0.0 5:4.0 6:5.0 10:1.0 11:1.0 12:1.0 15:8.0 
1.0 0.0 2:2.0 3:3.0 4:1.0 6:2.0 20:2.0 
0.22873361935643433 1.0 1:4.0 2:4.0 3:11.0 4:5.0 5:9.0 6:10.0 10:1.0 11:7.0 12:2.0 15:4.0 20:5.0 
0.0 0.8612767401430541 2:1.0 3:7.0 4:3.0 5:4.0 6:17.0 11:3.0 20:1.0 
0.0033451953513674044 0.0 1:3.0 2:5.0 3:11.0 4:3.0 5:10.0 6:18.0 10:2.0 11:1.0 12:5.0 14:1.0 15:4.0 20:2.0 27:4.0 32:1.0 
0.0 1.0 6:1.0 13:1.0 16:2.0 
0.0 0.291291304718559 2:1.0 3:7.0 5:1.0 6:4.0 10:1.0 20:1.0 
0.0 1.0 1:2.0 3:7.0 4:3.0 5:1.0 6:6.0 11:2.0 32:1.0 
0.0 1.0 1:8.0 3:12.0 4:4.0 5:2.0 6:10.0 11:4.0 13:2.0 20:4.0 22:2.0 26:1.0 28:2.0 32:4.0 
0.4346435094386577 1.0 1:3.0 2:2.0 3:4.0 4:2.0 5:3.0 6:6.0 11:2.0 12:1.0 15:8.0 20:2.5 26:3.0 
1.0 0.3167366002626763 1:1.0 2:5.0 3:2.0 4:2.0 5:6.0 6:11.0 10:1.0 11:2.0 12:1.0 14:1.0 15:8.0 26:2.0 
0.0 1.0 1:1.0 3:6.0 4:1.0 6:1.0 11:1.0 13:1.0 16:2.0 20:1.0 
0.965013516432772 1.0 1:2.0 2:1.0 3:3.0 4:2.0 5:5.0 6:5.0 10:2.0 11:1.0 12:1.0 14:1.0 21:8.0 26:1.0 
0.0 1.0 6:2.0 13:1.0 16:2.0 
0.0 1.0 1:1.0 3:2.0 20:1.0 
0.0 1.0 4:2.0 5:1.0 6:1.0 10:1.0 11:2.0 12:1.0 15:4.0 
0.0 1.0 1:1.0 3:4.0 4:5.0 5:2.0 6:9.0 11:1.0 12:1.0 20:1.0 21:2.0 
0.3992796445866855 0.6118375119253813 1:2.0 3:16.0 4:7.0 5:10.0 6:9.0 10:4.0 11:3.0 12:2.0 13:1.0 16:2.0 20:1.5 33:4.0 38:-1.0 
0.0 1.0 1:2.0 3:7.0 4:2.0 5:8.0 6:6.0 10:1.0 11:2.0 12:2.0 15:4.0 20:2.0 26:1.0 
1.0 1.0 1:2.0 3:7.0 4:2.0 5:12.0 6:7.0 10:2.0 11:2.0 12:1.0 14:1.0 20:2.0 21:4.0 
0.025336424519208818 0.0 1:2.0 3:16.0 4:1.0 5:2.0 6:1.0 10:1.0 11:1.0 14:1.0 26:1.0 50:-1.0 
0.0 1.0 1:1.0 4:1.0 6:1.0 20:1.0 
0.0 1.0 1:2.0 3:2.0 5:3.0 6:4.0 10:1.0 11:1.0 20:3.0 
0.0 1.0 1:1.0 3:1.0 6:1.0 7:1.0 17:1.0 20:1.0 
1.0 0.0 3:1.0 8:1.0 18:1.0 
0.0 1.0 5:1.0 6:1.0 7:1.0 17:1.0 
0.0 1.0 1:1.0 6:1.0 14:1.0 20:1.0 
0.0 1.0 3:1.0 7:1.0 17:1.0 
1.0 0.0 6:1.0 9:1.0 19:1.0 
0.0 1.0 7:1.0 17:1.0 
1.0 1.0 2:1.0 3:1.0 6:1.0 26:1.0 
0.7891063970245393 0.0 1:1.0 2:2.0 3:3.0 6:6.0 14:1.0 20:1.0 26:2.0 
0.0 1.0 3:1.0 6:1.0 13:1.0 14:1.0 16:2.0 
0.0 1.0 1:1.0 4:2.0 20:1.0 
0.4163113734834126 1.0 1:2.0 2:1.0 3:2.0 5:1.0 10:1.0 12:1.0 15:4.0 20:2.0 
0.0 1.0 1:2.0 3:3.0 4:1.0 5:1.0 6:2.0 20:2.0 
1.0 1.0 5:2.0 11:2.0 
1.0 0.0 3:3.0 5:1.0 6:1.0 8:1.0 9:1.0 10:1.0 18:1.0 19:1.0 
0.0 1.0 1:1.0 3:1.0 5:2.0 6:4.0 7:1.0 11:1.0 17:1.0 20:1.0 
0.0 1.0 4:1.0 5:2.0 10:1.0 11:2.0 
0.0 1.0 1:1.0 6:1.0 
0.0 1.0 3:1.0 6:1.0 7:1.0 17:1.0 
0.0 1.0 3:1.0 7:1.0 17:1.0 
1.0 0.0 6:2.0 14:2.0 
0.0 1.0 4:1.0 7:1.0 17:1.0 
0.0 1.0 1:1.0 5:1.0 6:1.0 20:1.0 
0.0 1.0 7:3.0 17:3.0 
0.0 1.0 6:1.0 7:1.0 17:1.0 
1.0 1.0 2:1.0 3:1.0 4:1.0 6:1.0 11:2.0 20:4.5 
1.0 1.0 1:1.0 3:2.0 4:1.0 5:4.0 6:2.0 8:1.0 11:2.0 13:2.0 16:2.0 22:2.0 26:1.0 30:1.0 
1.0 1.0 1:1.0 3:2.0 4:1.0 5:3.0 6:4.0 7:1.0 8:1.0 11:3.0 17:1.0 18:1.0 20:3.3 
1.0 0.0 2:1.0 3:1.0 8:1.0 18:1.0 20:1.0 
0.0 1.0 1:1.0 5:5.0 6:2.0 10:2.0 11:2.0 12:1.0 15:4.0 20:-0.32 
1.0 1.0 2:1.0 3:2.0 6:3.0 13:1.0 16:2.0 20:1.0 
1.0 1.0 5:1.0 6:3.0 10:1.0 13:1.0 16:2.0 
0.0 1.0 1:5.0 3:14.0 4:3.0 5:1.0 6:8.0 10:2.0 11:1.0 14:2.0 20:1.0 26:1.0 38:1.0 44:2.0 
0.0 1.0 3:2.0 6:2.0 13:1.0 16:2.0 
1.0 1.0 3:2.0 4:1.0 5:2.0 6:4.0 11:1.0 12:1.0 13:2.0 16:2.0 22:2.0 
0.0 1.0 1:2.0 3:2.0 5:1.0 6:2.0 20:2.0 
0.0 1.0 3:7.0 5:2.0 6:4.0 12:4.0 15:4.0 
1.0 0.0 1:1.0 2:2.0 3:1.0 4:2.0 6:2.0 14:1.0 20:3.0 
0.0012986976574424788 1.0 1:5.0 3:21.0 4:2.0 5:4.0 6:8.0 11:3.0 12:2.0 15:4.0 20:7.0 
0.0 0.5116507531018349 1:9.0 3:15.0 4:2.0 5:3.0 6:6.0 11:3.0 20:10.0 
0.0 1.0 1:5.0 3:12.0 4:2.0 5:1.0 6:4.0 11:1.0 20:7.0 
0.2343393649903363 0.0 8:2.0 18:2.0 
0.0 0.5839326803214602 8:2.0 18:2.0 
1.0 1.0 6:1.0 8:1.0 13:1.0 16:2.0 24:1.0 
0.0 1.0 8:2.0 18:2.0 
0.0 0.8513841493774622 3:3.0 4:1.0 13:1.0 28:2.0 
0.0 1.0 3:6.0 4:1.0 5:4.0 6:5.0 11:2.0 13:1.0 22:2.0 
0.0 1.0 4:1.0 5:3.0 6:3.0 7:2.0 10:2.0 11:1.0 12:1.0 15:4.0 23:2.0 
1.0 1.0 2:1.0 3:5.0 5:2.0 6:8.0 7:1.0 8:1.0 13:2.0 32:1.0 34:2.0 42:1.0 52:2.0 59:1.0 
0.0 1.0 1:3.0 2:1.0 3:5.0 5:2.0 6:6.0 11:1.0 13:1.0 20:2.0 22:2.0 26:4.0 
0.0 1.0 3:6.0 4:1.0 5:1.0 6:4.0 11:1.0 
0.0 1.0 5:1.0 13:1.0 16:2.0 
0.0 1.0 1:1.0 3:2.0 4:4.0 5:6.0 6:3.0 7:1.0 10:2.0 11:6.0 12:1.0 20:1.0 29:1.0 
0.0 1.0 6:1.0 7:1.0 14:1.0 23:1.0 
0.0 1.0 1:1.0 3:1.0 6:2.0 13:1.0 16:2.0 20:1.0 
1.0 0.0 3:4.0 6:3.0 14:1.0 
0.0 1.0 11:1.0 
0.0 1.0 6:2.0 7:1.0 17:1.0 
0.27466602879434554 1.0 2:4.0 3:8.0 6:2.0 7:2.0 20:1.0 26:3.0 29:2.0 
0.0 1.0 13:1.0 16:2.0 
0.0 1.0 4:1.0 
1.0 1.0 6:2.0 8:1.0 11:2.0 18:1.0 
1.0 0.0 1:1.0 3:1.0 6:2.0 8:1.0 12:1.0 14:1.0 24:1.0 
0.0 1.0 3:1.0 11:1.0 
1.0 0.0 8:3.0 18:3.0 
1.0 1.0 1:1.0 6:1.0 8:1.0 24:1.0 
1.0 1.0 3:1.0 4:1.0 5:1.0 6:1.0 8:1.0 13:1.0 16:2.0 24:1.0 
0.0 1.0 1:1.0 2:1.0 3:8.0 5:3.0 6:5.0 7:1.0 8:1.0 11:2.0 14:1.0 23:1.0 24:1.0 26:1.0 
0.0 1.0 1:4.0 3:7.0 4:1.0 5:1.0 6:5.0 14:1.0 20:4.0 
0.6434073755878195 1.0 1:2.0 2:1.0 3:4.0 4:2.0 5:2.0 6:2.0 11:2.0 12:3.0 15:4.0 20:3.0 
1.0 0.0 2:1.0 3:7.0 4:1.0 5:3.0 6:1.0 10:1.0 12:1.0 20:1.0 
0.0 0.851628646240679 1:1.0 2:1.0 3:9.0 4:4.0 5:7.0 6:2.0 10:2.0 11:5.0 12:2.0 21:4.0 26:7.2 
0.0 1.0 1:1.0 5:1.0 20:1.0 
0.0 1.0 1:1.0 3:1.0 5:1.0 6:2.0 10:1.0 
0.10878069596189177 1.0 1:1.0 3:3.0 6:1.0 12:1.0 15:4.0 20:1.0 
0.0 0.8448868432889565 1:5.0 3:11.0 4:1.0 6:6.0 11:1.0 12:1.0 15:4.0 20:5.0 
1.0 1.0 1:2.0 2:1.0 3:2.0 4:2.0 5:1.0 6:2.0 10:1.0 13:1.0 16:2.0 20:-3.0 
0.0 1.0 1:2.0 3:5.0 4:1.0 20:2.0 
0.0 1.0 1:1.0 3:4.0 6:4.0 11:1.0 12:1.0 15:4.0 20:1.0 
0.0 1.0 1:4.0 2:2.0 3:23.0 4:6.0 5:3.0 6:7.0 10:1.0 11:3.0 12:2.0 13:2.0 20:2.0 21:2.0 26:3.0 27:4.0 28:2.0 
0.0 1.0 1:2.0 3:11.0 4:2.0 5:3.0 6:4.0 11:1.0 12:1.0 20:3.0 
1.0 1.0 1:1.0 2:1.0 3:4.0 4:2.0 5:2.0 6:2.0 12:1.0 15:8.0 20:2.0 
0.07665834058649079 0.0 1:2.0 3:19.0 4:2.0 5:2.0 6:3.0 11:3.0 12:1.0 15:8.0 20:1.0 
1.0 0.0 3:3.0 5:2.0 6:2.0 
0.0 1.0 1:1.0 3:4.0 5:2.0 6:6.0 11:2.0 12:2.0 15:8.0 20:1.0 
0.0 1.0 1:1.0 3:1.0 5:1.0 6:3.0 20:1.0 
0.0 1.0 1:2.0 3:8.0 4:2.0 5:3.0 6:2.0 12:1.0 20:2.0 
0.0 1.0 1:3.0 3:4.0 6:2.0 20:3.0 
0.3233190235538317 1.0 1:4.0 2:1.0 3:13.0 4:4.0 5:2.0 6:4.0 10:1.0 12:1.0 15:2.0 20:1.0 
0.0 1.0 1:3.0 3:10.0 4:1.0 5:1.0 6:1.0 11:1.0 20:2.0 
0.0 1.0 3:2.0 4:2.0 
0.0 1.0 1:1.0 6:1.0 14:1.0 
0.06945131875966726 0.5077516773407812 1:1.0 3:21.0 4:10.0 5:2.0 6:20.0 11:2.0 12:1.0 14:1.0 32:2.0 39:4.0 
0.19547163218122665 0.18398403666738453 1:1.0 2:1.0 3:15.0 4:3.0 5:5.0 6:7.0 11:5.0 12:2.0 15:8.0 20:1.0 26:1.0 
1.0 0.0 3:1.0 5:3.0 6:1.0 10:1.0 12:2.0 15:2.0 
0.822387505285404 0.0 3:1.0 4:2.0 6:2.0 12:1.0 15:4.0 
0.0 1.0 7:1.0 17:1.0 
0.0 1.0 1:1.0 3:2.0 4:2.0 6:1.0 20:1.0 
1.0 0.0 2:1.0 3:3.0 4:2.0 5:2.0 6:2.0 11:1.0 12:1.0 15:4.0 20:1.5 
1.0 1.0 4:1.0 5:1.0 11:1.0 13:1.0 16:2.0 
0.0 0.5801945485134345 1:2.0 2:1.0 3:5.0 4:3.0 5:2.0 6:3.0 10:1.0 20:3.0 
0.0 1.0 1:1.0 3:1.0 4:1.0 6:1.0 20:1.0 
0.0 0.6627940384951804 2:2.0 3:7.0 4:1.0 5:6.0 6:2.0 10:1.0 11:2.0 12:2.0 15:2.0 26:1.0 
0.9036604102316549 0.0 1:2.0 2:3.0 3:12.0 4:4.0 5:5.0 6:14.0 10:2.0 11:2.0 20:2.5 26:-1.0 
0.0 1.0 7:1.0 17:1.0 
0.0 1.0 3:1.0 5:1.0 11:1.0 
1.0 0.0 1:2.0 2:3.0 3:10.0 4:3.0 5:4.0 6:10.0 10:1.0 11:4.0 20:2.5 26:1.0 
0.0 1.0 3:2.0 4:1.0 5:1.0 11:1.0 
0.0 1.0 3:1.0 4:1.0 5:1.0 6:1.0 11:1.0 12:1.0 15:8.0 
0.0 1.0 5:1.0 6:2.0 7:1.0 10:1.0 17:1.0 
1.0 1.0 1:1.0 5:1.0 6:2.0 10:1.0 
0.27319942839007844 1.0 1:3.0 2:2.0 3:8.0 4:4.0 5:3.0 6:12.0 11:1.0 12:1.0 15:8.0 20:5.7 
0.0 1.0 1:1.0 3:1.0 6:1.0 20:1.0 
0.0 1.0 1:1.0 6:1.0 20:1.0 
0.0 1.0 1:3.0 3:9.0 4:2.0 5:2.0 6:2.0 11:1.0 20:3.0 
0.0 1.0 1:1.0 3:1.0 4:1.0 20:1.0 
1.0 1.0 2:1.0 3:2.0 4:1.0 5:1.0 6:2.0 10:1.0 13:1.0 16:2.0 20:1.0 
0.0 1.0 1:1.0 3:3.0 4:1.0 5:3.0 6:2.0 11:1.0 20:1.0 
0.19813558842573822 0.42697026409517036 1:7.0 2:1.0 3:13.0 4:2.0 5:4.0 6:16.0 11:5.0 12:1.0 13:1.0 26:2.0 32:2.0 38:2.0 44:0.8 45:8.0 46:2.0 50:2.4 
0.0 1.0 1:1.0 2:1.0 3:2.0 6:1.0 20:2.0 
0.0 1.0 1:1.0 3:1.0 5:1.0 6:4.0 20:1.0 
0.9427464883611073 0.0 1:1.0 3:7.0 4:1.0 5:2.0 6:5.0 12:1.0 14:1.0 20:1.0 
0.0 1.0 1:1.0 3:4.0 4:1.0 5:4.0 6:3.0 7:1.0 10:1.0 11:1.0 17:1.0 
0.0 1.0 3:1.0 6:2.0 13:1.0 16:2.0 
1.0 0.0 1:1.0 3:4.0 6:2.0 14:1.0 20:1.0 
0.004954839485533137 1.0 6:2.0 11:1.0 
0.0 1.0 1:1.0 3:1.0 4:1.0 6:4.0 20:1.0 
0.0 1.0 3:2.0 4:1.0 5:1.0 6:1.0 11:1.0 12:1.0 
0.0 1.0 3:6.0 4:2.0 5:3.0 6:2.0 10:1.0 11:1.0 12:1.0 
0.0 1.0 1:1.0 3:1.0 6:1.0 20:1.0 
0.0 1.0 3:1.0 4:1.0 5:1.0 11:1.0 
0.0 1.0 4:1.0 5:1.0 6:1.0 11:1.0 13:1.0 14:1.0 22:2.0 
0.0 1.0 3:1.0 6:1.0 13:1.0 16:2.0 
0.0 1.0 3:1.0 6:2.0 7:1.0 17:1.0 
1.0 0.6427113957484604 5:1.0 12:1.0 15:8.0 
0.0 1.0 1:1.0 3:6.0 4:2.0 5:4.0 6:10.0 11:1.0 13:2.0 16:2.0 20:1.0 22:2.0 
0.0 0.9899643211479758 1:5.0 2:1.0 3:9.0 4:2.0 5:3.0 6:8.0 10:1.0 11:4.0 12:1.0 15:4.0 20:8.0 
0.0 1.0 3:4.0 4:1.0 5:1.0 6:2.0 12:1.0 13:1.0 15:8.0 16:2.0 
0.0 1.0 1:5.0 2:1.0 3:9.0 4:2.0 5:3.0 6:8.0 10:1.0 11:4.0 12:1.0 15:4.0 20:8.0 
0.0 1.0 3:6.0 5:2.0 6:1.0 11:1.0 
0.0 1.0 1:2.0 3:7.0 4:2.0 20:2.0 
0.0 0.1658375733696057 1:4.0 3:16.0 4:2.0 5:2.0 6:9.0 11:1.0 12:3.0 15:1.0 20:3.0 
0.0 1.0 3:6.0 6:2.0 13:2.0 16:2.0 22:2.0 
0.0 1.0 1:1.0 3:4.0 4:1.0 6:2.0 20:1.0 
0.0 1.0 1:1.0 3:2.0 5:1.0 6:3.0 13:1.0 22:2.0 26:1.0 
0.6204777825451212 1.0 1:2.0 2:2.0 3:18.0 4:1.0 5:4.0 6:12.0 10:3.0 20:4.0 
0.0 1.0 1:8.0 2:1.0 3:14.0 4:2.0 5:1.0 6:13.0 13:2.0 14:1.0 16:2.0 20:1.0 26:2.0 28:2.0 32:2.0 38:4.0 
0.0 1.0 1:2.0 3:11.0 4:3.0 6:3.0 11:1.0 20:1.0 26:1.0 
0.0 1.0 1:5.0 3:7.0 4:2.0 6:5.0 20:4.0 
0.0 1.0 1:4.0 3:12.0 4:2.0 5:1.0 6:4.0 11:1.0 12:1.0 15:8.0 20:4.0 
0.0 1.0 1:1.0 5:2.0 6:3.0 7:1.0 17:1.0 20:1.0 
0.0 1.0 3:3.0 4:1.0 5:1.0 6:5.0 11:1.0 
0.0 1.0 1:2.0 3:5.0 4:1.0 5:1.0 6:3.0 7:1.0 10:1.0 14:1.0 23:1.0 26:1.0 
0.0 0.654901457988324 1:3.0 2:4.0 3:9.0 4:2.0 5:2.0 6:10.0 12:1.0 13:1.0 20:5.0 21:4.0 28:2.0 38:1.0 
0.0 0.7127490098462017 1:4.0 3:10.0 4:2.0 5:5.0 6:9.0 10:2.0 11:1.0 12:1.0 13:1.0 14:2.0 20:2.0 27:8.0 32:1.0 40:2.0 44:1.0 
0.0 1.0 1:1.0 3:1.0 5:1.0 11:1.0 20:1.5 
0.0 1.0 5:1.0 6:1.0 13:1.0 16:2.0 
0.0 1.0 6:1.0 7:1.0 11:1.0 14:1.0 23:1.0 
0.0 1.0 7:1.0 17:1.0 
0.0 0.23929504917145641 1:1.0 6:3.0 14:1.0 
1.0 1.0 3:1.0 4:1.0 5:1.0 8:1.0 11:1.0 18:1.0 
0.08350423275247781 0.0 2:2.0 3:8.0 4:1.0 6:4.0 14:2.0 32:2.0 
0.0 1.0 3:1.0 6:1.0 13:1.0 16:2.0 
0.0 0.35128136058315895 3:4.0 5:1.0 6:1.0 11:1.0 
1.0 1.0 1:1.0 3:2.0 4:1.0 5:1.0 11:1.0 20:2.0 
0.0 1.0 1:2.0 3:4.0 4:2.0 5:1.0 6:2.0 12:1.0 20:2.0 
0.0 1.0 6:1.0 13:1.0 16:2.0 
0.22068625435422978 0.0 1:4.0 2:3.0 3:11.0 4:1.0 5:7.0 6:21.0 10:5.0 11:3.0 12:2.0 14:1.0 15:4.0 20:2.0 21:2.0 26:1.0 38:1.0 
1.0 0.0 1:1.0 2:3.0 3:2.0 4:2.0 5:1.0 6:2.0 10:1.0 20:1.0 26:-1.0 
0.0 1.0 3:1.0 4:1.0 6:1.0 11:1.0 
0.0 1.0 1:1.0 3:2.0 6:1.0 20:1.0 
0.7394282542766113 0.0 1:4.0 2:3.0 3:8.0 4:2.0 5:10.0 6:9.0 10:2.0 11:3.0 12:5.0 20:4.8 21:2.0 26:2.0 27:2.0 32:1.0 
0.0 1.0 1:1.0 2:2.0 3:5.0 4:2.0 5:6.0 6:10.0 10:1.0 11:4.0 12:2.0 15:4.0 20:1.0 
0.0 1.0 6:1.0 13:1.0 16:2.0 
0.423918485878156 1.0 1:2.0 3:4.0 6:1.0 20:2.0 
1.0 0.03393650290555294 1:2.0 2:4.0 3:11.0 4:2.0 5:7.0 6:18.0 10:3.0 11:3.0 12:2.0 20:1.0 26:3.0 32:-1.0 
0.0 1.0 1:1.0 3:1.0 6:2.0 20:1.0 
0.0 0.766089531757316 1:2.0 2:2.0 3:12.0 4:1.0 5:6.0 6:14.0 12:1.0 15:4.0 20:2.0 
0.0 1.0 1:1.0 2:1.0 3:1.0 4:1.0 6:3.0 20:2.0 
0.0 1.0 3:9.0 6:3.0 13:2.0 16:2.0 22:2.0 
0.0 1.0 1:2.0 2:1.0 3:5.0 6:1.0 20:3.0 
0.0 1.0 1:1.0 2:1.0 3:1.0 5:3.0 6:5.0 10:1.0 11:1.0 26:4.0 
1.0 1.0 1:2.0 3:3.0 4:1.0 5:1.0 6:8.0 11:1.0 12:1.0 15:8.0 20:4.0 
0.0 1.0 1:1.0 3:2.0 13:1.0 16:2.0 20:1.0 
0.12750465283548734 1.0 1:2.0 3:2.0 5:1.0 6:1.0 20:1.0 
0.04969564208136926 1.0 1:3.0 2:2.0 3:17.0 4:6.0 5:6.0 6:6.0 10:1.0 11:2.0 12:2.0 13:1.0 15:4.0 20:4.7 21:8.0 26:1.0 28:2.0 
0.0 1.0 1:1.0 3:6.0 4:2.0 5:1.0 6:5.0 11:1.0 20:1.0 
0.0 1.0 3:1.0 13:1.0 16:2.0 
0.11053263454075585 0.135747137163833 1:1.0 2:2.0 3:16.0 4:5.0 5:3.0 6:18.0 11:2.0 12:3.0 26:1.0 27:8.0 32:2.0 
0.0 1.0 1:1.0 20:1.0 
1.0 0.0 5:1.0 6:1.0 8:1.0 10:1.0 18:1.0 
1.0 0.0 9:1.0 19:1.0 
0.0 1.0 7:1.0 17:1.0 
0.0 1.0 3:2.0 7:1.0 17:1.0 
0.0 1.0 1:1.0 5:1.0 6:1.0 
0.0 1.0 3:1.0 6:2.0 7:1.0 17:1.0 
1.0 0.26303413473478965 5:1.0 6:1.0 8:1.0 11:1.0 12:1.0 15:8.0 18:1.0 
0.0 1.0 3:2.0 4:2.0 8:1.0 18:1.0 
0.7269520248926263 0.39012016401617927 1:5.0 2:1.0 3:11.0 4:2.0 5:10.0 6:11.0 9:1.0 10:2.0 11:2.0 12:4.0 13:1.0 14:1.0 15:1.0 20:1.0 21:1.0 26:2.5 31:1.0 33:2.0 38:1.0 40:2.0 
0.48450966335553236 0.4275733360605871 1:2.0 2:1.0 3:4.0 5:4.0 6:7.0 10:2.0 13:2.0 14:2.0 32:-1.0 38:1.0 44:1.0 46:2.0 52:2.0 
0.0 1.0 3:2.0 4:1.0 7:1.0 17:1.0 
1.0 1.0 1:1.0 2:1.0 4:1.0 6:4.0 8:1.0 11:1.0 18:1.0 20:1.5 
0.0 1.0 3:1.0 6:1.0 7:1.0 17:1.0 
0.4049208365032691 0.5982219506061459 3:2.0 5:1.0 6:4.0 12:1.0 13:1.0 14:6.0 39:8.0 40:2.0 
0.0 1.0 6:1.0 7:1.0 17:1.0 
1.0 0.0 2:1.0 6:3.0 8:1.0 10:1.0 18:1.0 20:-1.0 
0.0 1.0 1:1.0 3:2.0 5:1.0 
0.2218723591074014 0.24891370188665432 1:6.0 2:4.0 3:17.0 5:3.0 6:24.0 10:2.0 12:2.0 13:2.0 20:-1.0 26:1.0 28:2.0 32:2.0 33:4.0 39:4.0 40:2.0 
0.0 1.0 3:1.0 7:1.0 14:1.0 23:1.0 
0.0 1.0 13:1.0 16:2.0 
1.0 0.0 8:3.0 18:3.0 
0.0 1.0 3:1.0 6:1.0 7:2.0 17:2.0 
1.0 1.0 2:1.0 3:3.0 4:2.0 5:2.0 6:6.0 10:1.0 11:2.0 12:1.0 13:1.0 16:2.0 20:1.0 
0.0 1.0 7:1.0 17:1.0 
0.0 1.0 3:3.0 6:3.0 7:4.0 11:1.0 17:4.0 
0.0 1.0 3:1.0 4:2.0 6:1.0 
0.0 1.0 1:1.0 3:11.0 4:6.0 5:4.0 6:10.0 7:1.0 10:1.0 11:2.0 14:1.0 20:1.0 29:1.0 
0.0 1.0 7:1.0 17:1.0 
1.0 0.0 2:1.0 3:1.0 4:1.0 5:2.0 6:3.0 10:2.0 11:1.0 20:-1.0 
1.0 1.0 2:1.0 3:1.0 4:1.0 20:1.0 
1.0 1.0 3:1.0 4:1.0 5:1.0 6:3.0 7:1.0 8:1.0 10:1.0 17:1.0 18:1.0 
0.0 1.0 1:1.0 3:3.0 4:1.0 5:2.0 6:2.0 20:1.0 
0.0 1.0 3:1.0 4:1.0 7:1.0 17:1.0 
0.0 1.0 6:2.0 13:1.0 16:2.0 
1.0 1.0 1:1.0 3:1.0 4:1.0 9:3.0 19:3.0 20:1.0 
0.0 1.0 1:2.0 3:7.0 4:2.0 6:2.0 11:1.0 20:3.0 
0.0 1.0 1:2.0 3:7.0 5:2.0 6:3.0 11:1.0 12:1.0 15:8.0 20:4.0 
0.0 0.6420038092086519 1:6.0 3:18.0 4:4.0 5:2.0 6:5.0 11:4.0 12:1.0 20:6.7 26:1.0 
0.13389008589468376 0.0 1:3.0 2:3.0 3:13.0 5:4.0 6:13.0 10:2.0 11:2.0 12:1.0 26:2.5 32:1.0 
0.0 1.0 1:4.0 2:1.0 3:17.0 4:3.0 5:5.0 6:3.0 11:4.0 13:1.0 26:3.0 28:2.0 32:3.0 
1.0 1.0 1:1.0 3:5.0 5:2.0 6:1.0 11:1.0 20:2.0 
0.009227124071731862 1.0 1:3.0 3:3.0 4:3.0 5:4.0 6:2.0 10:1.0 11:1.0 12:2.0 14:1.0 15:8.0 20:-0.2 26:1.0 
0.0 0.584469076910298 1:1.0 3:5.0 5:2.0 6:3.0 10:1.0 12:1.0 13:1.0 14:1.0 22:2.0 27:4.0 32:-1.0 
0.0 1.0 1:5.0 3:15.0 4:5.0 5:3.0 6:7.0 11:1.0 12:1.0 15:8.0 20:2.0 26:3.0 
0.16527593354700978 0.0 1:1.0 2:2.0 3:17.0 4:2.0 5:3.0 6:8.0 11:1.0 12:1.0 20:1.0 26:1.0 27:4.0 
1.0 1.0 1:1.0 2:1.0 3:2.0 6:2.0 13:1.0 16:2.0 20:2.0 
0.0 0.9397913605774764 1:6.0 2:1.0 3:23.0 4:3.0 5:5.0 6:12.0 10:1.0 11:4.0 12:2.0 15:4.0 20:5.0 26:3.0 
0.0 1.0 1:3.0 3:2.0 6:2.0 14:2.0 20:2.0 26:1.0 
1.0 1.0 1:1.0 3:4.0 6:1.0 11:1.0 20:1.5 
0.0 1.0 1:5.0 3:11.0 4:4.0 5:2.0 6:5.0 11:1.0 20:4.0 
0.0 1.0 3:4.0 4:1.0 6:2.0 11:1.0 13:1.0 16:2.0 
0.1322667860926252 0.5957180242051675 1:7.0 2:7.0 3:23.0 4:2.0 5:1.0 6:8.0 14:2.0 20:1.0 26:8.0 32:4.0 
0.0 1.0 1:1.0 3:4.0 5:2.0 6:1.0 7:1.0 10:1.0 11:1.0 12:1.0 20:1.5 21:4.0 35:1.0 
0.0 1.0 3:4.0 6:1.0 7:2.0 29:2.0 
0.0 1.0 1:1.0 3:6.0 5:1.0 6:3.0 12:1.0 13:1.0 15:8.0 26:1.0 28:2.0 
0.0 1.0 1:1.0 3:1.0 4:1.0 5:1.0 6:4.0 7:1.0 10:1.0 12:1.0 15:2.0 26:1.0 29:1.0 
0.0 1.0 3:1.0 6:1.0 7:1.0 8:1.0 23:1.0 24:1.0 
0.0 1.0 2:1.0 3:2.0 7:2.0 20:1.0 23:2.0 
1.0 1.0 3:2.0 4:1.0 5:2.0 6:1.0 11:1.0 
1.0 0.0 5:2.0 6:1.0 8:1.0 12:1.0 15:8.0 24:1.0 
0.0 1.0 4:1.0 6:1.0 
1.0 0.0 1:1.0 3:7.0 6:2.0 14:1.0 26:1.0 
1.0 0.0 2:1.0 3:2.0 6:4.0 10:1.0 13:1.0 16:2.0 20:-1.0 
0.0 1.0 3:2.0 13:1.0 16:2.0 
0.0 1.0 1:1.0 3:3.0 6:1.0 20:1.0 
0.0 1.0 1:1.0 3:3.0 4:1.0 6:2.0 20:1.0 
1.0 0.0 3:4.0 5:1.0 6:3.0 
0.0 1.0 6:1.0 13:1.0 16:2.0 
1.0 1.0 1:2.0 2:2.0 3:2.0 4:2.0 5:1.0 6:3.0 13:1.0 16:2.0 20:3.0 
0.0 1.0 6:1.0 13:1.0 16:2.0 
1.0 1.0 6:1.0 9:1.0 13:1.0 16:2.0 25:1.0 
0.0 1.0 1:1.0 3:1.0 6:1.0 20:1.0 
1.0 1.0 1:1.0 4:1.0 6:2.0 8:1.0 18:1.0 20:1.0 
1.0 0.0 3:1.0 6:3.0 8:1.0 18:1.0 
1.0 1.0 2:1.0 3:1.0 5:1.0 6:3.0 10:1.0 13:1.0 16:2.0 20:1.0 
1.0 1.0 1:1.0 3:1.0 6:1.0 8:2.0 18:2.0 
0.0 0.8903368367839469 3:7.0 4:2.0 5:3.0 6:5.0 11:2.0 12:1.0 15:8.0 
0.20703246336969855 1.0 1:3.0 2:4.0 3:11.0 4:5.0 5:3.0 6:1.0 12:1.0 20:2.0 32:2.0 38:2.0 44:1.0 
0.0 1.0 1:1.0 3:1.0 20:1.0 
1.0 0.0 1:1.0 3:4.0 4:1.0 5:4.0 6:3.0 10:3.0 11:1.0 
0.0 1.0 6:1.0 7:1.0 17:1.0 
1.0 0.0 1:1.0 3:6.0 4:1.0 5:2.0 6:4.0 10:1.0 14:1.0 
0.0 1.0 1:8.0 3:11.0 4:7.0 5:3.0 6:3.0 20:4.0 26:3.0 
1.0 1.0 1:1.0 3:4.0 5:2.0 6:2.0 11:1.0 20:1.0 
0.0 1.0 5:1.0 6:1.0 7:1.0 17:1.0 
0.0 1.0 1:2.0 2:1.0 3:4.0 4:2.0 5:2.0 6:2.0 11:2.0 12:3.0 15:4.0 20:3.0 
1.0 0.0 4:1.0 5:3.0 6:5.0 10:1.0 11:1.0 
0.0 0.4420973989126754 1:1.0 3:16.0 4:6.0 5:6.0 6:16.0 
0.0 1.0 4:1.0 5:1.0 11:1.0 
0.0 1.0 7:1.0 17:1.0 
0.0 0.37713081472918836 1:2.0 3:21.0 4:4.0 5:4.0 6:15.0 11:3.0 20:1.0 26:1.0 
0.0 1.0 3:3.0 4:1.0 5:1.0 6:4.0 11:1.0 
0.0 1.0 1:1.0 3:3.0 4:1.0 6:1.0 20:1.0 
0.933321027011601 1.0 1:1.0 2:1.0 3:10.0 6:4.0 10:1.0 13:1.0 14:2.0 20:1.0 22:2.0 
0.09392908952671304 0.0 1:7.0 3:14.0 6:18.0 11:2.0 12:1.0 20:2.0 26:3.0 27:4.0 
0.0 1.0 1:2.0 3:1.0 4:1.0 5:3.0 6:3.0 11:1.0 12:1.0 13:1.0 16:2.0 20:2.5 
0.0 1.0 3:2.0 6:2.0 11:1.0 12:1.0 13:1.0 21:1.0 22:2.0 
1.0 0.0 1:1.0 2:2.0 3:2.0 5:2.0 6:2.0 10:1.0 12:2.0 15:1.0 20:2.0 
0.0 1.0 7:1.0 17:1.0 
0.0 1.0 3:1.0 4:1.0 5:1.0 11:1.0 
0.0 1.0 1:1.0 2:1.0 3:3.0 14:1.0 20:2.0 
0.0 1.0 1:1.0 2:1.0 3:4.0 4:2.0 6:1.0 20:2.0 
1.0 1.0 3:1.0 4:1.0 5:1.0 6:1.0 11:1.0 
0.0 1.0 7:1.0 17:1.0 
0.4562496968338628 1.0 1:1.0 3:1.0 4:2.0 6:1.0 8:1.0 11:1.0 20:0.8 24:1.0 
1.0 0.0 3:1.0 4:2.0 6:2.0 12:1.0 15:4.0 
0.0 1.0 1:2.0 3:1.0 4:1.0 5:3.0 6:3.0 11:1.0 12:1.0 13:1.0 16:2.0 20:2.5 
0.0 1.0 1:1.0 3:2.0 4:2.0 5:1.0 6:3.0 11:1.0 13:1.0 16:2.0 20:1.5 
0.0 1.0 1:1.0 6:2.0 20:1.0 
0.0 1.0 3:1.0 5:1.0 6:1.0 11:1.0 
1.0 0.0 2:1.0 3:2.0 4:2.0 5:2.0 6:4.0 12:1.0 15:8.0 20:1.0 
0.0 1.0 4:1.0 5:1.0 6:1.0 12:1.0 
0.0 1.0 3:1.0 4:1.0 7:1.0 11:1.0 14:1.0 23:1.0 
0.0 1.0 3:1.0 6:1.0 7:1.0 17:1.0 
1.0 1.0 1:2.0 3:1.0 4:1.0 5:2.0 6:1.0 20:1.0 
1.0 0.0 3:1.0 4:1.0 5:3.0 6:1.0 10:1.0 11:1.0 
0.8984571671217599 1.0 4:1.0 5:1.0 11:2.0 
0.0 1.0 1:1.0 5:1.0 20:1.0 
0.0 1.0 3:2.0 5:1.0 6:1.0 7:1.0 14:1.0 23:1.0 
0.0 1.0 1:1.0 3:2.0 5:3.0 6:3.0 10:1.0 11:1.0 13:1.0 16:2.0 20:-1.0 
1.0 1.0 1:1.0 3:4.0 5:2.0 6:1.0 11:1.0 12:2.0 15:4.0 20:2.0 
0.0 1.0 3:1.0 5:1.0 6:1.0 11:1.0 
1.0 0.0 2:3.0 3:2.0 5:1.0 6:1.0 14:1.0 20:3.0 
0.0 1.0 7:1.0 17:1.0 
1.0 1.0 2:1.0 5:1.0 6:1.0 11:1.0 20:3.0 
0.2761980058076841 1.0 1:4.0 3:1.0 4:1.0 6:4.0 11:1.0 20:10.0 
1.0 1.0 2:2.0 3:1.0 5:1.0 6:5.0 10:3.0 12:1.0 14:1.0 15:4.0 20:-2.0 
0.07437642170563877 0.0 2:3.0 3:28.0 4:1.0 5:3.0 6:12.0 11:2.0 12:1.0 20:1.0 26:2.0 
0.0 1.0 4:1.0 
0.0 1.0 1:1.0 6:3.0 20:1.0 
0.0 0.023704912292696566 1:1.0 2:1.0 3:3.0 4:2.0 5:4.0 6:6.0 11:3.0 12:3.0 15:4.0 20:1.0 
0.0 1.0 1:2.0 2:1.0 3:7.0 4:1.0 5:2.0 6:3.0 12:1.0 15:8.0 20:3.0 
0.0 1.0 1:4.0 2:1.0 3:7.0 4:4.0 5:1.0 6:10.0 11:1.0 13:1.0 14:1.0 20:1.0 22:2.0 26:2.0 32:2.0 
0.0 1.0 1:6.0 3:18.0 4:4.0 5:7.0 6:10.0 11:4.0 12:1.0 20:6.0 
0.0 1.0 1:5.0 3:5.0 4:4.0 5:5.0 6:8.0 11:1.0 13:1.0 16:2.0 20:5.0 
0.0 1.0 1:1.0 3:4.0 4:1.0 6:2.0 20:1.0 
0.0 0.829494851648303 1:9.0 3:22.0 4:6.0 5:1.0 6:13.0 11:1.0 20:4.0 26:2.0 32:2.0 44:1.0 
0.0 1.0 1:2.0 2:1.0 3:7.0 4:1.0 5:2.0 6:3.0 12:1.0 15:8.0 20:3.0 
0.0 1.0 1:2.0 2:1.0 3:9.0 4:2.0 5:5.0 6:2.0 10:1.0 11:1.0 12:1.0 15:8.0 20:3.5 
0.8492160055229037 1.0 1:1.0 3:9.0 4:1.0 5:1.0 6:2.0 11:2.0 12:1.0 15:4.0 20:2.0 
0.0 1.0 1:11.0 3:15.0 4:8.0 5:3.0 6:8.0 20:11.0 
0.0 1.0 1:4.0 2:1.0 3:11.0 4:4.0 5:4.0 6:2.0 11:3.0 20:5.7 
0.0 1.0 1:4.0 3:5.0 4:2.0 6:3.0 20:4.0 
0.0 1.0 1:6.0 3:13.0 4:4.0 5:2.0 6:8.0 11:1.0 20:6.0 
0.0 1.0 1:1.0 3:5.0 5:1.0 6:7.0 7:1.0 13:1.0 16:2.0 20:1.0 23:1.0 
0.0 1.0 1:2.0 3:1.0 5:3.0 6:6.0 11:3.0 13:1.0 14:1.0 16:2.0 26:2.0 
0.0 1.0 1:1.0 3:1.0 5:1.0 6:4.0 13:1.0 22:2.0 
0.0 1.0 3:7.0 4:3.0 5:3.0 6:5.0 7:2.0 10:1.0 11:1.0 14:1.0 23:2.0 
0.35996251978360955 1.0 5:2.0 6:2.0 11:1.0 
0.0 1.0 1:1.0 3:1.0 13:1.0 14:1.0 16:2.0 20:1.0 
1.0 1.0 3:1.0 4:1.0 6:3.0 8:1.0 18:1.0 
0.0 1.0 1:1.0 3:1.0 6:1.0 20:1.0 
0.816162059478132 0.0 5:2.0 6:2.0 11:1.0 14:1.0 
0.0 1.0 4:1.0 5:1.0 6:1.0 7:1.0 11:2.0 17:1.0 
0.0 1.0 3:1.0 6:3.0 7:1.0 23:1.0 
0.0 1.0 7:1.0 17:1.0 
0.0 1.0 3:3.0 4:1.0 6:2.0 7:1.0 17:1.0 
1.0 1.0 3:1.0 4:2.0 5:1.0 6:2.0 7:1.0 9:1.0 11:1.0 17:1.0 19:1.0 
0.3487550449650091 0.7076715734294274 1:4.0 2:4.0 3:17.0 4:6.0 5:5.0 6:14.0 10:4.0 11:3.0 12:3.0 14:2.0 27:4.0 32:1.1 33:4.0 38:-1.0 44:2.0 45:4.0 50:-1.0 
0.0 1.0 1:1.0 4:1.0 
0.0 1.0 3:2.0 7:1.0 17:1.0 
0.0 1.0 1:1.0 3:2.0 20:1.0 
0.7452910635122105 0.0 1:1.0 3:5.0 5:5.0 6:9.0 10:2.0 20:-1.0 
0.2720555618771825 0.810534694142252 2:1.0 3:3.0 5:4.0 6:9.0 10:1.0 12:2.0 15:4.0 20:1.0 33:4.0 
0.0 1.0 1:1.0 6:1.0 20:1.0 
0.0 1.0 1:1.0 6:1.0 20:1.0 
0.0 1.0 1:3.0 3:4.0 4:1.0 5:3.0 6:3.0 11:1.0 12:1.0 13:1.0 20:1.0 26:2.0 28:2.0 
0.0 1.0 1:2.0 2:1.0 3:6.0 5:4.0 6:9.0 10:1.0 12:1.0 15:4.0 20:-1.0 26:1.0 32:1.0 
1.0 1.0 1:3.0 3:3.0 5:3.0 6:2.0 20:1.0 
0.0 1.0 1:2.0 3:1.0 4:1.0 20:2.0 
0.0 1.0 1:3.0 3:6.0 5:1.0 6:7.0 12:1.0 15:4.0 20:3.0 
0.0 1.0 1:1.0 3:3.0 4:2.0 5:3.0 6:1.0 11:3.0 12:2.0 20:1.0 21:8.0 
0.0 1.0 1:3.0 2:1.0 3:8.0 4:3.0 6:3.0 11:1.0 13:1.0 14:1.0 16:2.0 26:3.0 
1.0 0.0 3:3.0 5:1.0 6:2.0 10:1.0 13:1.0 16:2.0 
0.2719474915708178 1.0 1:5.0 2:4.0 3:12.0 4:3.0 5:6.0 6:11.0 10:1.0 11:1.0 12:2.0 13:2.0 16:2.0 20:3.5 21:4.0 26:6.0 28:2.0 
0.9644411151360935 0.0 1:1.0 2:1.0 3:2.0 5:4.0 6:5.0 10:2.0 20:1.0 
0.5133973729902903 1.0 1:1.0 2:1.0 3:1.0 4:1.0 5:1.0 14:3.0 20:1.0 32:1.0 
0.0 1.0 1:6.0 3:17.0 4:5.0 5:2.0 6:8.0 7:1.0 11:5.0 12:1.0 13:1.0 15:8.0 16:2.0 20:1.0 38:1.0 44:1.0 50:0.8 56:2.0 59:1.0 
0.0 1.0 3:3.0 5:2.0 6:2.0 13:1.0 16:2.0 
0.0 1.0 1:3.0 3:5.0 4:4.0 6:3.0 20:1.0 26:1.0 32:1.0 
0.0 1.0 3:1.0 4:3.0 5:1.0 6:1.0 11:3.0 12:1.0 13:1.0 14:2.0 15:8.0 34:2.0 
0.0 1.0 1:2.0 3:2.0 4:3.0 5:2.0 6:5.0 11:4.0 12:1.0 20:1.0 26:5.1 
0.247361704720697 0.15816728537167404 1:1.0 2:2.0 3:5.0 4:3.0 5:10.0 6:17.0 11:3.0 12:2.0 13:2.0 14:2.0 16:2.0 38:1.0 39:8.0 44:-1.5 46:2.0 
0.33064603782128527 0.0 1:1.0 3:6.0 5:5.0 6:7.0 10:1.0 12:1.0 
0.0 1.0 4:1.0 11:1.0 
0.0 1.0 1:2.0 2:1.0 3:7.0 4:2.0 5:1.0 6:4.0 13:3.0 16:2.0 20:3.0 
0.0 1.0 7:1.0 17:1.0 
0.0 1.0 2:1.0 3:3.0 4:2.0 5:2.0 6:6.0 11:1.0 26:1.0 
0.12339837167396309 1.0 1:4.0 2:1.0 3:3.0 5:2.0 6:4.0 11:1.0 20:4.0 
0.0 1.0 3:1.0 13:1.0 16:2.0 
0.0 1.0 3:1.0 7:1.0 17:1.0 
0.0 1.0 1:1.0 20:1.0 
0.0 1.0 3:1.0 13:1.0 16:2.0 
0.0 1.0 1:1.0 3:1.0 5:1.0 6:2.0 13:1.0 14:1.0 16:2.0 20:1.0 22:1.0 
0.04177209223211186 0.0 1:1.0 2:2.0 3:6.0 4:4.0 5:3.0 6:4.0 11:2.0 12:1.0 14:2.0 15:4.0 26:3.0 
1.0 1.0 2:1.0 3:1.0 5:1.0 6:1.0 13:1.0 16:2.0 
0.229827094217046 0.0 1:2.0 2:1.0 3:9.0 4:1.0 5:1.0 6:5.0 11:1.0 14:3.0 20:1.0 26:1.0 
0.0 1.0 7:1.0 17:1.0 
0.0 1.0 1:2.0 2:1.0 3:3.0 6:2.0 20:3.0 
0.6089044404222379 1.0 3:1.0 4:1.0 11:1.0 13:1.0 14:1.0 16:2.0 
0.0 1.0 1:1.0 3:1.0 6:1.0 7:1.0 17:1.0 20:1.0 
1.0 0.0 8:3.0 18:3.0 
0.0 1.0 2:1.0 6:1.0 20:1.0 
0.7494961923174166 0.06932809556624335 1:1.0 2:3.0 3:1.0 4:1.0 5:1.0 6:9.0 10:1.0 12:1.0 20:1.0 26:1.0 27:4.0 32:-2.0 
1.0 0.0 6:1.0 8:1.0 18:1.0 
1.0 1.0 2:1.0 3:2.0 6:3.0 13:1.0 16:2.0 20:1.0 
1.0 1.0 1:1.0 4:1.0 5:1.0 8:1.0 18:1.0 20:1.0 
1.0 1.0 1:1.0 2:2.0 3:2.0 5:2.0 6:8.0 12:1.0 20:3.0 
0.0 1.0 1:1.0 
0.0 1.0 3:1.0 7:1.0 17:1.0 
0.0 1.0 3:1.0 4:2.0 11:1.0 
0.0 1.0 3:1.0 4:1.0 
1.0 0.0 3:2.0 5:1.0 6:1.0 8:1.0 12:1.0 18:1.0 
0.0 1.0 1:1.0 3:1.0 6:1.0 20:1.0 
0.0 1.0 5:2.0 6:3.0 11:2.0 
0.0 1.0 3:1.0 7:1.0 23:1.0 
1.0 1.0 1:1.0 3:2.0 4:3.0 5:3.0 6:3.0 10:1.0 11:1.0 
0.0 1.0 1:1.0 3:8.0 5:3.0 6:6.0 10:1.0 11:1.0 12:1.0 15:4.0 20:-1.0 
0.03281076306067632 0.0 1:7.0 3:17.0 5:5.0 6:5.0 12:1.0 15:8.0 20:6.0 
1.0 0.0 1:3.0 2:2.0 3:11.0 4:2.0 5:11.0 6:15.0 10:4.0 11:5.0 12:1.0 14:2.0 20:1.0 21:4.0 26:1.0 32:2.0 
0.3848792398011565 0.0 1:2.0 2:1.0 3:19.0 5:1.0 20:2.0 26:1.0 
0.0 1.0 1:1.0 3:1.0 4:1.0 6:3.0 
0.0 0.2860196928202479 1:4.0 2:6.0 3:5.0 4:3.0 5:2.0 6:14.0 10:2.0 20:1.0 26:1.0 32:2.0 44:2.0 50:1.0 68:1.0 
0.0 1.0 1:5.0 2:1.0 3:20.0 4:3.0 5:2.0 6:5.0 11:3.0 20:7.0 
0.03333542620738697 0.0 1:9.0 3:15.0 4:6.0 5:1.0 6:12.0 10:1.0 11:1.0 14:3.0 26:1.0 38:3.0 44:2.0 
0.3406448351784363 1.0 1:1.0 3:14.0 4:3.0 5:6.0 6:16.0 7:3.0 11:3.0 13:4.0 16:2.0 22:2.0 34:2.0 40:2.0 44:1.0 47:3.0 
0.0 1.0 1:6.0 2:1.0 3:8.0 4:2.0 5:6.0 6:10.0 10:2.0 12:2.0 20:3.0 21:8.0 26:4.0 
0.0 1.0 1:1.0 6:1.0 14:1.0 
0.0 1.0 1:3.0 3:3.0 4:1.0 5:4.0 6:2.0 11:1.0 12:2.0 15:4.0 20:3.5 
1.0 1.0 3:1.0 4:3.0 5:4.0 6:3.0 10:1.0 11:2.0 12:2.0 13:1.0 16:2.0 27:4.0 
0.0 1.0 1:4.0 3:6.0 5:3.0 6:8.0 12:1.0 13:1.0 20:3.0 22:2.0 
1.0 0.0 4:1.0 5:1.0 6:3.0 8:1.0 11:1.0 14:1.0 24:1.0 
0.0 1.0 1:2.0 3:4.0 4:3.0 5:6.0 6:7.0 10:1.0 11:1.0 13:1.0 22:2.0 26:2.5 
0.0 1.0 1:1.0 3:1.0 4:1.0 5:3.0 6:2.0 11:3.0 12:2.0 14:1.0 21:4.0 26:3.0 
0.0 0.8812020926725604 1:7.0 2:2.0 3:12.0 4:3.0 5:7.0 6:16.0 10:2.0 11:2.0 12:5.0 13:1.0 20:2.0 21:2.0 27:4.0 34:2.0 
0.5324203605553621 0.9874013209246483 1:4.0 2:1.0 3:12.0 4:5.0 5:11.0 6:15.0 10:1.0 11:3.0 12:3.0 26:1.0 32:1.5 33:8.0 38:3.1 
0.0 1.0 3:2.0 6:1.0 13:1.0 16:2.0 
1.0 0.0 3:4.0 5:2.0 6:3.0 12:2.0 14:1.0 
0.0 1.0 1:1.0 3:1.0 4:1.0 5:2.0 6:3.0 20:1.0 
0.0 1.0 1:2.0 3:1.0 5:2.0 6:1.0 14:1.0 20:2.0 
1.0 1.0 6:5.0 12:1.0 13:1.0 15:2.0 16:2.0 
1.0 1.0 3:2.0 8:1.0 13:1.0 16:2.0 24:1.0 
0.0 1.0 6:1.0 13:1.0 16:2.0 
0.0 1.0 1:2.0 3:1.0 4:1.0 6:1.0 20:2.0 
1.0 0.0 2:1.0 3:2.0 4:1.0 6:6.0 8:1.0 10:1.0 18:1.0 20:1.0 
0.0 1.0 1:1.0 3:2.0 20:1.0 
1.0 0.0 2:2.0 3:2.0 6:5.0 11:1.0 20:2.0 
0.0 1.0 1:3.0 3:16.0 5:3.0 6:7.0 11:2.0 12:1.0 13:1.0 16:2.0 20:2.0 
0.6917421050397907 1.0 3:2.0 8:3.0 13:1.0 16:2.0 24:3.0 
0.0 1.0 3:1.0 5:1.0 6:1.0 11:1.0 12:1.0 
0.0 1.0 1:4.0 3:7.0 5:1.0 6:2.0 20:3.0 
0.0 1.0 1:1.0 3:4.0 5:1.0 12:1.0 15:8.0 20:1.0 
0.0 1.0 1:2.0 3:2.0 4:1.0 6:1.0 20:2.0 
1.0 1.0 1:2.0 2:2.0 3:7.0 4:4.0 5:5.0 6:7.0 10:1.0 11:4.0 12:2.0 15:1.0 20:4.3 
0.0 1.0 1:2.0 2:1.0 3:4.0 4:1.0 5:2.0 6:4.0 11:2.0 12:1.0 15:2.0 20:2.0 
0.0 1.0 1:1.0 2:1.0 3:2.0 4:1.0 6:1.0 20:2.0 
0.0 1.0 1:1.0 2:1.0 3:4.0 4:4.0 5:2.0 6:3.0 11:1.0 20:2.0 
0.0 1.0 3:2.0 4:1.0 7:1.0 17:1.0 
0.0 1.0 1:3.0 3:2.0 6:1.0 20:3.0 
1.0 0.0 2:1.0 3:1.0 4:1.0 6:1.0 20:1.0 
0.0 1.0 1:2.0 3:2.0 5:1.0 20:2.0 
0.0 1.0 1:3.0 3:2.0 4:1.0 6:1.0 12:1.0 20:3.0 
0.0 1.0 1:1.0 3:4.0 20:1.0 
0.0 1.0 4:3.0 7:1.0 17:1.0 
0.0 1.0 1:1.0 3:5.0 6:1.0 20:1.0 
0.0 1.0 3:3.0 5:3.0 6:1.0 11:1.0 12:1.0 
0.0 1.0 1:1.0 3:1.0 6:2.0 20:1.0 
0.014266859299869011 0.0 3:1.0 5:2.0 6:2.0 11:1.0 
0.0 1.0 1:3.0 3:6.0 4:3.0 5:3.0 6:4.0 11:1.0 20:5.0 
0.0 1.0 1:4.0 2:1.0 3:6.0 4:3.0 5:2.0 6:1.0 10:1.0 11:2.0 20:4.0 
0.19902152692261013 0.7554040525167783 1:1.0 2:2.0 3:5.0 4:1.0 5:3.0 6:3.0 10:1.0 11:2.0 14:1.0 20:-11.0 
1.0 1.0 3:6.0 4:3.0 5:4.0 6:3.0 9:1.0 10:1.0 11:4.0 19:1.0 
0.0 1.0 1:3.0 2:1.0 3:19.0 4:3.0 5:2.0 6:12.0 10:1.0 11:1.0 13:1.0 14:1.0 16:2.0 20:2.0 38:2.0 
0.0 1.0 1:1.0 2:1.0 3:4.0 4:2.0 6:1.0 20:2.0 
0.0 1.0 1:2.0 3:3.0 4:1.0 5:3.0 6:5.0 11:1.0 20:1.0 
0.0 1.0 6:1.0 11:1.0 
1.0 0.0 3:2.0 5:2.0 6:1.0 11:1.0 
1.0 0.0 6:2.0 8:1.0 10:1.0 18:1.0 
1.0 1.0 1:1.0 2:1.0 3:5.0 4:1.0 5:7.0 6:7.0 11:4.0 20:2.0 
1.0 0.0 2:1.0 3:2.0 4:1.0 6:3.0 12:1.0 15:4.0 20:1.0 
0.0 1.0 13:1.0 14:1.0 
0.0 1.0 1:1.0 3:2.0 4:1.0 6:2.0 11:1.0 12:1.0 15:4.0 20:1.0 
0.0 1.0 3:2.0 5:1.0 6:3.0 13:1.0 16:2.0 
1.0 1.0 1:1.0 2:1.0 3:7.0 5:3.0 6:6.0 11:1.0 12:1.0 13:1.0 15:8.0 16:2.0 20:2.0 
0.0 1.0 3:3.0 6:1.0 13:1.0 16:2.0 
0.0 1.0 6:1.0 7:1.0 11:1.0 17:1.0 
1.0 0.0 2:1.0 3:1.0 20:1.0 
0.0 1.0 1:1.0 3:2.0 6:1.0 20:1.0 
0.0 1.0 3:3.0 6:3.0 7:1.0 14:2.0 29:1.0 
0.0 1.0 13:1.0 16:2.0 
0.0 1.0 1:1.0 6:2.0 14:1.0 20:1.0 
1.0 0.0 3:1.0 5:1.0 6:3.0 14:2.0 
0.0 1.0 1:1.0 5:1.0 6:2.0 12:1.0 
0.0 1.0 3:2.0 6:1.0 7:1.0 17:1.0 
1.0 0.43523145557947773 1:1.0 3:4.0 4:2.0 5:3.0 6:6.0 10:2.0 11:2.0 
0.0 1.0 3:1.0 6:1.0 11:1.0 
0.0 1.0 3:2.0 5:1.0 11:1.0 
0.0 1.0 1:1.0 20:1.0 
0.0 1.0 4:1.0 5:1.0 7:1.0 11:1.0 17:1.0 
0.0 1.0 1:1.0 6:1.0 20:1.0 
0.0 1.0 3:1.0 4:1.0 5:1.0 11:1.0 
0.0 1.0 3:1.0 4:1.0 11:1.0 
1.0 0.0 2:1.0 3:2.0 5:2.0 6:1.0 20:1.0 
0.0 1.0 1:1.0 6:2.0 20:1.0 
1.0 1.0 2:1.0 4:1.0 8:1.0 11:1.0 14:1.0 20:2.0 24:1.0 
0.0 1.0 1:1.0 6:1.0 20:1.0 
0.0 1.0 1:2.0 4:1.0 5:1.0 6:1.0 11:1.0 20:3.0 
0.0 1.0 2:1.0 3:1.0 6:1.0 7:1.0 17:1.0 20:1.0 
1.0 1.0 2:1.0 3:3.0 4:2.0 5:3.0 11:1.0 14:1.0 26:3.0 
0.0 1.0 6:1.0 11:1.0 
0.0 1.0 1:2.0 3:8.0 4:3.0 20:2.0 
0.0 1.0 1:2.0 3:14.0 4:3.0 5:1.0 6:3.0 13:1.0 16:2.0 20:2.0 
0.0 1.0 3:3.0 4:1.0 6:2.0 11:2.0 
0.31869423077191783 0.0 1:4.0 2:1.0 3:20.0 4:5.0 5:7.0 6:15.0 10:1.0 11:5.0 12:1.0 20:6.0 21:8.0 26:2.0 32:1.0 
0.0 1.0 1:2.0 2:2.0 3:5.0 4:3.0 5:2.0 6:5.0 10:1.0 14:1.0 16:1.0 20:2.0 
0.0 1.0 3:8.0 5:1.0 6:2.0 12:1.0 15:8.0 
0.0 1.0 1:2.0 3:10.0 6:7.0 20:2.0 
0.004185825065289017 0.37774627821949114 1:6.0 2:6.0 3:18.0 4:9.0 5:3.0 6:6.0 11:1.0 12:2.0 14:2.0 15:4.0 20:6.0 32:2.0 38:2.0 44:1.0 50:2.0 
0.0 1.0 1:2.0 2:2.0 3:7.0 5:1.0 6:5.0 20:3.0 
0.05735169408011965 1.0 1:14.0 3:15.0 4:5.0 5:3.0 6:12.0 10:1.0 11:2.0 12:1.0 15:4.0 20:14.0 
0.8525661807479717 0.0 1:2.0 2:3.0 3:11.0 4:2.0 5:3.0 6:7.0 10:1.0 11:2.0 12:2.0 20:3.0 21:4.0 26:1.8 
0.0 1.0 3:6.0 6:2.0 13:2.0 16:2.0 22:2.0 
0.342049977578433 1.0 1:2.0 2:2.0 3:5.0 4:3.0 5:2.0 6:5.0 10:1.0 14:1.0 16:1.0 20:2.0 
0.0 1.0 1:1.0 3:4.0 4:2.0 6:5.0 13:1.0 14:1.0 16:2.0 20:1.0 
0.0 1.0 1:1.0 3:1.0 6:2.0 
0.0 1.0 1:1.0 3:3.0 4:1.0 6:3.0 13:1.0 14:1.0 16:2.0 26:1.0 
0.0 1.0 1:2.0 2:1.0 3:5.0 5:1.0 6:4.0 7:1.0 13:1.0 16:2.0 20:2.0 23:1.0 26:1.0 
0.6164621998701018 0.0 3:3.0 6:2.0 14:1.0 
0.0 1.0 1:4.0 3:13.0 4:3.0 5:7.0 6:14.0 8:1.0 11:4.0 12:1.0 13:1.0 14:1.0 26:1.0 27:4.0 28:2.0 32:1.0 36:1.0 
0.7370131937249328 0.0 1:2.0 2:1.0 3:4.0 5:2.0 6:5.0 12:1.0 14:1.0 15:4.0 20:2.0 
0.028879352867987294 0.0 1:3.0 2:5.0 3:22.0 4:2.0 5:4.0 6:15.0 11:4.0 14:1.0 26:1.5 32:4.0 
0.0 1.0 6:1.0 7:1.0 17:1.0 
0.0 1.0 1:1.0 3:3.0 5:3.0 6:3.0 7:1.0 10:1.0 12:2.0 13:1.0 14:3.0 16:2.0 23:1.0 26:1.0 
1.0 1.0 1:1.0 6:3.0 14:1.0 26:1.0 
0.6774914532799539 0.0 3:2.0 6:2.0 12:1.0 14:1.0 
0.0 1.0 1:1.0 3:3.0 6:3.0 11:1.0 20:1.0 
1.0 1.0 2:1.0 3:3.0 5:1.0 6:2.0 7:1.0 9:1.0 17:1.0 19:1.0 
0.0 1.0 5:1.0 6:1.0 13:1.0 16:2.0 
0.0 1.0 1:6.0 3:17.0 4:5.0 5:2.0 6:8.0 7:1.0 11:5.0 12:1.0 13:1.0 15:8.0 16:2.0 20:1.0 38:1.0 44:1.0 50:0.8 56:2.0 59:1.0 
0.0 1.0 1:3.0 3:10.0 4:8.0 5:2.0 6:12.0 11:1.0 12:1.0 13:1.0 21:8.0 26:1.0 28:2.0 32:2.0 
0.0 1.0 1:4.0 3:9.0 4:2.0 5:3.0 6:8.0 11:2.0 12:1.0 15:4.0 20:4.0 
1.0 1.0 3:4.0 4:1.0 6:1.0 8:1.0 18:1.0 
1.0 1.0 3:3.0 5:1.0 6:2.0 8:1.0 10:1.0 12:1.0 15:8.0 18:1.0 
1.0 1.0 2:1.0 3:3.0 5:1.0 6:2.0 7:1.0 9:1.0 17:1.0 19:1.0 
0.0 1.0 3:1.0 4:1.0 5:2.0 11:3.0 14:1.0 
0.0 1.0 1:1.0 3:1.0 6:1.0 20:1.0 
1.0 0.0 9:2.0 19:2.0 
0.0 1.0 1:1.0 3:2.0 
1.0 0.5394551882216583 1:2.0 2:1.0 3:7.0 4:2.0 5:6.0 6:10.0 10:2.0 11:2.0 12:2.0 15:8.0 21:4.0 26:-2.0 
0.0 1.0 1:1.0 2:1.0 3:1.0 5:1.0 20:2.0 
0.0 1.0 3:4.0 4:1.0 6:2.0 13:1.0 16:2.0 
0.0 1.0 1:2.0 3:10.0 4:3.0 5:3.0 6:10.0 11:1.0 12:1.0 13:3.0 16:2.0 20:1.0 21:8.0 22:2.0 28:2.0 
0.0 1.0 3:1.0 6:1.0 13:1.0 16:2.0 
0.7647967844729496 0.45283108273609596 1:2.0 2:1.0 3:14.0 5:13.0 6:17.0 10:2.0 12:1.0 13:2.0 16:2.0 34:2.0 38:1.0 
0.0 1.0 1:1.0 3:1.0 20:1.0 
0.0 0.7177609347390106 1:1.0 3:22.0 4:4.0 5:9.0 6:16.0 10:2.0 11:5.0 12:5.0 21:4.0 26:1.0 27:4.0 
0.0 1.0 3:3.0 4:1.0 5:1.0 6:1.0 11:1.0 
1.0 0.0 1:3.0 2:3.0 3:6.0 4:1.0 5:3.0 6:6.0 10:1.0 12:2.0 15:4.0 20:6.0 
0.03306756629557597 0.34464514463032964 1:2.0 2:4.0 3:18.0 4:5.0 5:8.0 6:8.0 10:1.0 11:8.0 12:3.0 21:4.0 26:-2.4 32:2.0 33:4.0 38:3.0 44:4.0 
0.0 1.0 1:1.0 3:2.0 20:1.0 
0.0 1.0 1:7.0 3:12.0 4:3.0 5:2.0 6:10.0 11:4.0 13:2.0 20:3.0 22:2.0 26:1.0 28:2.0 32:4.0 
0.0 1.0 1:1.0 3:2.0 4:2.0 5:2.0 6:4.0 11:2.0 12:1.0 
0.0 1.0 1:1.0 3:1.0 6:1.0 20:1.0 
1.0 0.46744439745976324 1:2.0 2:2.0 3:4.0 4:1.0 5:2.0 6:5.0 11:1.0 12:1.0 20:1.0 26:4.0 
0.0 1.0 1:1.0 3:3.0 4:1.0 6:1.0 20:1.0 
0.0 1.0 5:2.0 6:2.0 13:1.0 16:2.0 
1.0 1.0 4:1.0 5:1.0 6:3.0 10:1.0 13:1.0 16:2.0 
0.0 1.0 3:3.0 5:1.0 6:3.0 11:1.0 13:1.0 16:2.0 
0.0 1.0 3:4.0 4:1.0 5:3.0 6:2.0 11:1.0 
0.0 1.0 1:1.0 6:1.0 20:1.0 
0.20749629747912696 0.0 3:9.0 4:3.0 5:2.0 6:5.0 10:1.0 14:1.0 
1.0 0.0 3:2.0 4:2.0 5:2.0 6:2.0 10:1.0 
0.0 1.0 1:1.0 3:3.0 5:1.0 
0.0 1.0 4:1.0 5:2.0 6:4.0 11:2.0 
1.0 1.0 1:1.0 2:1.0 3:1.0 4:2.0 5:3.0 6:1.0 11:3.0 20:3.0 
0.0 1.0 3:2.0 4:1.0 5:1.0 6:8.0 13:1.0 16:2.0 
1.0 0.0 8:3.0 18:3.0 
1.0 0.0 3:1.0 5:3.0 6:4.0 8:1.0 10:1.0 18:1.0 
0.7464264463789444 1.0 1:1.0 4:1.0 5:1.0 11:1.0 20:2.0 
0.0 1.0 3:2.0 4:2.0 5:1.0 6:1.0 11:3.0 14:1.0 
0.0 1.0 1:1.0 3:1.0 6:2.0 20:1.0 
0.0 1.0 3:1.0 6:2.0 7:1.0 17:1.0 
0.0 1.0 1:1.0 6:1.0 8:1.0 18:1.0 
0.0 1.0 1:1.0 2:1.0 3:1.0 4:1.0 7:1.0 11:1.0 17:1.0 20:1.7 
0.0 1.0 3:2.0 6:1.0 7:1.0 17:1.0 
0.0 1.0 7:1.0 17:1.0 
0.0 1.0 7:1.0 17:1.0 
1.0 0.0 3:2.0 4:1.0 5:1.0 8:2.0 10:1.0 18:2.0 
0.0 1.0 6:3.0 7:1.0 14:1.0 23:1.0 
0.0 0.17000688409467118 
0.0 1.0 1:1.0 20:1.0 
1.0 0.0 3:2.0 8:1.0 18:1.0 
0.0 1.0 1:1.0 3:1.0 5:1.0 6:2.0 7:1.0 17:1.0 20:1.0 
0.0 1.0 3:1.0 4:1.0 5:2.0 7:1.0 11:1.0 12:1.0 17:1.0 
1.0 1.0 5:1.0 8:1.0 11:1.0 18:1.0 
1.0 0.0 3:1.0 5:2.0 8:1.0 10:1.0 18:1.0 
0.0 1.0 7:1.0 17:1.0 
0.0 1.0 2:1.0 3:1.0 5:1.0 6:1.0 7:1.0 10:1.0 11:1.0 17:1.0 
0.0 1.0 3:1.0 4:1.0 7:1.0 17:1.0 
0.0 0.21367556765847967 
0.0 1.0 3:1.0 4:1.0 5:1.0 6:1.0 7:1.0 17:1.0 
0.0 1.0 7:1.0 17:1.0 
1.0 0.0 3:2.0 5:3.0 6:1.0 10:1.0 12:1.0 
1.0 1.0 1:1.0 2:1.0 5:1.0 6:2.0 8:1.0 10:1.0 18:1.0 20:1.0 
1.0 1.0 1:1.0 3:2.0 4:2.0 5:1.0 6:1.0 7:1.0 8:1.0 10:1.0 17:1.0 18:1.0 
0.0 1.0 1:1.0 6:2.0 
1.0 0.0 3:2.0 5:1.0 6:1.0 8:1.0 18:1.0 
1.0 1.0 1:1.0 2:2.0 3:3.0 4:1.0 5:3.0 6:5.0 10:3.0 11:1.0 
1.0 1.0 2:1.0 3:1.0 6:2.0 13:1.0 16:2.0 20:1.0 
1.0 0.0 6:1.0 9:1.0 19:1.0 
0.0 0.15336714770868645 1:7.0 2:2.0 3:2.0 4:1.0 5:4.0 6:16.0 10:2.0 11:1.0 12:2.0 20:-2.0 21:4.0 26:5.0 32:1.0 
0.0 1.0 3:1.0 4:1.0 
1.0 1.0 2:1.0 3:3.0 4:1.0 5:2.0 6:2.0 8:3.0 11:1.0 18:3.0 20:2.0 
0.0 1.0 1:2.0 3:7.0 4:3.0 5:1.0 6:5.0 11:1.0 20:3.0 
0.31797561830422466 0.6667725256728902 1:4.0 3:12.0 4:4.0 5:1.0 6:10.0 11:2.0 14:1.0 32:5.0 
0.0 1.0 1:4.0 2:1.0 3:13.0 4:10.0 5:3.0 6:8.0 11:3.0 20:5.0 26:2.0 
0.0 1.0 1:1.0 3:1.0 5:2.0 6:4.0 12:1.0 13:1.0 14:1.0 20:1.0 22:2.0 
0.0 1.0 1:6.0 3:16.0 4:4.0 5:3.0 6:8.0 11:2.0 20:3.0 26:3.0 
0.11875964792222468 0.6099710173566382 1:2.0 2:2.0 3:22.0 5:5.0 6:3.0 10:1.0 12:2.0 14:1.0 20:1.0 
0.0 1.0 1:6.0 2:1.0 3:21.0 4:6.0 5:5.0 6:8.0 10:1.0 11:4.0 20:2.5 26:2.0 
1.0 1.0 2:2.0 3:4.0 5:1.0 6:3.0 12:1.0 13:1.0 15:2.0 16:2.0 20:2.0 
1.0 0.0 3:3.0 4:2.0 5:4.0 6:2.0 10:3.0 11:3.0 
0.0 0.8722200117830894 1:1.0 2:1.0 3:10.0 5:2.0 6:4.0 11:3.0 12:1.0 15:8.0 20:4.0 
0.279307675277725 1.0 1:1.0 2:2.0 3:4.0 4:2.0 5:9.0 6:3.0 11:3.0 12:2.0 13:1.0 15:4.0 20:3.0 21:8.0 22:2.0 26:1.0 
0.9404665464026367 1.0 1:1.0 2:1.0 3:8.0 5:4.0 6:10.0 10:3.0 12:2.0 15:4.0 20:-1.0 
0.0 1.0 1:1.0 3:1.0 5:1.0 6:1.0 10:1.0 14:1.0 20:1.0 
0.0 1.0 1:2.0 3:17.0 4:4.0 5:2.0 6:7.0 11:1.0 20:2.0 
0.0 1.0 1:3.0 6:1.0 20:3.0 
0.0 1.0 1:1.0 6:4.0 14:1.0 20:1.0 
1.0 0.5221147975379317 1:1.0 2:6.0 3:10.0 4:2.0 5:1.0 6:4.0 10:1.0 12:1.0 13:1.0 15:4.0 16:2.0 20:5.0 
0.17815005069047504 0.0 3:1.0 6:4.0 11:1.0 12:1.0 21:4.0 
0.0 1.0 1:1.0 3:1.0 4:1.0 5:1.0 11:1.0 20:1.5 
0.0 1.0 7:1.0 8:1.0 17:1.0 18:1.0 
0.0 1.0 1:1.0 4:2.0 20:1.0 
0.0 1.0 1:1.0 3:1.0 20:1.0 
0.0 1.0 7:1.0 8:1.0 17:1.0 18:1.0 
0.0 1.0 3:1.0 6:1.0 11:1.0 
0.0 1.0 1:1.0 3:2.0 6:5.0 7:1.0 32:1.0 35:1.0 
0.0 1.0 1:1.0 3:1.0 6:2.0 7:1.0 14:1.0 20:1.0 23:1.0 
0.0 1.0 3:1.0 7:2.0 8:1.0 14:1.0 23:2.0 24:1.0 
0.0 1.0 3:1.0 11:1.0 
0.0 1.0 3:1.0 13:1.0 16:2.0 
0.0 1.0 3:3.0 7:1.0 13:1.0 16:2.0 23:1.0 
1.0 0.0 5:1.0 6:2.0 8:1.0 18:1.0 
0.0 1.0 1:2.0 3:3.0 4:2.0 5:1.0 6:2.0 7:1.0 11:2.0 13:1.0 14:1.0 20:7.0 23:1.0 
0.0 1.0 1:1.0 3:1.0 4:1.0 6:1.0 20:1.0 
1.0 0.0 3:1.0 8:1.0 18:1.0 
0.0 1.0 3:2.0 13:1.0 16:2.0 
0.0 1.0 3:2.0 13:1.0 16:2.0 
1.0 1.0 2:1.0 3:2.0 5:1.0 6:3.0 8:2.0 20:1.0 30:2.0 
1.0 1.0 1:2.0 5:1.0 6:3.0 10:1.0 
0.0 1.0 1:1.0 6:2.0 20:1.0 
1.0 1.0 3:1.0 4:1.0 5:1.0 6:3.0 11:1.0 13:1.0 16:2.0 
0.0 0.347306615636653 1:5.0 3:15.0 4:2.0 5:2.0 6:7.0 20:1.0 38:2.0 44:1.0 
0.0 1.0 1:3.0 3:2.0 5:2.0 6:2.0 8:1.0 12:1.0 13:1.0 16:2.0 24:1.0 26:3.0 
0.0 1.0 3:1.0 6:2.0 13:1.0 16:2.0 
0.0 1.0 1:3.0 3:16.0 5:3.0 6:7.0 11:2.0 12:1.0 13:1.0 16:2.0 20:2.0 
0.15939351001722502 0.0 3:21.0 4:2.0 5:4.0 6:14.0 11:2.0 12:1.0 33:4.0 
1.0 0.0 3:3.0 4:1.0 6:2.0 14:2.0 
0.0 1.0 1:4.0 2:2.0 3:4.0 4:2.0 5:4.0 6:4.0 11:1.0 12:3.0 14:1.0 15:4.0 20:6.1 
0.0 1.0 1:1.0 3:2.0 5:1.0 6:1.0 20:1.0 
0.0 1.0 3:3.0 4:1.0 5:1.0 6:1.0 11:2.0 
0.0 1.0 1:1.0 3:5.0 20:1.0 
0.0 1.0 1:5.0 2:4.0 3:18.0 4:5.0 5:7.0 6:13.0 11:5.0 12:1.0 20:3.0 26:3.7 27:8.0 32:1.0 
0.0 1.0 1:1.0 3:3.0 6:1.0 11:1.0 20:1.0 
0.1939113400332199 0.379921902259227 1:2.0 2:3.0 3:32.0 4:1.0 5:2.0 6:19.0 20:3.0 
0.0 1.0 3:2.0 4:1.0 5:3.0 6:2.0 7:1.0 10:2.0 17:1.0 
0.0 1.0 1:3.0 2:1.0 3:4.0 5:3.0 6:6.0 11:3.0 12:1.0 15:8.0 20:5.0 
0.0 1.0 1:1.0 3:3.0 5:2.0 6:1.0 7:1.0 10:2.0 17:1.0 
0.0 1.0 1:2.0 3:9.0 4:4.0 5:1.0 6:5.0 11:1.0 20:2.0 
0.0 1.0 1:3.0 3:13.0 4:6.0 5:2.0 6:8.0 11:2.0 12:1.0 15:4.0 26:4.0 
0.0 1.0 1:1.0 3:3.0 6:1.0 14:1.0 26:1.0 
0.0 1.0 3:2.0 4:3.0 6:3.0 7:1.0 11:2.0 17:1.0 
0.0 1.0 1:1.0 3:4.0 5:4.0 6:7.0 7:1.0 11:3.0 17:1.0 20:1.0 
0.0 0.002131488868603946 1:2.0 3:25.0 4:6.0 5:2.0 6:25.0 11:1.0 32:2.0 
0.0 1.0 3:7.0 5:1.0 6:5.0 
0.6928635728773744 1.0 1:2.0 3:7.0 4:2.0 5:7.0 6:15.0 10:3.0 11:3.0 12:1.0 15:8.0 
0.0 1.0 1:3.0 3:3.0 5:1.0 6:5.0 11:1.0 12:2.0 15:2.0 20:2.0 
0.0 1.0 1:3.0 2:1.0 3:5.0 5:2.0 6:7.0 10:1.0 11:1.0 20:0.9 
0.0 1.0 1:6.0 3:10.0 4:1.0 5:3.0 6:12.0 7:1.0 10:3.0 11:1.0 14:1.0 17:1.0 
1.0 0.0 3:4.0 6:5.0 11:1.0 12:1.0 
0.09182088105745169 0.251062350746122 1:2.0 3:25.0 4:6.0 5:2.0 6:25.0 11:1.0 32:2.0 
0.24631766302645933 1.0 1:1.0 3:2.0 4:1.0 5:2.0 11:1.0 12:1.0 20:2.0 
1.0 1.0 1:1.0 2:3.0 3:6.0 4:1.0 5:3.0 6:5.0 11:1.0 20:3.0 
0.04212355907094874 0.0 1:2.0 2:5.0 3:18.0 4:2.0 5:1.0 6:14.0 11:1.0 12:2.0 15:8.0 20:4.7 
0.0 1.0 1:1.0 3:3.0 4:1.0 5:1.0 6:2.0 11:1.0 12:1.0 20:1.0 
0.0 1.0 6:1.0 11:1.0 
0.0 1.0 1:1.0 3:1.0 20:1.0 
0.0 0.6161713047800288 1:4.0 2:1.0 3:18.0 4:4.0 5:7.0 6:12.0 10:1.0 11:1.0 12:4.0 27:4.0 32:2.0 39:4.0 44:3.0 45:4.0 50:1.0 
1.0 0.0 3:5.0 5:1.0 6:4.0 10:1.0 11:1.0 
0.0 1.0 3:2.0 5:1.0 13:1.0 16:2.0 
1.0 1.0 1:1.0 3:3.0 4:1.0 5:2.0 6:2.0 11:2.0 20:1.0 
0.7747512260654654 0.0 3:1.0 4:1.0 5:2.0 6:1.0 14:1.0 
1.0 0.0 4:1.0 5:2.0 6:2.0 10:2.0 11:1.0 
0.0 1.0 3:1.0 6:1.0 11:1.0 
0.0 1.0 4:1.0 6:1.0 
0.0 1.0 3:1.0 5:1.0 11:1.0 
0.0 1.0 4:1.0 
1.0 1.0 1:1.0 3:3.0 4:1.0 5:4.0 6:5.0 8:1.0 18:1.0 20:1.0 
0.0 1.0 1:1.0 6:1.0 13:1.0 16:2.0 20:1.0 
0.0 1.0 1:1.0 3:1.0 4:4.0 5:1.0 6:1.0 11:3.0 12:1.0 15:4.0 20:3.0 
0.0 0.10270596967072304 1:6.0 3:5.0 4:2.0 5:1.0 6:8.0 10:1.0 11:6.0 20:1.0 26:4.5 
0.0 1.0 1:2.0 5:1.0 6:1.0 20:1.0 
0.0 1.0 1:2.0 2:2.0 3:7.0 5:1.0 6:5.0 20:3.0 
0.0 1.0 1:3.0 3:10.0 4:3.0 5:6.0 6:9.0 10:1.0 11:1.0 26:3.0 
0.0 1.0 1:9.0 2:1.0 3:14.0 4:3.0 5:2.0 6:6.0 20:5.0 26:5.0 
0.0 1.0 3:11.0 4:2.0 5:1.0 6:3.0 11:1.0 13:3.0 16:2.0 
0.0 1.0 3:8.0 4:1.0 5:2.0 6:2.0 11:2.0 
0.31741762651585154 0.2264133681456933 1:4.0 2:1.0 3:13.0 4:2.0 5:2.0 6:14.0 11:2.0 12:1.0 14:7.0 45:4.0 50:7.0 
0.0 1.0 1:2.0 3:8.0 4:3.0 20:2.0 
1.0 1.0 3:8.0 4:3.0 5:4.0 6:6.0 10:1.0 11:2.0 13:2.0 14:1.0 16:2.0 22:2.0 
0.0 1.0 3:4.0 5:1.0 6:2.0 11:1.0 13:1.0 16:2.0 
0.0 1.0 1:1.0 3:2.0 4:1.0 6:6.0 7:1.0 13:1.0 14:3.0 20:1.0 28:2.0 35:1.0 
0.0 1.0 1:6.0 2:1.0 3:16.0 4:2.0 5:4.0 6:12.0 10:1.0 11:5.0 12:1.0 13:1.0 15:4.0 20:11.0 22:2.0 26:3.0 
0.0 1.0 1:1.0 3:5.0 4:1.0 5:2.0 6:1.0 11:1.0 12:1.0 15:8.0 20:1.0 
0.0 1.0 1:1.0 3:5.0 4:2.0 6:2.0 11:1.0 13:1.0 14:1.0 22:2.0 32:1.0 
0.0 0.8680484564173991 1:5.0 3:13.0 5:3.0 6:4.0 10:2.0 11:1.0 14:1.0 20:4.0 
0.0 1.0 1:2.0 3:7.0 4:2.0 5:1.0 6:1.0 13:1.0 14:1.0 16:2.0 20:2.0 
1.0 1.0 1:1.0 2:1.0 3:1.0 4:2.0 6:6.0 13:1.0 16:2.0 20:1.0 26:1.0 
0.0 1.0 3:5.0 4:2.0 5:3.0 7:1.0 10:2.0 13:1.0 14:1.0 16:2.0 21:4.0 29:1.0 
0.0 1.0 1:1.0 3:6.0 4:1.0 5:2.0 6:2.0 7:1.0 10:1.0 14:1.0 26:1.0 29:1.0 
0.0 1.0 1:1.0 3:2.0 5:2.0 6:3.0 11:1.0 14:1.0 20:3.0 
0.0 1.0 1:2.0 3:9.0 4:5.0 5:5.0 6:8.0 7:1.0 10:1.0 12:2.0 13:1.0 14:1.0 20:-1.0 28:2.0 32:1.0 35:1.0 
0.0 1.0 1:4.0 3:5.0 4:3.0 6:6.0 13:1.0 16:2.0 20:4.0 
1.0 0.0 2:1.0 3:1.0 4:1.0 5:1.0 6:2.0 12:1.0 15:4.0 20:1.0 
0.0 1.0 1:1.0 3:2.0 5:1.0 6:1.0 20:1.0 
0.0 1.0 3:2.0 7:1.0 17:1.0 
0.0 1.0 7:1.0 17:1.0 
0.0 1.0 1:1.0 3:2.0 6:5.0 12:1.0 13:1.0 14:1.0 15:2.0 22:2.0 26:1.0 
0.0 1.0 3:1.0 4:1.0 5:1.0 6:2.0 7:1.0 11:2.0 17:1.0 
0.0 1.0 2:1.0 6:1.0 7:1.0 17:1.0 20:1.0 
1.0 0.0626560997117783 2:1.0 3:1.0 5:3.0 6:2.0 8:1.0 10:1.0 11:1.0 18:1.0 20:2.0 
1.0 0.7303109606793808 4:1.0 9:1.0 19:1.0 
1.0 0.0 1:1.0 3:5.0 14:1.0 20:1.0 
0.0 1.0 1:1.0 3:1.0 5:1.0 6:1.0 7:1.0 17:1.0 20:1.0 
0.0 1.0 1:3.0 3:2.0 4:1.0 6:3.0 20:3.0 
1.0 1.0 3:1.0 4:1.0 5:2.0 6:5.0 7:1.0 8:3.0 14:1.0 18:3.0 23:1.0 
0.0 1.0 3:2.0 6:2.0 7:1.0 17:1.0 
1.0 0.0 2:1.0 6:1.0 8:1.0 18:1.0 20:1.0 
0.0 0.3454000995449992 1:2.0 3:2.0 6:3.0 10:1.0 11:1.0 
0.0 1.0 1:1.0 3:1.0 5:1.0 6:1.0 
0.0 1.0 1:1.0 4:1.0 5:2.0 6:2.0 11:1.0 20:1.0 
0.0 1.0 3:4.0 5:1.0 6:3.0 11:1.0 13:1.0 16:2.0 
0.0 0.9812854805801194 1:1.0 5:2.0 6:4.0 10:2.0 
0.0 1.0 1:1.0 3:4.0 6:1.0 20:1.0 
0.11110379048979972 0.9549176724025222 1:4.0 2:2.0 3:7.0 4:8.0 5:9.0 6:10.0 10:2.0 11:5.0 12:5.0 15:4.0 20:8.4 
0.0 1.0 1:3.0 3:4.0 4:2.0 5:1.0 6:3.0 13:2.0 16:2.0 20:1.0 26:2.0 28:2.0 
0.0 1.0 1:1.0 3:2.0 6:1.0 20:1.0 
1.0 0.0 1:1.0 2:1.0 3:4.0 4:2.0 5:3.0 6:8.0 10:1.0 12:1.0 15:4.0 20:2.0 
0.0 1.0 1:1.0 20:1.0 
0.0 1.0 1:3.0 3:5.0 5:3.0 6:2.0 11:1.0 12:2.0 20:2.0 21:4.0 26:2.0 
0.0 1.0 1:2.0 3:1.0 5:1.0 12:1.0 20:2.0 
0.0 1.0 1:1.0 2:1.0 3:7.0 4:5.0 5:9.0 6:12.0 10:2.0 11:4.0 12:1.0 21:2.0 32:0.4 
0.18108216451587997 0.0 1:3.0 2:3.0 3:15.0 4:2.0 5:1.0 6:12.0 11:1.0 12:2.0 14:1.0 21:4.0 26:2.0 32:4.0 
0.527262609766448 1.0 1:2.0 2:1.0 3:6.0 4:1.0 5:4.0 6:10.0 10:1.0 11:2.0 13:1.0 22:2.0 26:4.0 
1.0 1.0 2:1.0 3:5.0 6:2.0 11:1.0 13:1.0 16:2.0 20:1.0 
1.0 0.0 1:1.0 2:1.0 3:2.0 5:3.0 6:3.0 12:1.0 15:4.0 20:2.0 
0.0 1.0 1:1.0 3:1.0 6:4.0 20:1.0 
0.0 1.0 4:1.0 
0.0 1.0 1:1.0 5:2.0 6:3.0 20:1.0 
1.0 0.20624835162356886 3:5.0 4:5.0 5:2.0 6:7.0 8:1.0 10:1.0 11:2.0 12:1.0 15:4.0 18:1.0 
0.0 1.0 1:2.0 5:1.0 6:4.0 20:2.0 
1.0 0.0 1:1.0 2:2.0 3:2.0 5:4.0 6:6.0 10:2.0 14:1.0 20:1.0 
0.0 1.0 1:2.0 3:3.0 4:1.0 5:1.0 6:2.0 12:1.0 15:8.0 20:2.0 
0.0 1.0 3:1.0 4:1.0 6:1.0 11:1.0 
0.0 1.0 1:5.0 3:9.0 4:3.0 5:3.0 6:7.0 12:1.0 13:1.0 15:2.0 16:2.0 20:1.0 26:4.0 
0.0 1.0 1:1.0 20:1.0 
0.0 1.0 1:1.0 3:2.0 6:5.0 7:1.0 23:1.0 
0.0 1.0 3:1.0 6:3.0 13:1.0 16:2.0 
0.0 1.0 3:1.0 4:1.0 7:1.0 17:1.0 
1.0 1.0 3:5.0 4:1.0 5:3.0 6:1.0 9:1.0 11:1.0 12:1.0 13:2.0 14:3.0 28:2.0 49:1.0 
0.0 1.0 6:2.0 7:1.0 17:1.0 
1.0 0.0 2:1.0 3:2.0 6:2.0 8:1.0 10:1.0 18:1.0 20:1.0 
0.0 1.0 3:1.0 6:5.0 13:1.0 16:2.0 
1.0 0.0 3:1.0 5:3.0 6:2.0 10:1.0 
0.0 1.0 1:1.0 2:1.0 3:3.0 20:2.0 
0.0 1.0 3:2.0 6:2.0 7:1.0 17:1.0 
1.0 0.0 3:1.0 6:1.0 8:1.0 18:1.0 
0.1469366327601878 0.0 1:2.0 3:2.0 5:1.0 6:2.0 10:1.0 20:-1.0 
1.0 1.0 1:1.0 2:1.0 3:1.0 5:2.0 6:1.0 10:1.0 13:1.0 16:2.0 20:-1.0 
0.0 1.0 1:1.0 3:1.0 4:1.0 6:3.0 11:1.0 13:1.0 16:2.0 
0.0 1.0 1:1.0 2:1.0 3:7.0 4:1.0 6:1.0 11:1.0 12:1.0 13:1.0 20:2.0 21:4.0 22:2.0 
0.0 1.0 4:1.0 8:1.0 18:1.0 
1.0 0.0 5:2.0 6:3.0 
0.0 1.0 1:6.0 3:16.0 4:3.0 5:4.0 6:12.0 11:2.0 12:2.0 13:3.0 15:8.0 20:5.0 32:1.0 34:2.0 38:1.0 40:2.0 46:2.0 
0.0 1.0 1:3.0 3:2.0 6:3.0 14:1.0 20:2.0 26:1.0 
0.0 1.0 7:1.0 8:1.0 17:1.0 18:1.0 
0.0 1.0 6:1.0 7:1.0 14:1.0 23:1.0 
0.0 1.0 3:2.0 6:4.0 7:1.0 14:1.0 47:1.0 
0.0 1.0 7:1.0 14:1.0 23:1.0 
0.0 1.0 3:8.0 4:1.0 6:12.0 7:1.0 53:1.0 
0.0 1.0 1:1.0 3:1.0 6:1.0 13:1.0 16:2.0 20:1.0 
0.0 1.0 6:1.0 7:1.0 13:1.0 16:2.0 23:1.0 
0.0 1.0 6:2.0 7:1.0 14:1.0 23:1.0 
1.0 0.0 2:1.0 3:3.0 4:1.0 6:1.0 26:1.0 
0.0 1.0 1:1.0 3:2.0 4:3.0 6:2.0 20:1.0 
0.0 1.0 7:2.0 17:2.0 
0.0 1.0 1:4.0 3:2.0 6:4.0 11:2.0 20:6.0 
0.9413093490697297 1.0 1:1.0 3:3.0 6:1.0 20:1.0 
0.048524085904098554 0.0 1:7.0 2:7.0 3:22.0 4:2.0 5:1.0 6:11.0 10:1.0 11:1.0 14:2.0 20:-1.0 26:3.0 32:10.0 
0.0 1.0 1:5.0 3:16.0 4:7.0 5:3.0 6:9.0 11:2.0 12:3.0 15:4.0 20:2.0 21:8.0 32:1.0 44:2.0 
0.0 1.0 1:8.0 3:9.0 6:8.0 11:1.0 20:2.0 26:4.0 
1.0 1.0 3:4.0 4:1.0 5:2.0 6:7.0 10:1.0 13:1.0 16:2.0 
1.0 0.0 2:2.0 3:1.0 4:1.0 5:1.0 6:2.0 20:2.0 
0.0 1.0 1:1.0 3:4.0 4:1.0 5:3.0 6:9.0 11:3.0 14:1.0 20:3.0 
0.0 1.0 1:1.0 3:2.0 13:1.0 16:2.0 20:1.0 
0.0 1.0 1:1.0 3:2.0 4:3.0 5:1.0 6:5.0 11:1.0 
1.0 1.0 1:1.0 2:2.0 3:3.0 5:2.0 6:7.0 11:2.0 13:2.0 16:2.0 20:3.8 22:2.0 
1.0 0.0 2:1.0 3:2.0 4:1.0 5:2.0 6:3.0 11:1.0 20:1.0 
0.0 1.0 1:4.0 2:3.0 3:14.0 4:3.0 5:7.0 6:9.0 10:2.0 11:1.0 12:4.0 13:1.0 15:4.0 20:2.0 22:2.0 
0.0 1.0 1:1.0 3:1.0 5:2.0 6:2.0 10:1.0 20:1.0 
0.23261331429391052 0.24823597984742388 1:7.0 2:4.0 3:27.0 4:2.0 5:6.0 6:13.0 12:1.0 14:1.0 20:3.0 21:4.0 26:8.0 
0.0 1.0 1:2.0 2:1.0 3:15.0 4:4.0 5:5.0 6:14.0 10:1.0 11:2.0 12:3.0 13:1.0 20:1.0 22:2.0 27:1.0 32:2.5 
0.3045291722932799 0.5056134807177799 1:5.0 2:5.0 3:7.0 4:11.0 5:8.0 6:9.0 10:2.0 11:6.0 12:4.0 15:4.0 20:4.1 26:1.0 32:1.0 
1.0 1.0 3:1.0 4:1.0 5:1.0 12:1.0 15:8.0 
0.15772181843284985 0.23679329060131962 2:2.0 3:15.0 4:6.0 5:12.0 6:17.0 10:6.0 11:3.0 12:2.0 20:1.0 21:8.0 26:1.0 27:8.0 
0.0 1.0 1:1.0 3:1.0 4:1.0 7:1.0 20:1.0 23:1.0 
0.0 1.0 1:1.0 
0.0 1.0 3:1.0 5:1.0 13:1.0 16:2.0 
0.0 1.0 7:2.0 17:2.0 
0.0 1.0 1:5.0 2:1.0 3:10.0 4:4.0 5:4.0 6:7.0 11:3.0 14:1.0 32:2.0 38:1.0 44:2.0 50:1.0 56:1.0 
0.0 1.0 1:3.0 3:16.0 5:3.0 6:7.0 11:2.0 12:1.0 13:1.0 16:2.0 20:2.0 
0.0 1.0 1:1.0 3:2.0 5:3.0 6:2.0 7:1.0 10:1.0 11:1.0 17:1.0 20:1.0 
1.0 1.0 2:1.0 4:2.0 13:1.0 16:2.0 20:1.0 
0.0 1.0 1:2.0 3:3.0 4:2.0 6:1.0 11:1.0 20:2.0 
1.0 0.0 3:1.0 5:1.0 6:1.0 9:1.0 19:1.0 
0.21399934903048254 1.0 1:2.0 2:2.0 3:3.0 5:5.0 6:8.0 7:1.0 11:1.0 13:1.0 16:2.0 20:3.0 23:1.0 
0.0 1.0 3:1.0 5:1.0 6:2.0 7:1.0 13:1.0 16:2.0 23:1.0 
0.0 1.0 1:2.0 2:1.0 3:5.0 20:3.0 
1.0 1.0 1:2.0 2:1.0 3:1.0 4:2.0 5:1.0 6:4.0 10:1.0 11:1.0 13:1.0 16:2.0 20:1.0 26:2.0 
0.0 1.0 3:1.0 13:1.0 16:2.0 
0.0 1.0 6:4.0 
1.0 0.0 3:1.0 4:2.0 5:3.0 8:1.0 11:1.0 14:1.0 24:1.0 
1.0 0.0 2:1.0 5:1.0 6:1.0 20:1.0 
0.9112159343766129 0.0 3:2.0 5:1.0 6:3.0 11:1.0 12:1.0 
0.0 1.0 1:2.0 3:2.0 5:1.0 11:1.0 
0.07877866402076583 0.0 3:3.0 4:4.0 5:2.0 
0.0 1.0 1:1.0 3:4.0 20:1.0 
0.0 1.0 3:3.0 4:1.0 5:1.0 6:3.0 11:1.0 
1.0 1.0 1:1.0 2:1.0 3:5.0 5:2.0 6:4.0 12:2.0 13:1.0 15:2.0 16:2.0 20:2.0 
0.16224409171122847 0.0 2:1.0 3:15.0 4:2.0 5:3.0 6:17.0 26:1.0 
0.0 1.0 1:3.0 3:7.0 4:2.0 5:2.0 6:3.0 11:1.0 20:4.0 
1.0 1.0 3:6.0 5:2.0 6:4.0 
0.0 1.0 3:3.0 7:1.0 17:1.0 
0.0 1.0 1:2.0 3:2.0 6:4.0 20:2.0 
0.0 1.0 3:4.0 4:1.0 5:1.0 6:6.0 
1.0 1.0 1:1.0 3:3.0 6:1.0 20:1.0 
0.0 1.0 3:4.0 4:1.0 5:1.0 6:2.0 7:1.0 12:1.0 15:4.0 17:1.0 
0.0 1.0 1:1.0 3:1.0 14:1.0 20:1.0 
0.0 1.0 1:3.0 3:13.0 4:6.0 5:3.0 6:7.0 11:3.0 12:1.0 15:4.0 20:3.0 
0.0 1.0 6:1.0 11:1.0 
0.0 1.0 3:2.0 4:2.0 5:3.0 11:4.0 12:1.0 
0.7017235881794354 0.0 1:2.0 2:2.0 3:2.0 5:1.0 6:5.0 20:2.0 
1.0 0.37534376498199706 1:1.0 2:3.0 3:8.0 4:3.0 5:7.0 6:13.0 10:2.0 12:3.0 13:1.0 15:1.0 20:1.0 21:4.0 26:1.0 28:2.0 32:2.0 
0.0 1.0 6:1.0 11:1.0 
0.0 1.0 3:1.0 4:1.0 5:1.0 11:1.0 
1.0 1.0 5:2.0 10:1.0 11:1.0 12:1.0 
0.0 1.0 3:1.0 4:1.0 6:2.0 11:1.0 
1.0 0.0 2:1.0 4:1.0 5:1.0 10:1.0 20:1.0 
0.0 0.5688549611123421 1:2.0 2:5.0 3:14.0 5:3.0 6:9.0 10:2.0 11:1.0 20:2.0 26:2.0 
1.0 0.0 2:1.0 3:2.0 5:1.0 6:3.0 11:1.0 20:1.0 
0.0 1.0 1:1.0 3:1.0 4:1.0 5:1.0 6:1.0 11:1.0 20:1.0 
0.0 1.0 4:1.0 5:1.0 6:1.0 
0.0 1.0 1:1.0 6:2.0 20:1.0 
0.0 1.0 4:1.0 6:1.0 
0.0 1.0 6:1.0 7:1.0 11:1.0 13:1.0 16:2.0 23:1.0 
0.0 1.0 5:1.0 6:1.0 12:1.0 13:1.0 15:8.0 16:2.0 
0.06328792187820936 1.0 1:1.0 3:3.0 5:2.0 6:1.0 10:1.0 12:3.0 15:4.0 
0.0 1.0 8:1.0 18:1.0 
0.9702449794449443 0.0 3:1.0 4:1.0 6:2.0 12:1.0 14:1.0 21:4.0 
0.0 1.0 4:1.0 5:1.0 10:1.0 11:1.0 
0.40091029520688 0.0 2:1.0 3:6.0 4:1.0 5:4.0 6:4.0 10:2.0 11:2.0 20:-1.0 
0.0 0.06712685445169755 
0.0 0.07533212362843195 8:1.0 18:1.0 
0.0 1.0 3:2.0 6:1.0 7:1.0 14:1.0 23:1.0 
0.25916809307618877 1.0 1:3.0 3:2.0 5:3.0 6:5.0 7:1.0 8:1.0 10:1.0 14:6.0 17:1.0 18:1.0 20:1.0 
0.0 1.0 1:2.0 3:2.0 4:1.0 6:4.0 20:2.0 
0.0 0.20683459253943173 1:4.0 3:17.0 4:4.0 5:3.0 6:7.0 11:1.0 20:4.0 26:1.0 
0.674998603517885 1.0 3:2.0 4:1.0 5:1.0 11:2.0 
0.124544399640472 0.0 1:3.0 2:3.0 3:8.0 4:1.0 5:2.0 6:1.0 10:1.0 14:6.0 20:6.0 
0.0 0.10728059960994644 1:1.0 3:2.0 5:1.0 6:3.0 14:6.0 20:1.0 
0.0 1.0 1:1.0 3:4.0 4:1.0 5:2.0 6:3.0 11:1.0 20:1.0 
0.0 1.0 1:4.0 2:1.0 3:10.0 4:2.0 5:2.0 6:5.0 11:1.0 20:9.0 
0.0 1.0 3:2.0 4:1.0 6:2.0 8:1.0 14:6.0 24:1.0 
0.0 0.47635964005130355 3:5.0 5:1.0 6:3.0 14:6.0 
0.0 1.0 5:1.0 11:1.0 13:1.0 16:2.0 
1.0 0.0 2:1.0 4:1.0 5:2.0 8:1.0 10:1.0 18:1.0 20:-1.0 
1.0 1.0 1:1.0 2:1.0 3:1.0 5:2.0 6:5.0 8:3.0 11:2.0 13:1.0 16:2.0 24:3.0 26:2.0 
0.0 1.0 1:1.0 3:1.0 4:1.0 6:2.0 11:1.0 20:2.0 
0.0 1.0 6:1.0 11:1.0 
0.0 1.0 1:1.0 3:2.0 5:1.0 6:5.0 11:2.0 13:2.0 14:1.0 20:1.0 22:2.0 34:2.0 
0.0 1.0 1:1.0 3:1.0 4:1.0 6:1.0 
0.0 1.0 1:2.0 3:1.0 5:1.0 14:6.0 20:2.0 
0.0 1.0 1:1.0 3:1.0 5:1.0 6:1.0 20:1.0 
0.1640955760226331 0.0 1:2.0 2:6.0 3:11.0 4:4.0 5:3.0 6:13.0 10:2.0 20:2.0 
0.0 1.0 3:2.0 6:2.0 7:1.0 17:1.0 
1.0 0.0 3:2.0 5:1.0 6:4.0 9:1.0 25:1.0 
0.0 1.0 1:7.0 3:10.0 4:1.0 5:4.0 6:3.0 11:2.0 13:2.0 16:2.0 20:4.0 22:2.0 26:6.0 
0.4762923698914697 1.0 1:6.0 3:9.0 4:7.0 5:7.0 6:7.0 10:2.0 11:2.0 13:5.0 16:2.0 20:-1.0 22:2.0 26:1.0 28:2.0 32:5.0 
0.1569922087537648 0.0 5:2.0 14:1.0 
0.0 1.0 3:5.0 4:1.0 6:6.0 11:1.0 
0.0 1.0 1:2.0 5:1.0 6:4.0 20:1.0 
0.3365236836485739 0.7773365818893184 1:1.0 3:2.0 5:2.0 6:4.0 12:1.0 15:4.0 20:1.0 
0.46148760391864424 0.0 1:1.0 4:1.0 5:3.0 6:7.0 10:1.0 11:2.0 14:3.0 20:1.5 
1.0 1.0 1:2.0 3:4.0 4:2.0 5:6.0 6:6.0 8:1.0 11:6.0 12:1.0 15:4.0 18:1.0 20:3.55 
1.0 1.0 1:1.0 2:1.0 3:4.0 4:1.0 5:2.0 6:6.0 10:1.0 12:3.0 13:2.0 15:4.0 16:2.0 20:1.0 21:4.0 22:2.0 27:4.0 
0.0 1.0 1:1.0 3:1.0 4:1.0 5:2.0 6:3.0 11:5.0 12:1.0 
1.0 1.0 2:1.0 3:1.0 5:2.0 6:1.0 11:1.0 20:3.0 
0.0 1.0 1:7.0 2:1.0 3:6.0 4:1.0 5:7.0 6:8.0 10:2.0 12:2.0 15:2.0 20:3.0 26:1.0 
1.0 0.0 2:1.0 3:2.0 5:1.0 6:1.0 8:1.0 10:1.0 11:1.0 24:1.0 
0.0 1.0 3:1.0 4:2.0 5:5.0 10:1.0 11:5.0 14:2.0 
0.0 1.0 1:1.0 3:1.0 6:2.0 20:1.0 
0.0 1.0 5:2.0 6:3.0 7:1.0 10:2.0 11:1.0 17:1.0 
1.0 0.7059107388445648 1:1.0 3:2.0 4:1.0 5:4.0 6:7.0 9:1.0 10:1.0 11:1.0 19:1.0 
1.0 0.0 1:1.0 2:2.0 3:2.0 5:2.0 6:7.0 11:1.0 14:1.0 20:1.0 
0.33760426223316564 0.6353287974396662 3:5.0 5:4.0 6:3.0 8:1.0 10:2.0 11:1.0 12:1.0 14:2.0 27:8.0 30:1.0 
1.0 1.0 1:1.0 3:1.0 4:1.0 6:3.0 8:1.0 18:1.0 20:1.0 
0.0 1.0 2:2.0 3:3.0 4:3.0 5:5.0 6:7.0 7:1.0 10:2.0 11:2.0 17:1.0 20:2.0 
0.0 1.0 3:1.0 5:1.0 6:1.0 11:1.0 12:1.0 
0.0 1.0 1:2.0 3:2.0 4:1.0 6:3.0 11:1.0 20:3.0 
0.0 0.3569680111391173 3:1.0 4:1.0 5:1.0 12:1.0 
0.3185866566827398 0.0 5:2.0 6:1.0 14:3.0 
0.0 1.0 1:1.0 5:1.0 
0.0 1.0 1:2.0 3:3.0 4:1.0 5:1.0 6:3.0 11:1.0 20:3.0 
0.0 1.0 4:1.0 6:1.0 
0.11000878361719757 1.0 1:7.0 3:8.0 4:3.0 5:3.0 6:5.0 10:1.0 12:4.0 15:1.0 20:6.0 
0.0 1.0 2:1.0 6:1.0 20:1.0 
0.0 1.0 5:1.0 6:2.0 7:1.0 17:1.0 
0.0 1.0 1:2.0 2:1.0 4:1.0 5:1.0 20:1.0 
0.0 1.0 1:2.0 3:2.0 4:1.0 5:1.0 6:3.0 20:2.0 
1.0 0.0 1:2.0 2:1.0 3:4.0 5:3.0 6:2.0 10:1.0 20:2.0 
0.0 1.0 4:2.0 5:1.0 11:1.0 14:1.0 
0.0 1.0 1:1.0 3:1.0 5:1.0 6:1.0 20:1.0 
0.0 1.0 3:2.0 5:2.0 6:3.0 7:1.0 11:1.0 23:1.0 
1.0 0.0 2:1.0 3:3.0 5:1.0 6:1.0 8:1.0 18:1.0 20:1.0 
0.46419381233507745 1.0 3:1.0 11:2.0 
0.0 1.0 3:1.0 4:1.0 
0.0 1.0 2:1.0 6:1.0 20:1.0 
0.0 1.0 1:1.0 3:1.0 4:2.0 5:1.0 6:1.0 11:1.0 20:1.0 
0.0 1.0 3:7.0 4:1.0 6:4.0 7:1.0 14:1.0 35:1.0 
0.0 1.0 4:1.0 7:1.0 11:1.0 17:1.0 
1.0 0.0 2:1.0 3:3.0 4:1.0 5:2.0 6:1.0 8:1.0 10:1.0 14:1.0 20:1.0 24:1.0 
0.0 1.0 1:2.0 3:10.0 4:2.0 5:3.0 6:5.0 11:2.0 12:1.0 20:1.0 21:8.0 26:1.0 
1.0 0.0 2:1.0 3:8.0 4:1.0 5:1.0 6:1.0 10:2.0 12:1.0 15:1.0 20:1.0 
0.0 1.0 3:1.0 5:1.0 6:1.0 7:1.0 10:1.0 14:1.0 23:1.0 
0.0 1.0 1:5.0 3:7.0 4:3.0 5:3.0 6:12.0 10:1.0 11:1.0 12:1.0 20:1.0 21:2.0 26:4.0 32:1.0 
0.0 1.0 3:6.0 4:1.0 5:1.0 11:1.0 
0.0 1.0 3:1.0 4:1.0 11:1.0 
0.0 1.0 3:4.0 4:1.0 5:2.0 6:3.0 11:1.0 13:1.0 22:2.0 
0.0 1.0 8:2.0 18:2.0 
1.0 1.0 3:2.0 4:1.0 5:2.0 6:2.0 9:1.0 11:2.0 13:2.0 16:2.0 25:1.0 
0.057581964354816474 0.0 1:1.0 3:13.0 4:1.0 5:6.0 6:8.0 8:1.0 10:2.0 11:1.0 26:1.0 30:1.0 
0.0 1.0 1:1.0 3:2.0 4:1.0 8:1.0 14:1.0 20:1.0 24:1.0 
0.23673255939846105 0.07336657801858007 1:2.0 2:3.0 3:9.0 4:3.0 5:12.0 6:13.0 10:1.0 11:3.0 12:3.0 14:1.0 20:4.0 27:8.0 38:1.0 
0.0 1.0 1:1.0 4:1.0 5:1.0 6:1.0 20:1.0 
0.21389042169493766 1.0 3:3.0 4:1.0 6:2.0 7:1.0 8:1.0 11:1.0 17:1.0 18:1.0 
1.0 0.0 2:1.0 4:1.0 5:1.0 6:1.0 8:1.0 10:1.0 18:1.0 20:-1.0 
0.0 1.0 1:1.0 3:4.0 4:2.0 5:1.0 11:1.0 14:1.0 26:1.1 
1.0 1.0 3:1.0 6:3.0 8:1.0 13:1.0 16:2.0 24:1.0 
1.0 1.0 3:7.0 5:1.0 6:4.0 8:1.0 11:1.0 24:1.0 
0.0 1.0 3:3.0 6:1.0 13:1.0 16:2.0 
1.0 0.0 3:7.0 5:1.0 6:4.0 10:1.0 14:2.0 
0.0 1.0 1:2.0 3:6.0 4:1.0 5:2.0 6:3.0 20:2.0 
0.0 1.0 1:3.0 3:10.0 5:1.0 6:10.0 7:1.0 11:1.0 13:1.0 16:2.0 17:1.0 26:1.0 32:1.0 
0.0 1.0 1:1.0 3:2.0 20:1.0 
0.0 1.0 1:1.0 3:1.0 5:1.0 11:1.0 14:1.0 20:2.0 
0.0 1.0 1:2.0 2:1.0 3:8.0 4:2.0 5:3.0 6:5.0 13:1.0 14:1.0 26:1.0 28:2.0 
0.0 1.0 3:2.0 4:1.0 5:1.0 13:1.0 16:2.0 
1.0 1.0 1:1.0 2:2.0 3:1.0 4:1.0 6:2.0 14:1.0 26:2.0 
0.0 1.0 1:6.0 3:10.0 4:2.0 5:1.0 6:8.0 13:1.0 20:3.0 22:2.0 26:3.0 
1.0 1.0 1:2.0 3:3.0 6:2.0 20:1.0 
0.0 1.0 1:3.0 3:7.0 4:2.0 5:2.0 6:10.0 11:1.0 12:1.0 13:1.0 15:4.0 16:2.0 20:3.0 
0.775146293056361 0.0 3:2.0 6:2.0 14:1.0 
0.0 1.0 1:2.0 3:1.0 6:2.0 13:1.0 16:2.0 20:2.0 
1.0 0.34887905974631084 1:2.0 3:6.0 5:1.0 6:10.0 11:1.0 12:1.0 15:8.0 20:1.0 
0.0 1.0 2:2.0 3:7.0 5:1.0 7:1.0 17:1.0 20:1.0 
0.20482487450849557 0.1186804995184465 1:3.0 2:3.0 3:16.0 4:2.0 5:5.0 6:7.0 11:2.0 12:1.0 20:8.0 26:2.0 27:8.0 
0.0 1.0 1:3.0 3:4.0 4:3.0 5:2.0 6:4.0 11:1.0 26:3.5 
0.0 1.0 1:1.0 3:1.0 4:1.0 14:1.0 20:1.0 
0.0 1.0 3:1.0 13:1.0 16:2.0 
0.0 1.0 
1.0 0.0 3:2.0 5:1.0 6:1.0 8:1.0 18:1.0 
0.0 1.0 1:2.0 3:3.0 5:2.0 6:4.0 11:2.0 20:2.0 
0.0 1.0 1:1.0 3:3.0 4:1.0 6:2.0 11:1.0 20:1.0 
0.0 1.0 
0.0 1.0 1:3.0 3:9.0 5:2.0 6:6.0 11:1.0 12:1.0 20:2.0 
0.0 1.0 1:4.0 3:6.0 4:2.0 5:3.0 6:6.0 10:1.0 11:1.0 14:2.0 20:1.5 26:2.0 
0.0 1.0 1:2.0 2:3.0 3:5.0 4:5.0 6:7.0 13:1.0 16:2.0 20:5.0 
0.0 1.0 1:1.0 3:3.0 4:1.0 5:3.0 6:1.0 10:1.0 20:1.0 
0.0 1.0 6:4.0 7:1.0 17:1.0 
0.0 1.0 3:6.0 5:2.0 6:9.0 7:1.0 17:1.0 
0.0 0.3581133107374083 1:5.0 3:25.0 4:1.0 6:1.0 12:1.0 15:1.0 20:1.0 
0.0 1.0 1:1.0 3:3.0 5:3.0 6:2.0 11:1.0 20:1.0 
0.0 1.0 1:1.0 3:6.0 5:1.0 6:3.0 7:1.0 20:1.0 23:1.0 
0.0 1.0 3:1.0 5:1.0 11:1.0 
1.0 0.0 2:1.0 3:3.0 4:1.0 5:1.0 6:2.0 11:1.0 32:1.0 
0.37294173116096435 0.0 1:1.0 3:4.0 5:1.0 6:1.0 12:1.0 14:2.0 20:1.0 
1.0 1.0 2:1.0 3:2.0 13:2.0 14:1.0 22:2.0 26:1.0 
1.0 0.0 1:1.0 3:2.0 5:1.0 6:2.0 
0.0 1.0 3:1.0 13:1.0 16:2.0 
0.0 0.15082479621213582 3:4.0 4:2.0 6:1.0 11:2.0 14:1.0 
0.0 1.0 4:2.0 5:1.0 11:1.0 
0.0 1.0 1:1.0 6:2.0 20:1.0 
0.0 1.0 1:6.0 2:1.0 3:18.0 4:4.0 5:2.0 6:15.0 11:2.0 20:10.0 
1.0 1.0 2:1.0 3:1.0 6:2.0 13:2.0 22:2.0 26:1.0 
0.0 1.0 1:2.0 3:5.0 5:2.0 6:4.0 11:1.0 20:3.0 
1.0 0.5396754735799948 1:4.0 3:4.0 4:1.0 6:4.0 9:5.0 19:5.0 20:4.0 
0.3779101438796905 0.0 2:1.0 3:2.0 5:2.0 6:3.0 10:1.0 14:3.0 20:1.0 
0.0 1.0 3:4.0 4:3.0 5:4.0 6:2.0 11:2.0 12:1.0 15:4.0 
1.0 0.0 2:1.0 3:6.0 4:2.0 5:1.0 6:5.0 10:1.0 11:1.0 20:1.0 
0.20620293384090674 0.49512956996474444 1:2.0 3:12.0 4:3.0 5:8.0 6:8.0 11:1.0 12:3.0 27:4.0 33:4.0 38:1.0 
0.0 1.0 3:1.0 13:1.0 16:2.0 
0.31501532691224 0.14391167837771698 14:13.0 
0.0 1.0 4:1.0 6:2.0 11:1.0 
0.0 1.0 
0.0 1.0 1:1.0 3:2.0 6:1.0 14:1.0 20:1.0 
1.0 0.0 2:1.0 3:2.0 4:1.0 5:2.0 6:1.0 10:1.0 11:1.0 20:-1.0 
1.0 0.0 3:1.0 5:1.0 6:2.0 14:2.0 
0.16552635184506434 0.0 5:1.0 6:2.0 10:1.0 14:1.0 
0.0 1.0 1:1.0 3:1.0 4:2.0 5:2.0 6:5.0 13:1.0 14:1.0 26:1.0 
0.0 0.7532967714613413 1:2.0 3:6.0 4:4.0 5:1.0 6:9.0 10:1.0 20:2.0 
0.0 0.3360359648169717 
1.0 1.0 1:1.0 2:2.0 3:4.0 4:3.0 5:2.0 6:2.0 10:1.0 11:3.0 20:2.0 
0.0 1.0 3:1.0 5:3.0 6:3.0 10:1.0 11:2.0 12:1.0 15:4.0 
1.0 1.0 4:1.0 6:3.0 10:1.0 13:1.0 16:2.0 
0.0 1.0 1:1.0 3:5.0 20:1.0 
0.0 1.0 2:1.0 3:2.0 6:2.0 11:1.0 20:2.0 
0.0 1.0 1:1.0 3:9.0 5:1.0 6:2.0 13:2.0 16:2.0 26:1.0 
1.0 0.0 1:1.0 3:11.0 4:2.0 5:4.0 6:7.0 10:3.0 11:2.0 12:1.0 14:1.0 
0.0 1.0 1:1.0 3:1.0 20:1.0 
0.0 1.0 5:1.0 6:2.0 13:1.0 16:2.0 
1.0 1.0 1:1.0 3:1.0 6:1.0 13:6.0 16:2.0 20:1.0 
0.43254546571311164 0.0 1:1.0 2:2.0 3:9.0 5:2.0 6:5.0 11:1.0 13:1.0 14:1.0 16:2.0 20:1.0 32:1.0 
0.6398665692318937 0.0 2:3.0 3:7.0 6:3.0 20:3.0 
0.0 1.0 1:1.0 3:3.0 5:2.0 6:4.0 7:2.0 10:1.0 14:1.0 17:2.0 
0.0 1.0 3:1.0 4:2.0 6:1.0 11:1.0 
0.0 1.0 3:1.0 4:1.0 11:1.0 
1.0 1.0 3:3.0 5:1.0 6:6.0 10:1.0 11:1.0 
0.0 1.0 1:3.0 2:1.0 3:2.0 4:1.0 5:1.0 6:8.0 10:2.0 20:3.0 
0.0 1.0 1:1.0 3:3.0 5:3.0 6:2.0 10:1.0 11:1.0 20:1.5 
0.0 0.9759737590798373 1:3.0 3:19.0 4:5.0 5:3.0 6:9.0 11:3.0 14:1.0 38:2.0 
0.0 1.0 4:1.0 13:1.0 16:2.0 
0.0 1.0 1:2.0 3:2.0 5:2.0 6:1.0 14:1.0 20:2.0 
0.0 1.0 4:1.0 5:1.0 12:1.0 
1.0 1.0 1:3.0 2:2.0 3:10.0 4:3.0 5:4.0 6:7.0 10:4.0 11:3.0 20:4.0 
0.0 1.0 6:3.0 7:1.0 17:1.0 
0.0 1.0 1:1.0 3:3.0 4:1.0 5:3.0 6:1.0 10:1.0 11:1.0 14:1.0 20:3.0 
1.0 1.0 3:2.0 5:2.0 11:2.0 
0.1569920475282378 1.0 5:1.0 6:1.0 11:1.0 12:1.0 15:4.0 
0.0 0.3909998812831563 1:3.0 2:2.0 3:12.0 4:4.0 5:4.0 6:14.0 11:1.0 12:1.0 13:3.0 16:2.0 22:2.0 27:8.0 28:2.0 32:1.0 38:4.0 
0.0 1.0 1:1.0 3:2.0 4:2.0 6:4.0 11:1.0 20:3.0 
0.0 1.0 1:1.0 2:1.0 3:3.0 4:1.0 5:2.0 6:4.0 7:1.0 10:1.0 11:1.0 17:1.0 20:0.5 
0.0 1.0 1:1.0 3:5.0 4:2.0 20:1.0 
0.0 0.22987302148516608 1:2.0 2:1.0 3:4.0 4:3.0 5:4.0 6:9.0 10:2.0 11:1.0 14:1.0 20:1.4 
0.6371383555185759 0.0 1:1.0 2:2.0 3:7.0 5:3.0 6:3.0 12:2.0 15:8.0 20:2.0 
1.0 1.0 2:1.0 6:2.0 11:1.0 20:3.0 
0.6098499173887867 0.8031428617787796 2:1.0 3:8.0 5:7.0 6:7.0 10:1.0 11:6.0 14:4.0 
0.0 1.0 1:4.0 3:3.0 5:2.0 6:2.0 12:1.0 13:2.0 16:2.0 20:2.0 26:1.0 28:2.0 32:1.0 
0.0 1.0 1:2.0 3:3.0 6:1.0 20:2.0 
0.0 1.0 1:1.0 3:4.0 4:1.0 5:1.0 20:1.0 
0.0 1.0 3:2.0 4:1.0 5:1.0 6:5.0 12:1.0 13:1.0 14:1.0 22:2.0 
0.0 1.0 1:2.0 3:2.0 4:4.0 5:2.0 6:4.0 10:1.0 11:2.0 12:1.0 15:4.0 
0.0 1.0 5:1.0 6:2.0 11:1.0 
0.0 1.0 1:6.0 2:1.0 3:10.0 4:6.0 5:6.0 6:5.0 10:1.0 11:2.0 12:2.0 21:4.0 26:3.0 32:-0.8 38:2.0 
0.0 6.567709345643323E-4 1:6.0 2:4.0 3:14.0 4:4.0 5:9.0 6:11.0 11:1.0 12:2.0 20:2.0 21:8.0 26:7.0 32:1.0 
0.0 1.0 1:2.0 2:1.0 3:7.0 4:2.0 5:5.0 6:6.0 10:1.0 11:2.0 12:1.0 20:1.1 21:4.0 26:2.1 
0.0 1.0 1:3.0 2:2.0 3:6.0 4:1.0 5:2.0 6:7.0 11:1.0 12:1.0 15:4.0 20:6.0 
0.4522792469846276 0.9455200590887134 1:3.0 2:3.0 3:7.0 4:2.0 5:7.0 6:7.0 10:1.0 12:1.0 15:8.0 20:4.0 
0.0 1.0 7:1.0 17:1.0 
0.0 1.0 1:1.0 3:6.0 4:1.0 5:6.0 6:9.0 10:3.0 11:3.0 12:2.0 15:4.0 26:1.5 
0.07295283174285225 1.0 3:3.0 5:1.0 6:3.0 13:2.0 16:2.0 22:2.0 
0.0 1.0 1:1.0 3:2.0 5:1.0 6:2.0 11:1.0 12:1.0 20:1.0 
0.0 1.0 1:2.0 3:3.0 6:3.0 11:1.0 20:1.0 
0.0 1.0 1:1.0 2:1.0 3:6.0 4:2.0 5:3.0 6:8.0 11:1.0 20:2.5 
0.09979469178956307 1.0 1:1.0 2:1.0 3:3.0 4:1.0 5:2.0 11:1.0 
0.2485250451537212 1.0 1:6.0 2:1.0 3:4.0 4:3.0 5:3.0 6:7.0 10:1.0 11:5.0 12:2.0 15:4.0 20:24.3 
0.2039266318092655 0.0 1:1.0 2:2.0 3:1.0 4:1.0 5:8.0 6:3.0 10:2.0 11:1.0 12:3.0 14:6.0 15:4.0 20:3.0 
0.0 0.5348661036181753 6:1.0 14:6.0 
0.0 1.0 6:2.0 13:1.0 16:2.0 
0.0 1.0 1:1.0 3:3.0 20:1.0 
1.0 0.0 6:1.0 8:1.0 18:1.0 
0.0 1.0 1:1.0 6:2.0 20:1.0 
0.10621331341030646 0.0 5:2.0 6:2.0 10:1.0 14:6.0 
0.2900598844171179 0.44961463165134885 1:1.0 3:13.0 4:3.0 5:15.0 6:26.0 10:9.0 11:4.0 12:4.0 13:1.0 14:6.0 26:1.0 57:4.0 58:2.0 
1.0 0.0 1:1.0 2:2.0 3:2.0 5:1.0 6:2.0 20:3.0 
0.0 1.0 1:1.0 3:2.0 5:2.0 6:2.0 13:1.0 16:2.0 20:1.0 
1.0 1.0 8:1.0 13:1.0 16:2.0 18:1.0 
1.0 0.0 3:2.0 4:2.0 5:2.0 6:1.0 10:1.0 
0.23679571131757998 0.8107371433079863 1:2.0 3:3.0 4:3.0 5:2.0 6:2.0 11:1.0 12:2.0 14:6.0 21:8.0 26:2.0 
1.0 1.0 5:2.0 6:4.0 10:1.0 
0.0 1.0 2:1.0 6:1.0 20:1.0 
0.0 0.2926154480614709 1:1.0 2:2.0 3:8.0 4:2.0 5:12.0 6:16.0 10:1.0 11:3.0 12:1.0 20:2.0 33:8.0 38:1.0 
1.0 0.0 2:1.0 3:1.0 5:1.0 6:3.0 14:1.0 20:1.0 
0.0 1.0 2:1.0 3:6.0 4:1.0 5:1.0 6:7.0 13:1.0 20:1.0 22:2.0 
0.4205201752246612 1.0 1:2.0 2:2.0 3:8.0 4:1.0 5:4.0 6:9.0 11:2.0 12:3.0 13:1.0 26:1.0 28:2.0 32:3.5 33:4.0 
1.0 0.0 2:1.0 3:2.0 6:2.0 10:1.0 13:1.0 16:2.0 20:-1.0 
0.0 1.0 1:1.0 3:1.0 4:1.0 5:3.0 6:4.0 11:1.0 12:1.0 20:1.0 
1.0 0.0 1:1.0 2:3.0 3:8.0 4:5.0 5:6.0 6:14.0 10:2.0 11:3.0 20:4.0 
0.0 1.0 1:1.0 2:1.0 5:1.0 6:3.0 20:1.0 
0.0 1.0 6:1.0 7:1.0 17:1.0 
0.0 1.0 3:4.0 4:1.0 6:2.0 11:1.0 12:1.0 
0.14271950537807881 1.0 1:2.0 3:3.0 5:3.0 6:2.0 11:1.0 20:1.8 
0.0 1.0 1:2.0 3:11.0 4:3.0 5:1.0 6:6.0 11:1.0 13:1.0 16:2.0 20:1.0 26:1.0 
0.0 1.0 5:2.0 6:1.0 7:1.0 12:1.0 17:1.0 
1.0 0.0 2:2.0 3:2.0 6:1.0 12:1.0 14:1.0 15:2.0 20:1.0 
1.0 1.0 1:1.0 2:1.0 3:2.0 5:5.0 6:5.0 10:2.0 13:1.0 16:2.0 26:-1.0 
0.0 1.0 1:1.0 3:2.0 4:3.0 5:8.0 6:9.0 10:1.0 11:1.0 20:1.0 
0.0 1.0 4:1.0 6:1.0 
0.0 1.0 2:2.0 3:1.0 4:2.0 5:2.0 6:4.0 7:1.0 17:1.0 20:2.0 
1.0 0.0 2:2.0 3:3.0 4:1.0 5:2.0 6:2.0 20:2.0 
0.15497394280425805 1.0 1:2.0 3:4.0 4:5.0 5:7.0 6:6.0 11:7.0 20:4.0 26:2.0 
0.183550210382602 1.0 2:1.0 3:4.0 5:6.0 6:6.0 10:1.0 11:2.0 12:1.0 27:4.0 32:1.0 
1.0 0.0 1:1.0 2:1.0 3:6.0 5:2.0 6:4.0 12:1.0 20:1.0 
1.0 0.0 2:1.0 3:2.0 5:1.0 6:3.0 12:1.0 15:4.0 20:1.0 
0.0 1.0 1:1.0 20:1.0 
0.0 1.0 3:2.0 4:1.0 5:2.0 6:2.0 7:1.0 12:1.0 17:1.0 
1.0 0.0 3:1.0 4:3.0 5:2.0 6:3.0 10:1.0 11:1.0 12:1.0 14:1.0 15:8.0 
0.0 1.0 3:1.0 4:1.0 5:1.0 12:1.0 
1.0 1.0 1:3.0 3:3.0 4:1.0 5:1.0 6:3.0 10:1.0 12:1.0 20:1.0 
0.0 1.0 6:3.0 
0.0 1.0 3:1.0 5:1.0 6:2.0 13:1.0 16:2.0 
0.0 1.0 1:2.0 3:2.0 5:2.0 6:1.0 11:1.0 12:1.0 20:1.0 
0.0 1.0 3:1.0 7:1.0 17:1.0 
1.0 1.0 3:1.0 4:1.0 5:1.0 6:1.0 11:1.0 
0.12704439910086165 0.0 5:2.0 6:2.0 
1.0 0.0 2:1.0 3:3.0 4:1.0 5:2.0 6:3.0 11:2.0 20:1.0 
1.0 0.0 2:1.0 5:2.0 6:3.0 10:1.0 11:1.0 20:-0.8 
0.0 1.0 1:1.0 6:2.0 14:1.0 
0.5543320848093931 0.0 1:1.0 2:1.0 3:5.0 4:2.0 5:1.0 6:2.0 10:1.0 11:1.0 20:-3.4 
0.0 0.12063346466715316 3:2.0 5:1.0 6:6.0 
0.0 1.0 3:1.0 4:1.0 
0.23430861494987937 0.0 3:2.0 6:2.0 11:1.0 
0.0 1.0 1:1.0 3:3.0 4:2.0 6:1.0 20:1.0 
0.0 1.0 1:1.0 5:1.0 6:4.0 11:1.0 
0.0 1.0 3:1.0 11:1.0 
0.0 1.0 1:1.0 3:1.0 4:1.0 6:4.0 11:1.0 12:1.0 15:4.0 20:1.0 
0.0 1.0 3:3.0 4:1.0 5:2.0 6:1.0 10:1.0 12:1.0 14:1.0 15:4.0 16:1.0 
0.0 1.0 1:4.0 3:7.0 4:3.0 5:3.0 6:4.0 11:3.0 12:2.0 20:9.0 21:1.0 26:3.5 
0.0 1.0 3:4.0 4:1.0 5:2.0 6:4.0 7:1.0 12:1.0 29:1.0 
0.0 1.0 3:4.0 5:1.0 6:3.0 13:1.0 22:2.0 
0.0466846242472768 0.6847711542467176 1:2.0 3:19.0 4:3.0 5:5.0 6:4.0 11:3.0 38:1.0 56:1.0 
0.0 1.0 1:3.0 3:5.0 4:3.0 5:5.0 6:4.0 10:1.0 11:2.0 12:1.0 20:3.5 
0.0 1.0 6:1.0 11:1.0 
0.0 1.0 3:3.0 4:1.0 6:4.0 11:1.0 
0.0 1.0 1:2.0 3:1.0 4:2.0 6:1.0 11:1.0 20:2.0 
0.0 1.0 3:1.0 5:1.0 7:1.0 11:1.0 14:1.0 23:1.0 
1.0 0.0 6:1.0 8:1.0 14:1.0 24:1.0 
0.4385117388434201 0.6626812241121888 1:2.0 2:1.0 3:9.0 4:4.0 5:5.0 6:13.0 11:6.0 12:3.0 13:2.0 16:2.0 21:4.0 26:1.0 27:8.0 32:4.0 33:8.0 34:2.0 
0.0 1.0 1:1.0 3:1.0 20:1.0 
0.0 1.0 1:1.0 3:1.0 5:2.0 6:1.0 10:1.0 11:1.0 
0.2808894147030305 0.0 1:2.0 2:4.0 3:12.0 4:1.0 5:1.0 6:7.0 11:1.0 14:1.0 20:1.0 26:3.0 32:2.0 
0.0 1.0 3:6.0 4:1.0 6:4.0 11:1.0 
0.0 1.0 7:1.0 17:1.0 
1.0 0.0 1:1.0 3:2.0 5:1.0 6:2.0 
0.0 1.0 1:1.0 3:5.0 6:3.0 13:1.0 16:2.0 20:1.0 
0.4384998221427118 1.0 2:2.0 3:7.0 5:1.0 7:1.0 17:1.0 20:1.0 
0.0 1.0 1:4.0 3:17.0 4:4.0 5:6.0 6:9.0 11:3.0 12:1.0 26:1.0 32:2.0 33:8.0 
0.0 0.06170769009823056 1:3.0 3:8.0 4:1.0 5:3.0 6:2.0 11:1.0 14:6.0 20:1.0 32:6.0 
1.0 1.0 2:1.0 3:1.0 4:1.0 5:1.0 6:1.0 13:1.0 16:2.0 20:1.0 
0.0 1.0 1:4.0 3:8.0 4:3.0 5:1.0 6:3.0 20:4.0 
0.0 1.0 1:8.0 3:9.0 4:1.0 5:1.0 6:6.0 20:3.0 26:3.0 
0.0 1.0 1:2.0 3:4.0 4:2.0 5:1.0 6:1.0 11:1.0 20:3.0 
0.0 1.0 1:1.0 3:2.0 5:3.0 6:3.0 13:1.0 16:2.0 
0.0 1.0 1:3.0 3:10.0 4:2.0 5:2.0 6:3.0 20:2.0 26:1.0 
0.0 1.0 1:1.0 3:2.0 4:1.0 5:2.0 6:1.0 11:1.0 14:1.0 20:2.0 
0.0 1.0 1:4.0 2:1.0 3:7.0 4:1.0 6:4.0 20:4.0 
1.0 0.0 3:1.0 6:2.0 8:1.0 18:1.0 
0.0 1.0 1:1.0 3:4.0 4:1.0 5:3.0 6:4.0 11:1.0 12:1.0 20:1.0 
0.0 1.0 1:1.0 2:2.0 3:11.0 4:2.0 5:4.0 6:9.0 11:2.0 13:2.0 16:2.0 22:2.0 26:3.0 
0.0 1.0 1:1.0 3:7.0 4:2.0 5:1.0 6:2.0 11:1.0 12:1.0 15:8.0 20:1.0 
0.0 1.0 1:1.0 6:2.0 20:1.0 
0.0 1.0 1:1.0 2:1.0 3:7.0 4:1.0 5:5.0 6:4.0 10:2.0 12:1.0 20:1.0 
1.0 0.0 3:7.0 4:1.0 5:3.0 6:5.0 10:1.0 
0.0 1.0 4:1.0 5:1.0 12:1.0 
0.0 1.0 3:5.0 5:1.0 6:1.0 7:3.0 11:1.0 12:1.0 14:2.0 23:3.0 
1.0 1.0 3:4.0 4:1.0 5:2.0 6:1.0 11:2.0 12:1.0 13:1.0 14:4.0 22:2.0 
0.0 1.0 1:2.0 3:7.0 4:1.0 5:2.0 6:4.0 10:2.0 20:2.0 
1.0 0.0 2:1.0 3:1.0 4:1.0 5:1.0 6:4.0 10:1.0 20:1.0 
0.0 1.0 11:1.0 
0.0 1.0 3:2.0 5:1.0 6:2.0 13:1.0 16:2.0 
1.0 0.0 3:3.0 5:4.0 6:1.0 10:2.0 
0.0 1.0 3:1.0 4:2.0 6:1.0 
0.6348238540710032 0.0 3:1.0 4:1.0 5:1.0 6:2.0 
0.0 1.0 1:1.0 3:2.0 4:1.0 6:2.0 11:1.0 20:1.0 
1.0 1.0 2:1.0 3:3.0 4:1.0 5:3.0 6:5.0 10:1.0 11:1.0 12:2.0 13:1.0 14:1.0 21:4.0 22:2.0 26:1.0 
0.7272893500795973 1.0 3:2.0 5:1.0 6:8.0 11:1.0 12:1.0 13:2.0 15:2.0 16:2.0 22:2.0 
0.0 1.0 1:1.0 3:11.0 4:1.0 5:5.0 6:4.0 10:2.0 11:1.0 12:1.0 15:4.0 20:1.0 
0.0 1.0 1:2.0 3:2.0 6:4.0 14:1.0 26:1.0 
0.0 1.0 3:4.0 4:1.0 6:3.0 11:1.0 
0.0 1.0 
0.0 0.08968614506980883 1:1.0 3:16.0 4:1.0 5:4.0 6:6.0 11:5.0 38:1.0 
0.0 1.0 1:1.0 3:4.0 4:2.0 5:3.0 6:2.0 11:1.0 12:1.0 26:1.0 
0.0 1.0 5:1.0 6:1.0 10:1.0 13:1.0 16:2.0 
